~o
<STREAMINFO> 1 39
<VECSIZE> 39<NULLD><MFCC_D_A_0><DIAGC>
~h "up"
<BEGINHMM>
<NUMSTATES> 12
<STATE> 2
<MEAN> 39
 -9.618293e+00 4.044816e+00 -2.793700e+00 -8.287772e+00 -7.660898e+00 2.927250e+00 1.922588e+00 3.644795e-01 -5.843774e-01 -1.769952e+00 1.842867e+00 2.348092e-01 5.504970e+01 3.019088e+00 1.075873e+00 -1.108481e+00 -4.376831e+00 -4.797524e+00 6.618562e-02 -4.828354e-01 -2.039809e+00 -1.376427e+00 -2.084066e+00 -6.238691e-01 -1.269572e+00 3.880814e+00 1.429708e-01 -1.412149e-01 7.302217e-02 -9.707998e-02 -3.161236e-01 -2.347969e-02 -4.336334e-02 -3.006270e-01 7.297868e-02 -1.423655e-01 -4.647124e-02 -1.291565e-01 4.740434e-01
<VARIANCE> 39
 3.886692e+01 2.777086e+01 1.704675e+01 7.924619e+01 9.182045e+01 4.913536e+01 2.605577e+01 3.773091e+01 4.517695e+01 3.686562e+01 2.261850e+01 2.564932e+01 4.713820e+01 1.532589e+00 2.086483e+00 2.041167e+00 3.318709e+00 4.906319e+00 4.205156e+00 2.429825e+00 3.308080e+00 4.743346e+00 3.476816e+00 2.846077e+00 2.496909e+00 2.801966e+00 8.099590e-01 4.055099e-01 2.891771e-01 1.490464e+00 1.474226e+00 5.153124e-01 3.726414e-01 5.665886e-01 6.411604e-01 5.854636e-01 3.782596e-01 4.547042e-01 7.855928e-01
<GCONST> 1.260234e+02
<STATE> 3
<MEAN> 39
 -2.120936e+00 6.005678e+00 -6.056620e+00 -1.883398e+01 -2.217101e+01 1.182245e+00 2.677454e-01 -5.963268e+00 -4.142640e+00 -6.855157e+00 -1.940446e+00 -3.056650e+00 6.823329e+01 2.042362e-02 1.887848e-01 5.244560e-02 2.341900e-01 2.335104e-01 -4.213954e-01 -1.298161e-01 -3.963192e-02 1.261391e-01 -1.136956e-01 -4.370601e-01 -1.469705e-01 1.190957e-01 -4.627294e-01 -5.977197e-02 2.463048e-01 9.130077e-01 1.090144e+00 -5.728155e-02 1.188591e-01 4.777303e-01 1.423811e-01 3.183915e-01 4.949677e-02 1.311688e-01 -8.939838e-01
<VARIANCE> 39
 1.029426e+01 1.527637e+01 2.176993e+01 2.713599e+01 3.905871e+01 1.046121e+02 3.827287e+01 5.952259e+01 1.037774e+02 5.266367e+01 3.567155e+01 2.446108e+01 1.801545e+01 7.370678e-01 7.606615e-01 7.987954e-01 3.492172e+00 5.149726e+00 1.818232e+00 1.374369e+00 3.066382e+00 1.406277e+00 1.508602e+00 1.652437e+00 9.199308e-01 3.134910e+00 2.602701e-01 2.000937e-01 2.020989e-01 6.491601e-01 5.376994e-01 3.356484e-01 3.074979e-01 5.306528e-01 4.146082e-01 3.602031e-01 3.426934e-01 2.449535e-01 3.083891e-01
<GCONST> 1.098012e+02
<STATE> 4
<MEAN> 39
 -4.834569e+00 5.928008e+00 -1.831108e+00 -8.817119e+00 -8.679991e+00 -1.705049e+00 3.647445e-01 -2.563366e+00 -2.355671e+00 -6.327642e+00 -3.229437e+00 -4.505430e+00 6.123400e+01 -2.724295e+00 -1.030988e+00 1.849632e+00 4.609436e+00 4.918337e+00 1.218557e-01 8.034380e-01 1.674848e+00 1.051417e+00 1.286073e+00 4.311827e-01 6.357442e-01 -3.957738e+00 -4.684258e-01 -3.158342e-01 -4.577369e-02 -3.056659e-01 -4.489027e-01 4.610021e-01 3.067251e-01 4.450930e-02 5.359366e-01 4.237401e-01 5.398648e-01 4.570761e-01 -2.144390e-01
<VARIANCE> 39
 2.813233e+01 1.696711e+01 2.438858e+01 3.793825e+01 4.671180e+01 3.177827e+01 2.273386e+01 2.201647e+01 5.121322e+01 2.099240e+01 1.756094e+01 2.135178e+01 3.497199e+01 8.792937e-01 1.532046e+00 2.016546e+00 2.414671e+00 4.162334e+00 4.702024e+00 2.660370e+00 3.380137e+00 4.887969e+00 3.225981e+00 2.534270e+00 1.980331e+00 1.400700e+00 3.205222e-01 3.744884e-01 4.696155e-01 9.238765e-01 1.204438e+00 3.429587e-01 2.916448e-01 4.744244e-01 4.279430e-01 3.640681e-01 4.044146e-01 2.370211e-01 4.387458e-01
<GCONST> 1.155700e+02
<STATE> 5
<MEAN> 39
 -1.329659e+01 2.102968e+00 7.280074e-01 -1.129057e+00 -1.161794e+00 1.937506e+00 4.156305e+00 2.642327e+00 4.619785e+00 3.728372e-01 1.730751e+00 8.435186e-01 5.028131e+01 -1.289274e+00 -8.454844e-01 -1.490032e-02 9.739364e-01 9.296538e-01 5.898479e-01 6.344270e-01 1.249896e+00 1.502418e+00 1.788390e+00 1.423439e+00 1.245535e+00 -1.799170e+00 6.585583e-01 2.017070e-01 -3.165289e-01 -7.588932e-01 -7.144781e-01 -2.007546e-01 -3.219354e-01 -3.963608e-01 -4.128911e-01 -3.733343e-01 -2.389228e-01 -2.571796e-01 8.672504e-01
<VARIANCE> 39
 1.622220e+01 9.632226e+00 7.881010e+00 1.328701e+01 1.208929e+01 1.937417e+01 1.844084e+01 2.498038e+01 3.158692e+01 2.381988e+01 1.847901e+01 1.540298e+01 1.226885e+01 1.344280e+00 1.181872e+00 1.292270e+00 1.507685e+00 2.599583e+00 1.477238e+00 1.789101e+00 1.737472e+00 2.087899e+00 1.716036e+00 1.679282e+00 1.648750e+00 1.906687e+00 1.160617e-01 1.941933e-01 2.886616e-01 4.044282e-01 7.018903e-01 3.599498e-01 3.592597e-01 3.806165e-01 4.323831e-01 4.403830e-01 3.824109e-01 2.942264e-01 1.325501e-01
<GCONST> 9.913013e+01
<STATE> 6
<MEAN> 39
 -1.505688e+01 1.029388e+00 7.360805e-01 8.865803e-01 1.490176e+00 1.849685e+00 3.236135e+00 2.994301e+00 3.959055e+00 2.761993e+00 3.001329e+00 2.240118e+00 4.819025e+01 -1.008269e-01 -4.499367e-02 2.992943e-02 1.689062e-01 2.757237e-01 4.355725e-02 -3.217262e-02 -4.107357e-02 -1.546129e-01 8.798460e-02 3.343629e-02 2.201359e-02 -9.465560e-02 2.130844e-02 3.439710e-02 -1.517083e-03 -2.612069e-02 -4.989665e-02 -2.596856e-02 -1.100336e-03 -1.227249e-02 -4.300705e-02 -5.977644e-02 -4.927811e-02 -5.016764e-02 7.317560e-02
<VARIANCE> 39
 8.830869e+00 7.498388e+00 7.149818e+00 6.955246e+00 1.068950e+01 1.354908e+01 1.551583e+01 1.829901e+01 2.108047e+01 1.501703e+01 1.462477e+01 1.123297e+01 7.108496e+00 1.326897e-01 2.179044e-01 3.124764e-01 5.102658e-01 8.222333e-01 1.093143e+00 1.204903e+00 1.243502e+00 1.203021e+00 1.253515e+00 1.183526e+00 1.044922e+00 4.635253e-02 3.213244e-02 5.140444e-02 6.323243e-02 1.116051e-01 1.554888e-01 2.432804e-01 2.505662e-01 2.547502e-01 2.723779e-01 2.638308e-01 2.367119e-01 2.073363e-01 2.330478e-02
<GCONST> 6.889902e+01
<STATE> 7
<MEAN> 39
 -1.563162e+01 6.219153e-01 8.444541e-01 2.391596e+00 3.127550e+00 2.888425e+00 4.476022e+00 4.550413e+00 4.411814e+00 3.914239e+00 4.010138e+00 2.287236e+00 4.777348e+01 -9.853121e-02 -5.344338e-01 -4.212154e-02 -2.792347e-01 -9.664021e-02 -7.860841e-01 -6.257378e-01 -3.317731e-01 -8.400184e-02 -1.462888e-01 -3.453431e-01 -2.411682e-01 1.587963e+00 6.225771e-02 -3.541161e-01 -1.426664e-01 -2.490916e-01 -2.683252e-02 -2.900801e-01 -3.718591e-01 -2.409327e-01 -5.307797e-02 -7.609595e-02 -1.137998e-01 -1.396656e-01 8.960640e-01
<VARIANCE> 39
 9.114536e+00 1.222125e+01 6.851917e+00 6.004365e+00 9.357866e+00 1.001962e+01 1.198044e+01 1.454092e+01 1.536808e+01 1.193673e+01 1.359148e+01 8.145015e+00 6.207729e+00 6.926155e-01 8.639605e-01 1.060894e+00 1.012521e+00 1.201460e+00 1.363551e+00 2.031921e+00 1.651189e+00 1.370231e+00 1.073066e+00 1.170076e+00 1.257226e+00 3.305683e+00 1.362990e-01 1.561640e-01 2.255710e-01 1.672937e-01 2.484476e-01 2.295051e-01 3.348610e-01 2.515411e-01 2.310227e-01 2.298476e-01 2.987080e-01 2.775413e-01 3.031175e-01
<GCONST> 8.569739e+01
<STATE> 8
<MEAN> 39
 -1.588053e+01 -3.129544e+00 -4.964312e-01 -9.071454e-01 2.546929e+00 -2.541644e+00 -1.122380e+00 3.033115e-01 2.366018e+00 2.468640e+00 1.625676e+00 -2.825536e-03 5.981948e+01 2.883189e-02 -1.673381e+00 -1.085453e+00 -9.949036e-01 1.706512e-01 -7.552126e-01 -9.894152e-01 -1.140686e-01 -2.377780e-01 7.643045e-02 -2.777546e-01 -8.356908e-01 3.266654e+00 7.425643e-02 -2.665710e-02 -2.526507e-01 -1.236106e-01 -7.924924e-02 3.063134e-01 2.758068e-01 2.948399e-01 4.074006e-02 1.119759e-01 5.183745e-02 5.969869e-02 -6.141217e-01
<VARIANCE> 39
 2.338026e+01 1.426937e+01 1.737210e+01 1.191890e+01 2.076120e+01 2.100546e+01 3.045332e+01 1.560414e+01 1.739865e+01 2.076449e+01 1.546944e+01 1.918522e+01 3.182543e+01 1.457160e+00 1.556441e+00 2.369039e+00 1.204583e+00 2.395876e+00 2.320613e+00 2.583572e+00 2.140037e+00 1.763188e+00 2.394145e+00 2.159536e+00 2.204852e+00 3.682243e+00 1.967847e-01 3.302922e-01 3.564495e-01 2.514959e-01 4.386585e-01 4.062968e-01 4.540569e-01 3.381511e-01 3.688745e-01 4.488598e-01 4.138348e-01 4.788629e-01 8.940287e-01
<GCONST> 1.074292e+02
<STATE> 9
<MEAN> 39
 -1.460559e+01 -8.519382e+00 -3.332012e+00 -4.746765e+00 2.379126e+00 -2.257739e+00 -1.006610e+00 8.279434e-01 1.552045e+00 2.931151e+00 9.790218e-01 -9.903820e-01 6.404053e+01 3.466081e-01 -3.529080e-01 -3.697936e-01 -4.286662e-01 -4.266914e-01 -7.015236e-02 -2.507592e-01 -7.721013e-02 -3.753635e-02 8.436540e-02 -3.429261e-01 2.025128e-01 -5.346617e-01 2.910488e-02 4.296236e-01 3.664910e-01 3.070454e-01 1.029513e-01 1.457196e-01 1.704114e-01 -5.088644e-03 9.083024e-02 -1.932781e-02 7.743169e-02 1.323654e-01 -7.396454e-01
<VARIANCE> 39
 4.659406e+01 9.582936e+00 2.715955e+01 1.483680e+01 2.364460e+01 1.864787e+01 4.063225e+01 2.463498e+01 2.175908e+01 1.833728e+01 1.935995e+01 2.207185e+01 1.953416e+01 4.507791e-01 9.795908e-01 1.384062e+00 1.470994e+00 1.609708e+00 1.462429e+00 1.894404e+00 2.051003e+00 1.842444e+00 2.138105e+00 1.718826e+00 2.016449e+00 1.140540e+00 1.342426e-01 2.204471e-01 2.863052e-01 2.322966e-01 3.895636e-01 2.795845e-01 4.192781e-01 4.302960e-01 3.130527e-01 3.287621e-01 3.637508e-01 4.537495e-01 4.233469e-01
<GCONST> 1.015510e+02
<STATE> 10
<MEAN> 39
 -1.518474e+01 -5.929166e+00 -4.164750e+00 -4.680009e+00 1.491340e+00 -5.811840e+00 -5.042140e+00 3.506866e+00 1.122158e+00 1.309664e+00 -1.179254e-01 -1.735505e+00 5.872947e+01 2.450579e-01 2.740949e-01 1.769400e-01 2.306721e-01 4.781928e-02 1.468300e-01 1.562891e-01 -5.722666e-03 1.572233e-01 -4.761296e-02 1.396227e-01 1.241007e-01 -7.358314e-01 -4.446837e-02 4.163714e-02 -6.368112e-03 7.390336e-02 2.400840e-02 9.944857e-02 5.678274e-02 -3.089577e-02 -1.164384e-02 -1.262507e-02 -2.450504e-03 4.172440e-02 3.821414e-03
<VARIANCE> 39
 7.640129e+00 1.176211e+01 1.041854e+01 1.151488e+01 1.125716e+01 1.955511e+01 2.179736e+01 2.110324e+01 1.949597e+01 2.433983e+01 1.539561e+01 1.235451e+01 1.499586e+01 3.823866e-01 5.473847e-01 6.320567e-01 7.890179e-01 1.001692e+00 1.740944e+00 1.554176e+00 1.486876e+00 1.424237e+00 1.512058e+00 1.308515e+00 1.275744e+00 6.929920e-01 5.673855e-02 8.233180e-02 1.284359e-01 1.335499e-01 2.177608e-01 3.570846e-01 3.282364e-01 2.921769e-01 2.878734e-01 3.107345e-01 2.686878e-01 2.272460e-01 4.007763e-02
<GCONST> 8.389588e+01
<STATE> 11
<MEAN> 39
 -1.166397e+01 -4.747902e+00 -2.387314e+00 -4.786024e-01 3.411050e+00 2.413153e+00 2.417910e+00 1.225106e+00 3.574850e+00 3.416034e+00 1.979218e+00 1.563015e+00 5.242396e+01 -2.404563e-01 6.430417e-01 2.350771e-01 5.597774e-01 3.004485e-01 4.202208e-01 4.398049e-01 6.933853e-02 -2.007582e-01 1.182760e-02 9.826803e-02 1.021332e-01 -8.754275e-01 -5.428794e-02 -3.456092e-02 6.485450e-02 -5.913926e-02 -5.737918e-02 -1.592852e-01 -6.137055e-02 -4.165688e-02 -6.795966e-02 8.188925e-03 2.691253e-02 -4.473204e-02 1.595016e-01
<VARIANCE> 39
 1.291294e+01 1.981537e+01 6.832342e+00 9.673963e+00 1.416737e+01 2.846498e+01 2.211587e+01 2.686930e+01 2.053110e+01 2.440007e+01 1.883215e+01 1.546308e+01 1.248551e+01 3.955632e-01 6.638147e-01 6.267933e-01 9.159262e-01 1.208198e+00 2.566101e+00 1.464370e+00 2.071756e+00 1.441103e+00 2.041720e+00 2.020041e+00 1.563206e+00 3.427977e-01 7.869841e-02 1.085019e-01 8.887554e-02 1.923924e-01 2.163718e-01 4.480441e-01 2.809229e-01 3.665065e-01 2.902120e-01 3.893218e-01 3.847864e-01 2.864366e-01 5.041417e-02
<GCONST> 8.891047e+01
<TRANSP> 12
 0.000000e+00 1.000000e+00 0.000000e+00 0.000000e+00 0.000000e+00 0.000000e+00 0.000000e+00 0.000000e+00 0.000000e+00 0.000000e+00 0.000000e+00 0.000000e+00
 0.000000e+00 7.542010e-01 2.457990e-01 0.000000e+00 0.000000e+00 0.000000e+00 0.000000e+00 0.000000e+00 0.000000e+00 0.000000e+00 0.000000e+00 0.000000e+00
 0.000000e+00 0.000000e+00 8.623405e-01 1.376595e-01 0.000000e+00 0.000000e+00 0.000000e+00 0.000000e+00 0.000000e+00 0.000000e+00 0.000000e+00 0.000000e+00
 0.000000e+00 0.000000e+00 0.000000e+00 6.234143e-01 3.765857e-01 0.000000e+00 0.000000e+00 0.000000e+00 0.000000e+00 0.000000e+00 0.000000e+00 0.000000e+00
 0.000000e+00 0.000000e+00 0.000000e+00 0.000000e+00 7.041468e-01 2.958532e-01 0.000000e+00 0.000000e+00 0.000000e+00 0.000000e+00 0.000000e+00 0.000000e+00
 0.000000e+00 0.000000e+00 0.000000e+00 0.000000e+00 0.000000e+00 9.056642e-01 9.433582e-02 0.000000e+00 0.000000e+00 0.000000e+00 0.000000e+00 0.000000e+00
 0.000000e+00 0.000000e+00 0.000000e+00 0.000000e+00 0.000000e+00 0.000000e+00 7.087327e-01 2.912674e-01 0.000000e+00 0.000000e+00 0.000000e+00 0.000000e+00
 0.000000e+00 0.000000e+00 0.000000e+00 0.000000e+00 0.000000e+00 0.000000e+00 0.000000e+00 6.571310e-01 3.428690e-01 0.000000e+00 0.000000e+00 0.000000e+00
 0.000000e+00 0.000000e+00 0.000000e+00 0.000000e+00 0.000000e+00 0.000000e+00 0.000000e+00 0.000000e+00 7.427314e-01 2.572686e-01 0.000000e+00 0.000000e+00
 0.000000e+00 0.000000e+00 0.000000e+00 0.000000e+00 0.000000e+00 0.000000e+00 0.000000e+00 0.000000e+00 0.000000e+00 8.720058e-01 1.279942e-01 0.000000e+00
 0.000000e+00 0.000000e+00 0.000000e+00 0.000000e+00 0.000000e+00 0.000000e+00 0.000000e+00 0.000000e+00 0.000000e+00 0.000000e+00 8.091417e-01 1.908583e-01
 0.000000e+00 0.000000e+00 0.000000e+00 0.000000e+00 0.000000e+00 0.000000e+00 0.000000e+00 0.000000e+00 0.000000e+00 0.000000e+00 0.000000e+00 0.000000e+00
<ENDHMM>
~h "right"
<BEGINHMM>
<NUMSTATES> 12
<STATE> 2
<MEAN> 39
 -1.233915e+01 -8.910380e+00 2.255519e+00 -6.728017e-01 -3.866114e+00 -1.554839e+00 5.746928e+00 5.417385e+00 3.469062e+00 -3.774234e+00 -2.527260e+00 9.815526e-01 5.954633e+01 5.337294e-01 -2.421086e-01 5.342210e-02 -8.733371e-02 -9.985858e-01 -8.575404e-01 -1.624776e-01 -1.578869e-01 1.251291e-01 -4.347544e-01 -1.323264e-01 -5.701621e-01 1.491977e+00 2.314870e-01 3.262105e-01 4.085545e-02 -2.389198e-03 -1.174484e-01 -2.110000e-01 -2.744630e-01 -2.315099e-01 -5.066393e-02 1.157616e-01 2.140168e-01 -1.441358e-01 1.213580e-01
<VARIANCE> 39
 3.057672e+01 2.201139e+01 1.880886e+01 1.851982e+01 2.810656e+01 1.976154e+01 3.044392e+01 3.466466e+01 2.119242e+01 2.223690e+01 2.168770e+01 2.186681e+01 3.414201e+01 1.377238e+00 2.666214e+00 1.439796e+00 2.065989e+00 2.086730e+00 1.798699e+00 2.889840e+00 2.452384e+00 2.506850e+00 2.011662e+00 2.029263e+00 1.982485e+00 1.421411e+00 2.034763e-01 3.096568e-01 2.671871e-01 5.321976e-01 3.433031e-01 4.001511e-01 4.933777e-01 4.262663e-01 4.848492e-01 3.880506e-01 3.599074e-01 3.792001e-01 2.343726e-01
<GCONST> 1.088323e+02
<STATE> 3
<MEAN> 39
 -6.088492e+00 -4.559349e+00 2.839955e+00 -3.387244e+00 -1.302208e+01 -1.025543e+01 -1.305570e-01 2.085446e+00 2.820890e+00 -5.345567e+00 2.037286e-01 -3.464596e+00 6.990520e+01 1.424719e+00 -4.940025e-01 6.954880e-01 -1.703175e+00 -2.361284e+00 -2.180318e+00 -1.863026e+00 -6.825572e-01 -2.831792e-01 -1.364551e-01 1.161428e+00 -2.562967e-01 3.048635e+00 -6.655217e-01 -5.114751e-01 2.012322e-02 -9.570332e-02 2.285313e-01 4.068258e-01 2.094008e-01 2.201887e-01 3.374861e-02 1.078890e-01 1.167542e-01 4.086922e-01 -3.779154e-01
<VARIANCE> 39
 3.576706e+01 1.970438e+01 1.341661e+01 4.427642e+01 4.335111e+01 1.886421e+01 6.160132e+01 2.654350e+01 3.708986e+01 1.182796e+01 1.351404e+01 9.169860e+00 2.509916e+01 1.501709e+00 1.553071e+00 1.226949e+00 2.437346e+00 2.396885e+00 1.715997e+00 1.640909e+00 1.698254e+00 2.854427e+00 1.624290e+00 1.278865e+00 9.718063e-01 1.619454e+00 1.179021e-01 2.812794e-01 1.683876e-01 5.254182e-01 4.115245e-01 3.913925e-01 2.835840e-01 2.720580e-01 2.946047e-01 3.215972e-01 2.376734e-01 1.634896e-01 3.920107e-01
<GCONST> 1.027089e+02
<STATE> 4
<MEAN> 39
 -6.680153e+00 -7.773236e+00 5.569787e+00 -4.768374e+00 -1.757352e+01 -1.339506e+01 -1.987197e+00 -6.013712e-01 2.259554e+00 -5.352666e+00 4.146125e+00 -2.292687e+00 7.518082e+01 -9.517018e-02 1.361169e-01 9.855985e-01 -2.155049e-02 -9.600317e-01 -1.418791e-01 -3.521808e-01 -9.936526e-01 -5.378574e-01 -5.970492e-02 7.693647e-01 2.930932e-01 1.307912e-01 -6.592438e-02 3.370472e-01 6.555985e-02 2.116291e-01 1.936835e-01 3.199517e-01 1.888106e-01 -1.844033e-01 -1.360638e-01 -2.089004e-02 -1.588498e-01 2.490256e-02 -4.626126e-01
<VARIANCE> 39
 3.790144e+01 1.142805e+01 1.513681e+01 4.430605e+01 2.706891e+01 1.130160e+01 6.540765e+01 3.948756e+01 6.192215e+01 1.799052e+01 1.201078e+01 5.694743e+00 1.170737e+01 2.614514e-01 9.740461e-01 7.597850e-01 9.111949e-01 1.166006e+00 9.111585e-01 7.109737e-01 7.788166e-01 1.052156e+00 9.308824e-01 5.890390e-01 5.473389e-01 5.437285e-01 8.212803e-02 1.375124e-01 1.216081e-01 2.338955e-01 2.221862e-01 1.600806e-01 1.619072e-01 1.728955e-01 1.979556e-01 1.470920e-01 1.298709e-01 6.346583e-02 1.488517e-01
<GCONST> 8.231451e+01
<STATE> 5
<MEAN> 39
 -5.834130e+00 -4.670876e+00 1.310054e+01 -3.603283e+00 -2.251480e+01 -8.941856e+00 -1.487497e+00 -1.152977e+01 2.224858e+00 -9.052396e+00 5.162493e+00 3.474558e-01 7.405210e+01 -3.418231e-01 5.867364e-01 9.390930e-01 -1.177866e-01 4.243625e-02 6.243272e-01 -3.043595e-01 -8.843829e-01 -6.783656e-01 -1.679498e-01 -3.444081e-01 1.517292e-01 -3.355635e-01 -2.455414e-02 -2.522798e-02 -1.060345e-01 1.620968e-02 1.375389e-01 -4.499383e-02 -2.012896e-02 2.001236e-01 3.735292e-03 -1.369071e-03 -7.077666e-02 -2.301705e-02 1.506657e-02
<VARIANCE> 39
 5.300188e+01 1.433259e+01 3.480522e+01 2.707049e+01 2.172968e+01 2.924183e+01 3.030989e+01 3.812402e+01 4.906229e+01 2.979592e+01 1.067093e+01 1.906304e+01 8.051657e+00 3.288969e-01 6.534323e-01 1.169104e+00 1.101448e+00 1.403261e+00 1.798302e+00 1.233362e+00 1.472080e+00 9.331118e-01 7.103686e-01 7.522616e-01 6.658406e-01 2.914044e-01 4.536797e-02 1.241504e-01 2.403950e-01 2.291297e-01 2.776757e-01 3.585469e-01 2.329857e-01 1.934221e-01 1.578086e-01 1.392877e-01 1.520514e-01 1.033987e-01 3.457562e-02
<GCONST> 8.643557e+01
<STATE> 6
<MEAN> 39
 -1.066790e+01 1.225569e+00 1.477557e+01 -4.888072e+00 -1.882020e+01 -7.290956e+00 -7.414557e+00 -5.537530e+00 -8.452819e+00 -4.886075e+00 3.998868e+00 -3.806496e+00 6.790003e+01 -9.545354e-02 2.656930e-01 -2.091722e-03 2.723705e-01 -1.399004e-02 -6.826103e-02 1.267213e-02 -1.329750e-01 -1.411804e-02 -1.793464e-01 4.777960e-02 -2.048794e-02 -1.348044e-01 1.955643e-02 -7.451516e-02 -1.750574e-01 1.131351e-01 1.190642e-02 -7.731823e-02 1.402223e-02 6.025228e-02 1.688581e-01 -1.345484e-02 -5.663299e-02 7.099647e-02 3.307587e-02
<VARIANCE> 39
 7.162077e+00 9.021481e+00 1.820950e+01 5.876755e+01 1.008567e+01 5.274244e+01 5.418807e+01 8.502145e+01 3.133188e+01 1.442439e+01 1.662472e+01 1.657258e+01 2.285737e+01 1.206225e-01 4.669607e-01 1.234007e+00 6.369122e-01 6.453512e-01 1.382458e+00 7.359385e-01 8.647571e-01 1.553368e+00 6.434312e-01 7.613818e-01 9.104601e-01 2.410723e-01 1.940832e-02 5.234381e-02 1.001415e-01 1.603256e-01 1.331218e-01 1.766514e-01 1.470765e-01 1.759433e-01 2.234347e-01 1.130767e-01 1.575473e-01 1.592468e-01 3.275795e-02
<GCONST> 7.771103e+01
<STATE> 7
<MEAN> 39
 -1.257800e+01 -6.600451e-01 1.029563e+01 -4.814788e-01 -1.613012e+01 -8.238492e+00 -6.385146e+00 -6.283865e+00 -2.276290e+00 -7.024465e+00 7.920434e-01 1.200446e+00 6.841270e+01 2.615463e-01 -6.930795e-01 -6.627125e-01 6.319236e-01 1.888955e-01 1.656052e-01 -3.454709e-01 3.589433e-01 9.128436e-01 8.042922e-02 -6.064016e-01 6.319048e-01 -2.078597e-01 2.896269e-01 -2.704790e-01 -2.734899e-02 -1.754930e-01 -3.757383e-01 -1.007868e-01 -2.290013e-02 -2.621760e-02 8.818553e-02 -3.998259e-02 1.374863e-01 -1.009943e-01 2.184319e-01
<VARIANCE> 39
 2.811422e+01 1.904610e+01 2.716126e+01 3.252956e+01 4.346887e+01 5.371961e+01 4.223196e+01 3.661020e+01 2.861802e+01 2.969066e+01 2.098525e+01 1.895208e+01 3.451404e+01 3.437449e+00 2.154078e+00 2.338285e+00 2.650128e+00 8.160774e+00 5.294380e+00 3.116264e+00 3.040912e+00 2.986895e+00 2.584196e+00 2.729969e+00 2.608121e+00 4.049353e+00 5.983386e-01 3.048144e-01 5.045052e-01 4.434018e-01 1.644708e+00 1.068119e+00 6.529539e-01 5.018165e-01 4.640216e-01 5.854768e-01 5.446436e-01 4.685399e-01 8.441521e-01
<GCONST> 1.247719e+02
<STATE> 8
<MEAN> 39
 -2.136196e+00 -7.845529e+00 9.824133e+00 2.346005e+00 -2.014873e+01 -9.244266e+00 -4.612098e+00 -9.598784e+00 7.184897e+00 -5.680140e+00 -2.235186e+00 3.281924e+00 7.080961e+01 6.427548e-01 -1.049081e+00 -8.722053e-01 -1.622422e-01 -6.040782e-01 -3.533733e-01 -2.281639e-01 4.394394e-01 7.732474e-01 2.412217e-01 -5.636401e-02 -4.942373e-01 6.986912e-01 -2.780416e-01 1.948003e-01 6.984913e-02 -1.693141e-01 5.015717e-01 1.872760e-01 2.247016e-02 2.322461e-01 -1.152579e-01 8.084471e-02 -4.956741e-02 -1.766308e-01 -1.723453e-01
<VARIANCE> 39
 2.339116e+01 2.078286e+01 5.772631e+01 3.491467e+01 3.554902e+01 1.679844e+01 4.083829e+01 4.475337e+01 3.071988e+01 5.681298e+01 2.262020e+01 2.634912e+01 1.472773e+01 1.297270e+00 1.569966e+00 1.677542e+00 1.203832e+00 3.875894e+00 1.691888e+00 2.195546e+00 1.399008e+00 2.239599e+00 3.248556e+00 1.367885e+00 1.803796e+00 1.288204e+00 2.461317e-01 3.192669e-01 2.563308e-01 2.208639e-01 6.538118e-01 3.627445e-01 3.067080e-01 2.484622e-01 3.876958e-01 4.164615e-01 1.554004e-01 2.380682e-01 2.866225e-01
<GCONST> 1.076794e+02
<STATE> 9
<MEAN> 39
 -2.814575e-01 -1.264431e+01 4.051934e+00 -3.880637e+00 -1.660457e+01 -9.001926e+00 -3.907631e+00 -6.676514e+00 6.958304e+00 -4.709013e+00 -4.956637e+00 -1.177598e+00 7.420345e+01 1.850644e-02 3.063568e-01 -9.854366e-01 -1.991038e-01 8.534536e-01 2.630313e-01 5.450584e-02 7.517732e-01 -2.434182e-01 -3.932623e-01 -1.962544e-01 -6.242723e-01 -3.872054e-01 -1.470288e-01 3.325197e-01 6.551795e-02 1.573241e-01 3.252186e-01 8.641674e-02 1.351141e-01 -6.431928e-03 -1.347994e-01 3.875233e-02 -7.570682e-02 -1.891414e-02 -3.581189e-01
<VARIANCE> 39
 3.940058e+01 1.554830e+01 3.869366e+01 2.172836e+01 5.143345e+01 2.674304e+01 6.329051e+01 4.382494e+01 3.857192e+01 3.919041e+01 2.788837e+01 4.165795e+01 9.160530e+00 2.612622e-01 1.240592e+00 6.390513e-01 1.389739e+00 1.625138e+00 1.030353e+00 1.933267e+00 1.443212e+00 1.228435e+00 1.981898e+00 1.145522e+00 1.277115e+00 7.989276e-01 9.895775e-02 1.525504e-01 1.811495e-01 1.288945e-01 3.634528e-01 2.627397e-01 5.092117e-01 2.011842e-01 2.731051e-01 2.502361e-01 2.799372e-01 2.365967e-01 1.172746e-01
<GCONST> 9.780067e+01
<STATE> 10
<MEAN> 39
 -6.394053e+00 -4.042085e+00 -9.698796e-01 -2.366584e+00 -1.353686e+01 -8.990546e+00 -7.424336e+00 2.833656e+00 5.118922e+00 -6.896597e+00 -2.081475e+00 -3.709315e+00 6.594160e+01 -9.799097e-01 1.236744e+00 1.882791e-01 7.956661e-01 2.258264e+00 8.885256e-01 1.527824e+00 4.309966e-01 -1.409829e-01 6.927612e-01 -4.888562e-01 4.050211e-01 -2.449921e+00 -3.120393e-01 -1.036946e-01 2.086398e-01 2.763322e-01 2.567068e-01 3.855678e-01 3.237363e-01 -1.906333e-01 -7.453338e-03 2.532929e-01 1.601773e-01 3.511487e-01 -3.189854e-01
<VARIANCE> 39
 2.065112e+01 2.505335e+01 1.720934e+01 4.595663e+01 3.542816e+01 2.913316e+01 6.020109e+01 5.491172e+01 2.592283e+01 3.272763e+01 3.543368e+01 4.209608e+01 3.641885e+01 1.066256e+00 1.647566e+00 1.057457e+00 2.673367e+00 2.647820e+00 2.599673e+00 3.523823e+00 2.130146e+00 2.249910e+00 1.980903e+00 2.937000e+00 1.677565e+00 2.756971e+00 1.139514e-01 4.018897e-01 1.932646e-01 4.201278e-01 3.579228e-01 3.321473e-01 6.678774e-01 4.740826e-01 4.215723e-01 4.722876e-01 5.800182e-01 3.110462e-01 3.094799e-01
<GCONST> 1.135654e+02
<STATE> 11
<MEAN> 39
 -1.204553e+01 -3.966897e+00 3.812632e-01 1.723656e+00 -6.562361e-01 -3.936518e-01 1.397480e+00 7.128529e-01 3.560488e+00 -2.191582e+00 -2.257607e+00 1.116384e+00 5.456861e+01 -1.115920e+00 -1.296709e-02 -6.518199e-02 -1.207499e-01 1.131729e+00 7.497931e-01 5.337667e-01 1.185969e-01 -1.512222e-01 1.151933e+00 9.177440e-01 5.536609e-01 -1.433383e+00 2.808216e-01 2.176786e-02 -3.861309e-02 -1.958992e-01 -5.136630e-01 -3.788372e-01 -3.340265e-01 -7.649259e-02 -3.884093e-02 -1.809635e-01 9.785688e-03 -1.794598e-01 4.417008e-01
<VARIANCE> 39
 3.160909e+01 1.510201e+01 2.064282e+01 2.453884e+01 2.288906e+01 1.722580e+01 3.624950e+01 5.255762e+01 1.573326e+01 2.591389e+01 2.710445e+01 2.599383e+01 2.402504e+01 8.320720e-01 1.670591e+00 1.238083e+00 2.191661e+00 4.121826e+00 2.685168e+00 3.196909e+00 2.146524e+00 1.881609e+00 2.323742e+00 1.679605e+00 2.121333e+00 1.163393e+00 1.115057e-01 3.790842e-01 2.417277e-01 5.178648e-01 6.002421e-01 3.185166e-01 5.759001e-01 3.933187e-01 3.365400e-01 3.757931e-01 3.757988e-01 3.651202e-01 2.348850e-01
<GCONST> 1.080208e+02
<TRANSP> 12
 0.000000e+00 1.000000e+00 0.000000e+00 0.000000e+00 0.000000e+00 0.000000e+00 0.000000e+00 0.000000e+00 0.000000e+00 0.000000e+00 0.000000e+00 0.000000e+00
 0.000000e+00 8.741226e-01 1.258774e-01 0.000000e+00 0.000000e+00 0.000000e+00 0.000000e+00 0.000000e+00 0.000000e+00 0.000000e+00 0.000000e+00 0.000000e+00
 0.000000e+00 0.000000e+00 6.666008e-01 3.333992e-01 0.000000e+00 0.000000e+00 0.000000e+00 0.000000e+00 0.000000e+00 0.000000e+00 0.000000e+00 0.000000e+00
 0.000000e+00 0.000000e+00 0.000000e+00 7.749450e-01 2.250551e-01 0.000000e+00 0.000000e+00 0.000000e+00 0.000000e+00 0.000000e+00 0.000000e+00 0.000000e+00
 0.000000e+00 0.000000e+00 0.000000e+00 0.000000e+00 8.320904e-01 1.679095e-01 0.000000e+00 0.000000e+00 0.000000e+00 0.000000e+00 0.000000e+00 0.000000e+00
 0.000000e+00 0.000000e+00 0.000000e+00 0.000000e+00 0.000000e+00 8.844017e-01 1.155983e-01 0.000000e+00 0.000000e+00 0.000000e+00 0.000000e+00 0.000000e+00
 0.000000e+00 0.000000e+00 0.000000e+00 0.000000e+00 0.000000e+00 0.000000e+00 8.464742e-01 1.535258e-01 0.000000e+00 0.000000e+00 0.000000e+00 0.000000e+00
 0.000000e+00 0.000000e+00 0.000000e+00 0.000000e+00 0.000000e+00 0.000000e+00 0.000000e+00 7.904692e-01 2.095308e-01 0.000000e+00 0.000000e+00 0.000000e+00
 0.000000e+00 0.000000e+00 0.000000e+00 0.000000e+00 0.000000e+00 0.000000e+00 0.000000e+00 0.000000e+00 8.182516e-01 1.817484e-01 0.000000e+00 0.000000e+00
 0.000000e+00 0.000000e+00 0.000000e+00 0.000000e+00 0.000000e+00 0.000000e+00 0.000000e+00 0.000000e+00 0.000000e+00 7.852657e-01 2.147343e-01 0.000000e+00
 0.000000e+00 0.000000e+00 0.000000e+00 0.000000e+00 0.000000e+00 0.000000e+00 0.000000e+00 0.000000e+00 0.000000e+00 0.000000e+00 8.077009e-01 1.922991e-01
 0.000000e+00 0.000000e+00 0.000000e+00 0.000000e+00 0.000000e+00 0.000000e+00 0.000000e+00 0.000000e+00 0.000000e+00 0.000000e+00 0.000000e+00 0.000000e+00
<ENDHMM>
~h "left"
<BEGINHMM>
<NUMSTATES> 12
<STATE> 2
<MEAN> 39
 -4.090022e+00 -7.157340e-01 1.171606e+00 3.434067e+00 -2.562929e+00 -5.563951e+00 -7.122761e+00 -2.677447e+00 3.863811e-01 -4.505289e+00 -8.385810e-01 -3.512301e+00 6.036134e+01 9.731423e-01 -6.810001e-01 1.227181e-01 -1.137518e+00 -1.622290e+00 -1.304806e+00 -1.047815e+00 -2.680529e-01 5.130625e-01 -4.985522e-01 -8.990597e-02 -4.024458e-01 2.618753e+00 -3.742500e-01 -2.404220e-01 -1.033192e-01 -1.837474e-01 -8.884653e-02 1.392534e-01 4.598328e-01 3.855953e-01 4.193514e-01 1.587346e-01 1.088838e-01 1.537744e-01 1.037031e-01
<VARIANCE> 39
 3.136660e+01 2.112176e+01 2.450714e+01 2.823749e+01 3.420565e+01 4.755796e+01 3.331963e+01 3.426624e+01 1.442544e+01 1.951985e+01 1.426280e+01 1.352993e+01 3.922771e+01 3.318460e+00 1.902296e+00 1.089589e+00 2.244125e+00 2.628463e+00 3.313217e+00 4.793546e+00 2.901971e+00 3.626936e+00 2.292187e+00 1.290140e+00 2.048505e+00 2.580812e+00 4.751813e-01 3.163809e-01 2.319967e-01 4.119401e-01 4.943463e-01 5.939044e-01 6.692077e-01 3.974326e-01 4.369435e-01 3.434722e-01 2.480634e-01 3.468373e-01 3.395179e-01
<GCONST> 1.130689e+02
<STATE> 3
<MEAN> 39
 -4.401205e+00 -5.209710e+00 -1.239940e+00 -5.867462e+00 -1.154669e+01 -9.813646e+00 -2.514409e+00 8.172026e-02 9.165842e+00 -7.834794e+00 -2.285739e+00 -5.883676e+00 7.564560e+01 -8.187778e-02 4.340026e-01 -3.676460e-01 1.273700e-01 -1.674526e-01 4.201769e-02 5.664166e-01 -2.293523e-01 -3.562878e-01 -1.157522e-01 -3.530623e-01 -2.263142e-01 1.692071e-01 1.867459e-02 3.199909e-01 2.003086e-01 4.581474e-01 2.701898e-01 3.741335e-02 -5.340884e-02 -3.635814e-01 -5.707811e-01 2.517645e-01 -1.539243e-04 -6.489743e-03 -6.310458e-01
<VARIANCE> 39
 4.699305e+01 2.322011e+01 2.625230e+01 3.074226e+01 3.015722e+01 3.409282e+01 1.035658e+02 2.593142e+01 3.897911e+01 1.973335e+01 1.216242e+01 1.520208e+01 1.648596e+01 8.252925e-01 1.656684e+00 1.731609e+00 2.950272e+00 2.802581e+00 1.237372e+00 3.680644e+00 3.424407e+00 4.378023e+00 2.407594e+00 1.241209e+00 1.236476e+00 3.754946e+00 1.553558e-01 1.396449e-01 3.844439e-01 2.784503e-01 4.743372e-01 3.354220e-01 6.755568e-01 4.713602e-01 4.634485e-01 4.270004e-01 2.662582e-01 3.020473e-01 1.546490e-01
<GCONST> 1.096376e+02
<STATE> 4
<MEAN> 39
 -5.308312e+00 2.171645e+00 1.909608e+00 3.879117e+00 -1.052076e+01 -1.074032e+01 -1.650734e+00 -3.750781e+00 -4.088190e+00 -2.183994e+00 -2.433985e+00 -6.537629e+00 6.585751e+01 -2.004946e-01 9.015327e-01 5.290881e-01 6.480880e-01 3.546151e-01 -5.624819e-02 1.972896e-01 -4.812683e-01 -7.685174e-01 4.039768e-01 1.633197e-01 5.073282e-02 -9.450755e-01 -2.934264e-01 1.416605e-02 -2.268671e-01 -2.302929e-01 2.705262e-01 1.046959e-01 4.700023e-02 2.555124e-01 4.029187e-01 -1.633975e-01 7.356656e-02 2.020773e-01 1.523361e-01
<VARIANCE> 39
 2.542786e+01 2.418244e+01 2.973334e+01 2.012322e+01 2.030244e+01 2.033883e+01 3.893270e+01 1.179178e+02 2.543093e+01 1.494704e+01 2.182112e+01 2.162232e+01 9.538611e+00 8.391960e-01 8.497577e-01 2.480575e+00 1.503714e+00 1.929264e+00 1.029567e+00 1.852791e+00 3.464600e+00 3.607051e+00 1.897879e+00 1.409174e+00 1.569786e+00 8.599279e-01 3.580369e-01 1.796335e-01 3.730337e-01 2.375091e-01 4.359968e-01 1.942271e-01 4.444860e-01 5.340136e-01 4.671718e-01 3.260886e-01 2.841612e-01 2.564563e-01 1.491580e-01
<GCONST> 1.039129e+02
<STATE> 5
<MEAN> 39
 -1.609992e+01 8.301934e+00 -3.425166e-02 2.973182e+00 -6.429127e-01 -7.424480e+00 6.280538e-01 -4.923128e+00 -1.788734e+00 -2.583748e+00 2.480146e-01 -2.184830e+00 6.403142e+01 -4.002890e+00 -1.903358e-02 -1.509922e+00 -7.423147e-01 1.859295e+00 8.472721e-01 1.331672e+00 6.243440e-01 1.087520e+00 -2.502716e-02 5.716635e-01 1.087625e+00 7.801516e-01 -2.339023e-02 -3.980756e-01 -8.190899e-02 -1.494676e-01 -3.353397e-01 9.339192e-03 3.681724e-02 1.580446e-02 7.424484e-04 1.173005e-01 -9.294139e-02 -1.895469e-01 2.749884e-01
<VARIANCE> 39
 8.687488e+01 1.375622e+01 2.913477e+01 2.002950e+01 3.489120e+01 3.851918e+01 4.269952e+01 4.316595e+01 2.477042e+01 2.189573e+01 1.907623e+01 2.427323e+01 1.257401e+01 3.573867e+00 2.395614e+00 1.921532e+00 2.347327e+00 5.036012e+00 2.785810e+00 4.522790e+00 3.120552e+00 2.300881e+00 3.014961e+00 2.378150e+00 1.833481e+00 1.096904e+00 1.418328e+00 3.331007e-01 4.063722e-01 3.790957e-01 7.415279e-01 4.879341e-01 7.763425e-01 5.239767e-01 4.223194e-01 5.173715e-01 4.715380e-01 3.316262e-01 2.532396e-01
<GCONST> 1.179779e+02
<STATE> 6
<MEAN> 39
 -2.939915e+01 6.579872e+00 -6.078953e+00 5.310485e-01 1.251242e+00 -4.055854e+00 3.865160e+00 -1.428252e+00 2.400098e+00 -9.083441e-01 8.464525e-01 8.397667e-01 6.768504e+01 8.187360e-02 1.634080e-02 -4.566986e-02 3.364976e-01 -2.442280e-02 6.438296e-01 -1.585040e-01 4.021798e-01 1.616006e-01 1.837408e-01 2.063079e-01 5.538239e-02 -7.245609e-01 4.287925e-01 1.054547e-01 1.584534e-01 1.928186e-01 3.218368e-02 6.944709e-03 -3.436368e-02 2.523477e-02 -4.848791e-02 -3.880944e-04 1.296385e-02 -1.009331e-02 -4.748108e-01
<VARIANCE> 39
 9.568966e+00 1.858080e+01 1.710950e+01 3.490798e+01 1.604337e+01 2.709836e+01 2.304803e+01 2.382184e+01 1.825912e+01 1.654490e+01 1.625229e+01 1.533886e+01 1.905534e+01 1.289749e+00 1.129591e+00 1.073268e+00 1.700152e+00 1.381916e+00 1.276391e+00 1.279080e+00 1.862001e+00 1.488554e+00 1.616752e+00 1.651142e+00 1.322104e+00 2.955826e+00 3.762955e-01 2.146497e-01 2.133100e-01 2.633988e-01 3.437573e-01 2.668538e-01 3.704439e-01 3.519098e-01 3.303447e-01 3.194415e-01 3.412313e-01 2.517410e-01 1.530981e-01
<GCONST> 9.856404e+01
<STATE> 7
<MEAN> 39
 -2.361093e+01 6.806878e+00 -4.324809e+00 4.931684e+00 3.195905e+00 7.593923e-01 5.317319e+00 2.223820e+00 4.814758e+00 1.157390e+00 3.400000e+00 2.184742e+00 5.319109e+01 7.890864e-01 -6.228262e-01 2.680154e-01 -4.183500e-01 -1.566589e-01 -1.808580e-01 1.188213e-02 1.711408e-01 1.989024e-01 2.042806e-01 -2.636739e-02 2.319150e-01 -5.475804e-01 -1.386432e-01 -3.424668e-01 -4.728954e-02 -4.567413e-01 -4.446427e-01 -3.387691e-01 -4.515893e-01 -1.862618e-01 -1.329830e-01 -2.356862e-01 -1.267022e-01 -1.175509e-01 1.247394e+00
<VARIANCE> 39
 1.548074e+01 1.920067e+01 7.033849e+00 1.096192e+01 1.371645e+01 1.508534e+01 1.712184e+01 1.563527e+01 1.678092e+01 1.239049e+01 1.623051e+01 1.451748e+01 1.595147e+01 1.214056e+00 1.653101e+00 7.919747e-01 2.196869e+00 2.122155e+00 1.052350e+00 2.086304e+00 1.352892e+00 1.721699e+00 1.566585e+00 1.293020e+00 1.359175e+00 8.165691e+00 2.127810e-01 2.572221e-01 1.461067e-01 3.392194e-01 3.104586e-01 2.478359e-01 4.016486e-01 3.076812e-01 3.632336e-01 3.585593e-01 2.871334e-01 2.940940e-01 5.960311e-01
<GCONST> 9.736275e+01
<STATE> 8
<MEAN> 39
 -2.044578e+01 4.286598e-01 -2.095985e+00 -8.178975e-01 -1.186223e+00 -2.214796e+00 -9.262250e-01 1.034234e+00 3.804029e+00 -2.837132e-01 1.491793e+00 4.744542e-01 6.312476e+01 2.414969e+00 -1.050533e+00 5.927688e-01 -8.022980e-01 -1.591034e+00 -1.485408e+00 -2.219967e+00 -1.339934e+00 -6.021991e-03 -6.853277e-01 -9.641390e-01 -9.005866e-01 2.577517e+00 7.041717e-01 5.778992e-02 4.974981e-02 1.204052e-01 -2.988700e-01 -3.346221e-01 -3.253474e-01 -3.955125e-01 1.827939e-01 9.759418e-03 -1.830243e-01 -1.474186e-01 -7.397855e-02
<VARIANCE> 39
 3.868106e+01 1.749785e+01 4.303656e+01 2.601593e+01 4.425536e+01 2.730187e+01 2.955162e+01 2.063059e+01 2.634372e+01 2.018540e+01 2.846449e+01 2.469839e+01 1.722444e+01 3.590766e+00 2.580950e+00 3.471009e+00 3.509824e+00 4.924886e+00 5.185261e+00 4.296438e+00 3.037306e+00 2.645408e+00 3.010835e+00 2.291324e+00 1.988576e+00 5.395827e+00 4.298877e-01 4.609745e-01 8.991236e-01 7.520992e-01 8.153145e-01 8.233890e-01 6.522017e-01 4.938866e-01 4.598245e-01 5.206678e-01 3.591071e-01 4.035453e-01 8.739614e-01
<GCONST> 1.231787e+02
<STATE> 9
<MEAN> 39
 -8.097866e+00 -5.321570e+00 -1.481074e-01 -3.464401e+00 -1.271509e+01 -1.264942e+01 -1.130152e+01 -4.327640e+00 3.329330e+00 -3.656520e+00 -3.021822e+00 -1.526620e+00 7.279322e+01 1.646726e+00 -1.361566e+00 1.846845e-01 -3.454997e-02 -2.122619e+00 -5.063817e-01 -8.646163e-01 6.663263e-02 2.372814e-01 -1.137514e-01 -1.714680e-01 -3.244001e-01 9.953846e-01 -5.622619e-01 1.393516e-01 -1.572114e-01 2.264761e-01 3.765783e-01 5.427712e-01 6.190706e-01 4.939351e-01 -1.274687e-02 5.742822e-02 1.175737e-01 1.138293e-01 -5.015825e-01
<VARIANCE> 39
 2.352544e+01 3.839310e+01 3.367023e+01 3.714998e+01 6.080096e+01 6.543963e+01 7.612421e+01 4.254065e+01 4.113644e+01 2.883837e+01 2.671264e+01 2.980957e+01 2.103973e+01 2.255886e+00 1.897547e+00 4.129300e+00 2.581773e+00 4.497912e+00 5.262329e+00 6.677176e+00 3.608361e+00 3.744821e+00 1.916753e+00 2.187707e+00 2.158535e+00 3.399736e+00 3.237618e-01 4.398994e-01 6.304731e-01 3.586190e-01 1.318852e+00 7.660306e-01 1.325673e+00 6.852534e-01 6.337110e-01 4.967135e-01 5.666555e-01 4.256380e-01 9.017178e-01
<GCONST> 1.275020e+02
<STATE> 10
<MEAN> 39
 -2.617778e+00 -7.926861e+00 -2.636273e+00 -3.134306e+00 -1.333193e+01 -7.147905e+00 -8.265319e+00 -2.231168e-01 5.838463e+00 -4.188769e+00 -3.981406e+00 -5.865916e+00 7.146348e+01 -2.722461e-01 4.399310e-01 -1.040342e-01 4.089337e-01 1.232193e+00 5.948075e-01 8.778906e-01 6.336427e-01 -2.728642e-01 -3.452849e-01 -2.934489e-01 9.192118e-02 -1.241186e+00 -2.361950e-01 1.977152e-01 1.491993e-01 1.521071e-01 4.524946e-01 1.052562e-01 1.943695e-01 -3.710407e-02 -5.352260e-02 1.279942e-01 1.221463e-01 1.936246e-01 -3.911125e-01
<VARIANCE> 39
 2.592986e+01 2.097815e+01 1.549733e+01 4.886426e+01 6.029383e+01 3.360552e+01 6.247212e+01 4.486272e+01 3.936330e+01 2.318364e+01 1.500313e+01 3.992646e+01 2.840785e+01 6.732698e-01 1.812387e+00 1.225897e+00 2.001202e+00 3.016999e+00 1.841508e+00 2.159857e+00 2.316551e+00 1.778313e+00 2.398363e+00 1.957805e+00 1.851009e+00 2.293877e+00 1.417822e-01 2.496258e-01 2.385390e-01 3.452400e-01 4.423934e-01 3.120582e-01 3.585327e-01 4.844647e-01 4.013801e-01 4.585863e-01 3.655935e-01 4.152834e-01 1.159071e-01
<GCONST> 1.094050e+02
<STATE> 11
<MEAN> 39
 -1.121685e+01 -2.880777e+00 1.846767e-01 3.301530e+00 2.492582e-02 -1.968876e+00 -3.911324e-01 3.057716e+00 3.252528e+00 -1.721309e+00 -1.927952e+00 5.449757e-01 5.586932e+01 -1.070909e+00 2.415941e-01 2.622487e-01 1.853971e-01 1.152705e+00 5.759884e-01 8.804557e-01 2.646576e-01 8.882532e-02 9.188823e-01 7.504308e-01 6.322455e-01 -1.786136e+00 1.365532e-01 -1.054194e-01 -7.697637e-02 -2.110471e-01 -4.309564e-01 -1.900291e-01 -2.617845e-01 -8.259254e-02 4.753007e-03 -5.409086e-02 1.453491e-02 -1.305684e-01 3.417684e-01
<VARIANCE> 39
 2.302737e+01 1.461921e+01 1.902420e+01 2.609635e+01 2.978332e+01 1.981884e+01 5.030161e+01 3.483867e+01 1.831017e+01 3.351836e+01 2.088754e+01 2.732189e+01 3.161889e+01 1.504608e+00 1.319318e+00 1.156894e+00 1.979915e+00 4.634097e+00 2.673153e+00 4.621604e+00 2.860008e+00 2.840837e+00 2.802065e+00 1.933967e+00 2.912444e+00 1.721065e+00 2.687011e-01 2.594516e-01 2.059151e-01 3.714582e-01 4.930776e-01 4.499052e-01 8.049399e-01 5.908280e-01 4.628109e-01 5.842624e-01 4.226342e-01 4.955306e-01 1.994541e-01
<GCONST> 1.127655e+02
<TRANSP> 12
 0.000000e+00 1.000000e+00 0.000000e+00 0.000000e+00 0.000000e+00 0.000000e+00 0.000000e+00 0.000000e+00 0.000000e+00 0.000000e+00 0.000000e+00 0.000000e+00
 0.000000e+00 8.514704e-01 1.485296e-01 0.000000e+00 0.000000e+00 0.000000e+00 0.000000e+00 0.000000e+00 0.000000e+00 0.000000e+00 0.000000e+00 0.000000e+00
 0.000000e+00 0.000000e+00 8.663387e-01 1.336613e-01 0.000000e+00 0.000000e+00 0.000000e+00 0.000000e+00 0.000000e+00 0.000000e+00 0.000000e+00 0.000000e+00
 0.000000e+00 0.000000e+00 0.000000e+00 8.799434e-01 1.200565e-01 0.000000e+00 0.000000e+00 0.000000e+00 0.000000e+00 0.000000e+00 0.000000e+00 0.000000e+00
 0.000000e+00 0.000000e+00 0.000000e+00 0.000000e+00 8.084380e-01 1.915619e-01 0.000000e+00 0.000000e+00 0.000000e+00 0.000000e+00 0.000000e+00 0.000000e+00
 0.000000e+00 0.000000e+00 0.000000e+00 0.000000e+00 0.000000e+00 8.897627e-01 1.102374e-01 0.000000e+00 0.000000e+00 0.000000e+00 0.000000e+00 0.000000e+00
 0.000000e+00 0.000000e+00 0.000000e+00 0.000000e+00 0.000000e+00 0.000000e+00 8.017948e-01 1.982052e-01 0.000000e+00 0.000000e+00 0.000000e+00 0.000000e+00
 0.000000e+00 0.000000e+00 0.000000e+00 0.000000e+00 0.000000e+00 0.000000e+00 0.000000e+00 7.603873e-01 2.396127e-01 0.000000e+00 0.000000e+00 0.000000e+00
 0.000000e+00 0.000000e+00 0.000000e+00 0.000000e+00 0.000000e+00 0.000000e+00 0.000000e+00 0.000000e+00 8.136658e-01 1.863342e-01 0.000000e+00 0.000000e+00
 0.000000e+00 0.000000e+00 0.000000e+00 0.000000e+00 0.000000e+00 0.000000e+00 0.000000e+00 0.000000e+00 0.000000e+00 8.775085e-01 1.224914e-01 0.000000e+00
 0.000000e+00 0.000000e+00 0.000000e+00 0.000000e+00 0.000000e+00 0.000000e+00 0.000000e+00 0.000000e+00 0.000000e+00 0.000000e+00 8.586178e-01 1.413823e-01
 0.000000e+00 0.000000e+00 0.000000e+00 0.000000e+00 0.000000e+00 0.000000e+00 0.000000e+00 0.000000e+00 0.000000e+00 0.000000e+00 0.000000e+00 0.000000e+00
<ENDHMM>
~h "down"
<BEGINHMM>
<NUMSTATES> 12
<STATE> 2
<MEAN> 39
 -1.320783e+01 1.772001e+00 4.005878e+00 7.026515e+00 -1.040432e+00 -1.577159e+00 4.431821e+00 -2.718551e-02 -4.497126e-01 3.575363e-01 4.305287e-01 -2.985216e+00 5.134865e+01 2.617153e+00 9.493441e-01 1.316205e+00 7.552488e-01 -1.916429e+00 -1.759184e+00 -5.983914e-01 -2.205133e+00 -1.918864e+00 -8.209278e-01 -1.229402e+00 -1.361713e+00 2.058960e+00 4.659380e-01 -1.068197e-01 -8.502226e-02 -2.668688e-01 -5.831564e-01 -4.557894e-01 -2.961064e-01 -4.559954e-01 -3.416253e-01 -3.325794e-02 -1.029272e-01 1.913719e-02 5.572133e-01
<VARIANCE> 39
 1.907350e+01 1.352543e+01 1.173219e+01 2.657804e+01 2.999418e+01 2.428531e+01 3.211368e+01 2.686888e+01 2.011109e+01 1.885735e+01 2.055726e+01 1.870162e+01 1.655547e+01 1.391842e+00 1.277717e+00 8.204370e-01 2.064476e+00 2.929466e+00 2.311449e+00 2.208170e+00 3.550653e+00 1.663468e+00 1.840756e+00 2.425263e+00 1.721700e+00 1.484131e+00 3.269006e-01 3.036195e-01 2.598298e-01 3.531342e-01 4.213760e-01 3.970912e-01 3.258130e-01 5.694986e-01 4.064298e-01 3.056026e-01 3.655187e-01 3.586002e-01 2.416087e-01
<GCONST> 1.053290e+02
<STATE> 3
<MEAN> 39
 -2.896420e+00 1.968789e+00 5.665299e+00 7.732632e+00 -1.049030e+01 -1.030311e+01 1.665232e+00 -1.074119e+01 -6.233820e+00 -8.944262e-01 -2.810970e+00 -6.494948e+00 6.229054e+01 2.825231e-01 -5.817455e-02 -4.692253e-01 -5.960593e-01 -7.595313e-01 -7.205797e-01 -4.708887e-01 -2.107658e-02 -2.239669e-01 -4.698382e-01 -1.135525e-01 1.483366e-01 1.579576e+00 -4.887719e-01 -8.248417e-02 -3.057676e-01 -3.218884e-01 3.440082e-01 3.016937e-01 -4.689936e-02 7.306379e-01 4.328669e-01 -1.711216e-01 2.976213e-01 2.879963e-01 -3.246579e-02
<VARIANCE> 39
 2.505819e+01 1.326252e+01 6.287995e+00 3.745546e+01 2.705912e+01 1.717406e+01 2.247200e+01 6.972804e+01 2.061082e+01 1.220182e+01 5.626999e+01 3.702406e+01 1.405234e+01 1.762107e+00 1.001678e+00 1.197935e+00 2.218743e+00 2.731091e+00 1.938211e+00 1.761169e+00 5.707915e+00 2.209705e+00 1.812214e+00 2.107074e+00 1.664301e+00 1.651408e+00 1.915035e-01 2.031102e-01 1.740596e-01 3.037830e-01 3.658811e-01 2.677029e-01 3.807843e-01 5.504802e-01 3.162893e-01 3.710885e-01 3.561122e-01 2.825905e-01 2.740176e-01
<GCONST> 1.051134e+02
<STATE> 4
<MEAN> 39
 -7.706958e+00 5.988511e-01 -3.457907e-01 -2.027653e+00 -1.278444e+01 -1.044699e+01 -2.710408e+00 7.538711e-01 -2.481182e+00 -8.048786e+00 -2.882732e-01 -1.071364e+00 7.262588e+01 -4.176632e-01 -1.191039e+00 -1.298798e-02 -2.044246e+00 -1.246944e+00 4.238021e-01 3.022619e-01 1.493601e+00 7.753864e-01 -8.241366e-01 8.662787e-01 6.906185e-01 1.891336e+00 1.669738e-01 -1.945458e-01 6.099489e-01 2.260543e-01 -2.661043e-01 1.981234e-01 5.257355e-01 -7.302501e-01 -2.633318e-01 5.284222e-01 -1.778511e-01 -3.359971e-01 -3.746827e-01
<VARIANCE> 39
 3.183274e+01 2.227070e+01 1.411472e+01 4.106279e+01 2.884649e+01 1.525615e+01 3.904303e+01 3.426662e+01 4.681145e+01 2.639742e+01 1.443130e+01 1.875890e+01 2.305864e+01 9.069606e-01 1.051451e+00 2.641086e+00 1.656339e+00 2.366309e+00 1.428425e+00 4.173711e+00 5.756688e+00 2.564686e+00 3.271908e+00 2.695971e+00 2.799977e+00 1.098744e+00 1.149349e-01 2.186610e-01 2.206408e-01 3.626658e-01 4.304000e-01 2.311003e-01 4.431131e-01 6.450754e-01 3.888106e-01 3.763840e-01 3.476079e-01 3.126478e-01 1.144269e-01
<GCONST> 1.077374e+02
<STATE> 5
<MEAN> 39
 -6.781693e+00 -6.022339e+00 5.182953e+00 -7.312679e+00 -1.939769e+01 -7.447583e+00 5.118475e+00 -1.591698e+00 -8.458056e-02 -7.306762e+00 1.251240e+00 -1.454100e+00 7.735363e+01 -1.424871e-02 -5.462931e-01 1.182552e-01 -2.710906e-01 -1.466540e-01 8.231667e-02 9.549912e-02 1.687253e-01 1.886062e-01 -1.403735e-01 -1.890532e-02 -2.133875e-01 1.792065e-01 3.891519e-02 8.178078e-02 -1.460961e-01 1.279431e-01 2.244583e-01 -1.048792e-01 -1.704439e-01 1.024633e-01 3.892014e-02 -1.035833e-01 -3.124444e-02 2.543984e-02 -1.188434e-01
<VARIANCE> 39
 5.453951e+01 1.611768e+01 1.655048e+01 2.714870e+01 2.685165e+01 2.453593e+01 6.602879e+01 4.876512e+01 4.157358e+01 2.253799e+01 8.708336e+00 1.260900e+01 1.674523e+01 2.424325e-01 4.115978e-01 6.181843e-01 5.255481e-01 1.015930e+00 7.034394e-01 9.182001e-01 9.361125e-01 8.033329e-01 8.140417e-01 5.488502e-01 3.830580e-01 1.835802e-01 4.807773e-02 9.292469e-02 9.036786e-02 7.944488e-02 1.027930e-01 1.099847e-01 1.727739e-01 1.622647e-01 1.260213e-01 1.351840e-01 9.570394e-02 7.769576e-02 2.791312e-02
<GCONST> 7.493840e+01
<STATE> 6
<MEAN> 39
 -7.336630e+00 -8.600982e+00 2.008795e+00 -8.366806e+00 -1.514533e+01 -8.679665e+00 -1.324957e+00 4.504737e+00 9.067379e-01 -1.098835e+01 8.952340e-02 -2.946635e+00 7.632119e+01 2.371528e-01 1.876910e-01 -7.353455e-01 5.519625e-01 1.373269e+00 -2.338934e-01 -1.346652e+00 2.824655e-01 8.564435e-01 -3.740759e-01 -4.577416e-01 -1.366199e-01 -7.193761e-01 -7.820039e-02 3.921812e-01 -3.980947e-02 3.235855e-01 2.087633e-01 1.504720e-01 -2.435087e-01 -3.719149e-01 1.616426e-01 2.737362e-01 -1.574143e-01 -2.789913e-02 -3.584923e-01
<VARIANCE> 39
 2.689070e+01 1.849257e+01 2.389108e+01 4.129089e+01 2.867524e+01 1.990134e+01 9.057891e+01 2.847068e+01 3.466262e+01 4.079885e+01 1.573801e+01 1.805905e+01 1.735206e+01 4.698522e-01 9.396847e-01 1.050273e+00 8.488708e-01 1.129367e+00 1.231615e+00 1.172977e+00 1.714066e+00 1.534220e+00 1.149160e+00 1.141510e+00 8.386437e-01 4.239232e-01 4.988777e-02 9.512313e-02 1.174635e-01 1.460214e-01 1.705315e-01 1.902472e-01 2.552965e-01 2.503545e-01 1.898441e-01 2.062765e-01 1.983189e-01 1.189411e-01 9.178346e-02
<GCONST> 8.953138e+01
<STATE> 7
<MEAN> 39
 -7.121020e+00 -3.691002e+00 -2.093577e+00 -4.529801e+00 -1.158705e+01 -9.274407e+00 -9.418184e+00 1.789316e+00 6.168953e+00 -9.516686e+00 -2.244217e+00 -5.467779e+00 7.164198e+01 -3.282450e-01 1.792665e+00 4.176107e-01 2.201880e+00 2.363468e+00 6.741536e-01 -8.431168e-01 -1.621654e+00 -2.517669e-01 8.101897e-01 -6.644325e-01 -1.910429e-01 -3.330614e+00 -2.826007e-01 -1.029936e-01 6.595732e-01 3.590702e-01 4.104248e-01 5.522481e-01 8.569720e-01 -8.845070e-02 -5.888148e-01 7.612856e-02 1.523048e-01 2.400939e-01 -7.865902e-01
<VARIANCE> 39
 1.569197e+01 4.279696e+01 4.946491e+01 2.392335e+01 2.183610e+01 2.383868e+01 1.396296e+02 4.972345e+01 6.620786e+01 3.982330e+01 2.048895e+01 2.694031e+01 3.175098e+01 9.251632e-01 8.838583e-01 3.706063e+00 1.620399e+00 1.695275e+00 1.738772e+00 5.044089e+00 3.511328e+00 4.570434e+00 2.464206e+00 1.274790e+00 1.492474e+00 3.058964e+00 1.093985e-01 3.575378e-01 4.734064e-01 2.240185e-01 2.930173e-01 3.061205e-01 6.510860e-01 5.782132e-01 8.901734e-01 4.706203e-01 2.537625e-01 2.739145e-01 3.012220e-01
<GCONST> 1.141318e+02
<STATE> 8
<MEAN> 39
 -9.503208e+00 2.032149e+00 3.600235e+00 4.264507e+00 -1.046947e+00 -4.340317e+00 -8.877643e+00 -5.991133e+00 -6.045772e-01 -8.433446e+00 -4.709599e+00 -5.486431e+00 5.654735e+01 -9.699209e-01 3.589242e-02 2.206021e-01 7.132995e-01 1.356169e+00 1.206429e+00 1.224094e+00 1.461158e-01 -5.869720e-01 7.445689e-01 8.756523e-02 6.478907e-01 -1.501932e+00 -2.162813e-01 -2.808585e-01 -5.836912e-01 -5.507191e-01 -4.730400e-01 -7.523628e-02 -3.658916e-02 3.909884e-01 4.383610e-01 2.281839e-01 2.231482e-01 1.752363e-01 7.911940e-01
<VARIANCE> 39
 1.454988e+01 2.283668e+01 1.240438e+01 1.866976e+01 1.449637e+01 2.011829e+01 5.646404e+01 4.215916e+01 2.354144e+01 1.775253e+01 1.570609e+01 1.834121e+01 2.497744e+01 1.834997e+00 1.156948e+00 3.700684e+00 2.601561e+00 3.375162e+00 2.110616e+00 3.810484e+00 1.676308e+00 4.293583e+00 1.621329e+00 1.590147e+00 1.370580e+00 6.294378e+00 2.472162e-01 2.213793e-01 4.024598e-01 2.580240e-01 2.147799e-01 2.386433e-01 5.251442e-01 2.941077e-01 4.455437e-01 3.108317e-01 3.548112e-01 2.247277e-01 3.131208e-01
<GCONST> 1.070133e+02
<STATE> 9
<MEAN> 39
 -1.662148e+01 -1.441788e+00 -3.346143e+00 -2.141571e+00 -2.655324e+00 -4.222175e+00 -4.398966e+00 2.289839e+00 -1.510345e-01 -3.715377e+00 -1.695621e+00 -5.133847e-02 6.276623e+01 -3.207929e-03 -1.289845e-01 -3.670968e-01 -6.986112e-02 3.823855e-01 1.174075e-01 1.935853e-01 2.052765e-01 6.308638e-01 4.425212e-01 1.994684e-01 4.058191e-01 -8.646154e-02 2.680607e-01 -5.007258e-02 1.961178e-01 5.355719e-02 5.173841e-02 -3.939293e-02 -1.074236e-01 -7.845470e-02 4.398331e-02 -3.338601e-02 -7.652822e-02 -1.216560e-01 -1.903501e-01
<VARIANCE> 39
 2.484426e+01 3.656852e+01 2.177601e+01 2.555130e+01 1.421814e+01 1.688918e+01 3.173255e+01 5.343385e+01 2.162104e+01 2.097679e+01 1.698867e+01 1.919915e+01 3.502427e+01 2.404317e+00 9.187048e-01 2.231363e+00 2.199762e+00 2.321367e+00 2.198440e+00 2.715567e+00 2.124294e+00 2.636991e+00 2.441102e+00 1.799410e+00 1.604128e+00 3.552169e+00 4.329204e-01 2.093120e-01 3.427359e-01 4.356985e-01 5.098955e-01 3.861946e-01 6.770115e-01 4.679828e-01 4.319739e-01 4.470245e-01 3.132873e-01 2.562626e-01 5.087312e-01
<GCONST> 1.112239e+02
<STATE> 10
<MEAN> 39
 -1.141478e+01 -4.966482e+00 -8.986992e-01 1.697664e+00 4.267369e+00 -3.100187e-05 -2.858957e+00 -4.320812e-01 6.410353e+00 5.960692e-01 -1.391789e+00 2.072668e-01 5.828831e+01 -2.401623e-01 -6.366621e-02 -3.620432e-01 -3.172436e-01 1.698951e-01 3.997866e-01 2.165298e-01 6.409600e-02 -2.944835e-01 1.050367e+00 6.717337e-01 -5.674082e-03 -1.301274e+00 5.094076e-02 1.417297e-01 -2.995924e-02 -1.545342e-01 -3.452017e-01 -1.873341e-01 1.302509e-01 -4.925038e-02 -3.963470e-01 -2.064249e-01 1.401097e-01 4.895936e-04 1.726358e-01
<VARIANCE> 39
 1.568080e+01 4.543028e+01 1.668670e+01 1.381988e+01 1.322884e+01 1.420162e+01 2.865293e+01 3.940594e+01 2.622255e+01 3.633151e+01 2.736613e+01 2.549857e+01 2.283782e+01 8.561344e-01 1.550878e+00 9.534401e-01 1.662445e+00 1.415766e+00 1.931465e+00 3.441467e+00 2.646492e+00 3.326316e+00 2.373852e+00 2.247576e+00 1.848773e+00 6.409186e-01 1.352823e-01 2.235569e-01 2.025069e-01 3.686602e-01 3.124408e-01 4.013459e-01 5.073391e-01 4.596169e-01 4.421182e-01 4.304346e-01 4.395020e-01 4.193299e-01 1.487294e-01
<GCONST> 1.046107e+02
<STATE> 11
<MEAN> 39
 -1.262117e+01 -1.718761e+00 -1.439498e+00 -3.327641e-01 1.085053e+00 9.301312e-01 1.504717e+00 9.383686e-01 1.807074e-01 2.663930e+00 4.610840e+00 2.406029e+00 5.139110e+01 -2.204449e-01 4.348646e-01 3.998509e-01 -9.296595e-02 -5.977042e-01 -1.546381e-01 6.632154e-01 4.482408e-01 -3.648842e-01 -8.937484e-02 2.819979e-01 4.014989e-01 -6.387520e-01 -7.539826e-03 -1.332710e-02 1.227867e-01 1.151988e-01 1.057068e-01 -1.788103e-01 -2.141428e-01 3.378030e-02 2.543947e-01 -1.018626e-01 -3.913065e-01 -2.755882e-01 2.175473e-01
<VARIANCE> 39
 1.232837e+01 1.252619e+01 1.483181e+01 1.433103e+01 1.231025e+01 1.387854e+01 2.247108e+01 3.022603e+01 2.178610e+01 2.088556e+01 1.971916e+01 1.913540e+01 8.882055e+00 2.400057e-01 6.858723e-01 8.352346e-01 1.074031e+00 1.308139e+00 1.139524e+00 2.187941e+00 2.041925e+00 3.126249e+00 2.083264e+00 2.067216e+00 1.813540e+00 1.934545e-01 6.834278e-02 1.084583e-01 1.389383e-01 2.353170e-01 3.215635e-01 2.733826e-01 3.690209e-01 3.623520e-01 6.091539e-01 4.142775e-01 3.528567e-01 3.180327e-01 6.467291e-02
<GCONST> 9.043991e+01
<TRANSP> 12
 0.000000e+00 1.000000e+00 0.000000e+00 0.000000e+00 0.000000e+00 0.000000e+00 0.000000e+00 0.000000e+00 0.000000e+00 0.000000e+00 0.000000e+00 0.000000e+00
 0.000000e+00 6.499859e-01 3.500141e-01 0.000000e+00 0.000000e+00 0.000000e+00 0.000000e+00 0.000000e+00 0.000000e+00 0.000000e+00 0.000000e+00 0.000000e+00
 0.000000e+00 0.000000e+00 8.569090e-01 1.430909e-01 0.000000e+00 0.000000e+00 0.000000e+00 0.000000e+00 0.000000e+00 0.000000e+00 0.000000e+00 0.000000e+00
 0.000000e+00 0.000000e+00 0.000000e+00 7.620409e-01 2.379591e-01 0.000000e+00 0.000000e+00 0.000000e+00 0.000000e+00 0.000000e+00 0.000000e+00 0.000000e+00
 0.000000e+00 0.000000e+00 0.000000e+00 0.000000e+00 9.017612e-01 9.823871e-02 0.000000e+00 0.000000e+00 0.000000e+00 0.000000e+00 0.000000e+00 0.000000e+00
 0.000000e+00 0.000000e+00 0.000000e+00 0.000000e+00 0.000000e+00 7.356645e-01 2.643355e-01 0.000000e+00 0.000000e+00 0.000000e+00 0.000000e+00 0.000000e+00
 0.000000e+00 0.000000e+00 0.000000e+00 0.000000e+00 0.000000e+00 0.000000e+00 6.416930e-01 3.583070e-01 0.000000e+00 0.000000e+00 0.000000e+00 0.000000e+00
 0.000000e+00 0.000000e+00 0.000000e+00 0.000000e+00 0.000000e+00 0.000000e+00 0.000000e+00 7.287276e-01 2.712724e-01 0.000000e+00 0.000000e+00 0.000000e+00
 0.000000e+00 0.000000e+00 0.000000e+00 0.000000e+00 0.000000e+00 0.000000e+00 0.000000e+00 0.000000e+00 7.933344e-01 2.066655e-01 0.000000e+00 0.000000e+00
 0.000000e+00 0.000000e+00 0.000000e+00 0.000000e+00 0.000000e+00 0.000000e+00 0.000000e+00 0.000000e+00 0.000000e+00 7.927622e-01 2.072378e-01 0.000000e+00
 0.000000e+00 0.000000e+00 0.000000e+00 0.000000e+00 0.000000e+00 0.000000e+00 0.000000e+00 0.000000e+00 0.000000e+00 0.000000e+00 6.501108e-01 3.498892e-01
 0.000000e+00 0.000000e+00 0.000000e+00 0.000000e+00 0.000000e+00 0.000000e+00 0.000000e+00 0.000000e+00 0.000000e+00 0.000000e+00 0.000000e+00 0.000000e+00
<ENDHMM>
~h "sil"
<BEGINHMM>
<NUMSTATES> 5
<STATE> 2
<MEAN> 39
 -1.392714e+01 -3.204615e+00 -6.529429e-01 9.882978e-01 1.450502e+00 -1.182359e+00 1.430420e+00 7.154004e-01 1.438920e+00 2.081142e-01 1.375989e+00 4.405120e-01 5.094624e+01 -2.901102e-02 6.876247e-02 1.823375e-02 4.564080e-02 3.106743e-02 4.602526e-02 5.483539e-02 1.221939e-02 -2.046993e-03 2.800161e-02 2.383046e-02 2.523024e-03 -9.724706e-02 -5.375404e-03 -2.227717e-04 -1.575346e-03 -7.905222e-03 1.195635e-02 1.743233e-02 -1.712962e-03 1.353120e-02 1.963102e-02 1.131239e-02 8.814970e-03 1.669834e-03 2.154871e-02
<VARIANCE> 39
 8.279732e+00 1.685159e+01 9.500175e+00 1.332579e+01 1.382993e+01 1.273636e+01 1.783378e+01 2.097331e+01 1.793492e+01 1.754512e+01 1.649295e+01 1.505490e+01 7.812220e+00 1.525652e-01 3.188646e-01 4.858620e-01 6.658904e-01 8.496484e-01 1.000360e+00 1.208585e+00 1.421299e+00 1.354725e+00 1.397519e+00 1.337007e+00 1.266878e+00 9.635702e-02 3.007981e-02 5.916943e-02 9.620257e-02 1.338509e-01 1.719231e-01 1.983399e-01 2.461641e-01 2.870287e-01 2.749878e-01 2.808966e-01 2.751701e-01 2.554595e-01 1.520576e-02
<GCONST> 7.481245e+01
<STATE> 3
<MEAN> 39
 -1.588026e+01 2.081995e+00 1.736075e+00 2.784945e+00 3.118152e+00 2.957607e+00 3.767226e+00 4.339612e+00 3.545933e+00 3.790136e+00 3.861025e+00 2.602324e+00 4.609478e+01 -9.500828e-03 1.647367e-02 1.042825e-03 -1.083407e-03 1.426957e-02 3.153467e-02 8.339290e-03 4.870600e-03 7.399593e-03 2.084626e-02 5.400419e-03 -2.016972e-02 -1.999426e-02 -2.388315e-04 -1.081007e-02 -8.615234e-03 -3.936891e-03 -1.904063e-02 -1.839405e-02 -1.039936e-02 -4.454206e-03 -1.019312e-02 -1.433126e-02 -1.160572e-02 -2.805892e-03 2.399676e-02
<VARIANCE> 39
 3.712783e+00 4.049780e+00 4.260434e+00 5.590569e+00 7.730319e+00 9.684857e+00 1.046871e+01 1.188746e+01 1.379743e+01 1.198491e+01 1.122920e+01 1.043953e+01 1.708711e+00 1.152490e-01 2.220539e-01 3.597510e-01 5.196334e-01 6.952558e-01 8.742923e-01 1.013253e+00 1.150707e+00 1.234778e+00 1.266742e+00 1.169535e+00 1.111513e+00 4.810116e-02 2.405551e-02 4.495418e-02 7.319520e-02 1.084490e-01 1.429219e-01 1.812172e-01 2.106268e-01 2.396233e-01 2.563845e-01 2.617864e-01 2.394683e-01 2.320502e-01 1.065558e-02
<GCONST> 6.065557e+01
<STATE> 4
<MEAN> 39
 -1.669005e+01 -6.744199e-01 6.563742e-01 1.556918e+00 2.329031e+00 9.378758e-01 2.330575e+00 3.513552e+00 3.296008e+00 2.327843e+00 3.399519e+00 2.068259e+00 5.051598e+01 6.619131e-02 -3.434345e-02 -5.221861e-03 5.118563e-02 -1.465107e-01 -1.047289e-01 -6.953104e-02 -7.807460e-03 -5.333675e-02 -1.865569e-01 -8.659008e-02 -3.497652e-02 2.161219e-01 1.127363e-01 4.987961e-03 1.758957e-02 -3.211009e-02 -8.372173e-02 -3.673432e-02 -1.610532e-02 -5.150713e-02 -4.931027e-02 -6.971203e-02 -3.641530e-02 -3.695764e-02 4.146992e-02
<VARIANCE> 39
 1.828926e+01 2.164005e+01 1.771231e+01 1.998177e+01 1.885454e+01 2.182038e+01 2.385370e+01 2.480919e+01 2.045230e+01 2.012614e+01 1.950373e+01 1.558551e+01 2.916060e+01 1.530742e+00 1.614870e+00 1.598780e+00 1.930924e+00 1.992866e+00 2.155483e+00 2.423608e+00 2.284075e+00 2.121083e+00 1.954873e+00 2.045965e+00 1.586464e+00 2.774272e+00 3.105038e-01 3.115422e-01 3.151003e-01 4.245181e-01 4.339041e-01 4.335198e-01 4.990726e-01 4.671164e-01 4.475553e-01 3.862805e-01 4.332054e-01 3.268034e-01 5.540923e-01
<GCONST> 1.080860e+02
<TRANSP> 5
 0.000000e+00 7.420186e-01 2.579814e-01 0.000000e+00 0.000000e+00
 0.000000e+00 9.291572e-01 3.662702e-02 3.421577e-02 0.000000e+00
 0.000000e+00 0.000000e+00 9.648696e-01 3.513043e-02 0.000000e+00
 0.000000e+00 8.722425e-02 0.000000e+00 8.331175e-01 7.965823e-02
 0.000000e+00 0.000000e+00 0.000000e+00 0.000000e+00 0.000000e+00
<ENDHMM>
