~o
<STREAMINFO> 1 39
<VECSIZE> 39<NULLD><MFCC_D_A_0><DIAGC>
~h "up"
<BEGINHMM>
<NUMSTATES> 12
<STATE> 2
<MEAN> 39
 -9.597094e+00 4.567269e+00 -2.835278e+00 -8.918980e+00 -8.308683e+00 2.749989e+00 1.787192e+00 -2.402209e-01 -5.157011e-01 -2.024345e+00 1.695911e+00 3.349869e-01 5.548796e+01 2.580371e+00 7.999208e-01 -1.052285e+00 -3.865644e+00 -4.356986e+00 2.501350e-01 -6.236182e-01 -1.852917e+00 -1.071138e+00 -1.868668e+00 -4.538920e-01 -1.088938e+00 3.565132e+00 -5.563013e-03 -1.718038e-01 6.276175e-02 3.951150e-02 -1.311213e-01 1.309406e-02 -1.072348e-01 -2.127021e-01 9.317068e-02 -1.024810e-01 -5.619963e-02 -5.584744e-02 3.154558e-01
<VARIANCE> 39
 4.047886e+01 2.395958e+01 1.730718e+01 7.757716e+01 8.888097e+01 5.079050e+01 2.470118e+01 3.495082e+01 4.597192e+01 4.053416e+01 2.430673e+01 2.679067e+01 4.613120e+01 2.282896e+00 2.037472e+00 1.940537e+00 4.740315e+00 6.428356e+00 3.921312e+00 2.262762e+00 3.611576e+00 5.059589e+00 3.891034e+00 2.927205e+00 2.507442e+00 3.847904e+00 6.380485e-01 3.693312e-01 2.794157e-01 1.302681e+00 1.132980e+00 4.797965e-01 3.438289e-01 5.315737e-01 6.118842e-01 5.685195e-01 4.019945e-01 3.852836e-01 6.041858e-01
<GCONST> 1.259879e+02
<STATE> 3
<MEAN> 39
 -2.072802e+00 5.989948e+00 -6.072552e+00 -1.883243e+01 -2.223578e+01 1.178968e+00 2.855680e-01 -5.972936e+00 -4.174044e+00 -6.794773e+00 -1.930151e+00 -3.140984e+00 6.833909e+01 1.241866e-02 1.897957e-01 6.109405e-02 2.554075e-01 2.918214e-01 -4.570608e-01 -1.163665e-01 -1.263406e-02 1.043114e-01 -9.149921e-02 -4.377275e-01 -1.356306e-01 7.473790e-02 -4.595948e-01 -5.781401e-02 2.473666e-01 9.139606e-01 1.098665e+00 -5.899892e-02 1.219955e-01 4.869658e-01 1.305160e-01 3.186406e-01 4.606863e-02 1.384433e-01 -9.078248e-01
<VARIANCE> 39
 1.021883e+01 1.524584e+01 2.203539e+01 2.713954e+01 3.870293e+01 1.058719e+02 3.869606e+01 6.003215e+01 1.047322e+02 5.272174e+01 3.590160e+01 2.396713e+01 1.742770e+01 7.191504e-01 7.546033e-01 7.958964e-01 3.440291e+00 4.990050e+00 1.722943e+00 1.373427e+00 3.037392e+00 1.346045e+00 1.480320e+00 1.661954e+00 9.119666e-01 3.031229e+00 2.593803e-01 2.003948e-01 2.031841e-01 6.470837e-01 5.336608e-01 3.384060e-01 3.081904e-01 5.286664e-01 4.046887e-01 3.626395e-01 3.450477e-01 2.396770e-01 2.954067e-01
<GCONST> 1.094675e+02
<STATE> 4
<MEAN> 39
 -4.833312e+00 5.932324e+00 -1.837649e+00 -8.826167e+00 -8.683613e+00 -1.711480e+00 3.688253e-01 -2.556824e+00 -2.369896e+00 -6.323366e+00 -3.227288e+00 -4.502254e+00 6.123466e+01 -2.722828e+00 -1.030875e+00 1.850614e+00 4.609589e+00 4.915914e+00 1.231445e-01 8.022668e-01 1.671958e+00 1.052837e+00 1.283553e+00 4.301833e-01 6.340770e-01 -3.956686e+00 -4.686867e-01 -3.161759e-01 -4.540980e-02 -3.041666e-01 -4.475603e-01 4.613377e-01 3.059133e-01 4.461301e-02 5.368940e-01 4.238157e-01 5.395551e-01 4.566128e-01 -2.149541e-01
<VARIANCE> 39
 2.811246e+01 1.697800e+01 2.442820e+01 3.801746e+01 4.670035e+01 3.186370e+01 2.271945e+01 2.199922e+01 5.136982e+01 2.102045e+01 1.754236e+01 2.135145e+01 3.493597e+01 8.817868e-01 1.531084e+00 2.013932e+00 2.417170e+00 4.163260e+00 4.705596e+00 2.660016e+00 3.383042e+00 4.885874e+00 3.229857e+00 2.532381e+00 1.981431e+00 1.402020e+00 3.202500e-01 3.741298e-01 4.692005e-01 9.257293e-01 1.205525e+00 3.429329e-01 2.913475e-01 4.743212e-01 4.288467e-01 3.640773e-01 4.044837e-01 2.370672e-01 4.387103e-01
<GCONST> 1.155834e+02
<STATE> 5
<MEAN> 39
 -1.329669e+01 2.103202e+00 7.281601e-01 -1.128947e+00 -1.161774e+00 1.937503e+00 4.156120e+00 2.641987e+00 4.619678e+00 3.725016e-01 1.730534e+00 8.433971e-01 5.028139e+01 -1.289394e+00 -8.455467e-01 -1.484282e-02 9.740233e-01 9.297717e-01 5.899073e-01 6.344977e-01 1.249965e+00 1.502473e+00 1.788506e+00 1.423515e+00 1.245605e+00 -1.799281e+00 6.585654e-01 2.016927e-01 -3.165823e-01 -7.589672e-01 -7.145517e-01 -2.007277e-01 -3.219318e-01 -3.963364e-01 -4.128732e-01 -3.732980e-01 -2.389022e-01 -2.571659e-01 8.672758e-01
<VARIANCE> 39
 1.622163e+01 9.632721e+00 7.881421e+00 1.328733e+01 1.208912e+01 1.937526e+01 1.844135e+01 2.498189e+01 3.158779e+01 2.382060e+01 1.847957e+01 1.540337e+01 1.226882e+01 1.344356e+00 1.181863e+00 1.292353e+00 1.507795e+00 2.599806e+00 1.477315e+00 1.789093e+00 1.737497e+00 2.087961e+00 1.715965e+00 1.679214e+00 1.648726e+00 1.906643e+00 1.160498e-01 1.941917e-01 2.886571e-01 4.044436e-01 7.018772e-01 3.599694e-01 3.592637e-01 3.806251e-01 4.324005e-01 4.404101e-01 3.824302e-01 2.942467e-01 1.325476e-01
<GCONST> 9.913091e+01
<STATE> 6
<MEAN> 39
 -1.505723e+01 1.029399e+00 7.361273e-01 8.865494e-01 1.489949e+00 1.849853e+00 3.236222e+00 2.994156e+00 3.958953e+00 2.762088e+00 3.001231e+00 2.239734e+00 4.819056e+01 -1.008291e-01 -4.495961e-02 2.987597e-02 1.688285e-01 2.755480e-01 4.348207e-02 -3.215995e-02 -4.100671e-02 -1.545727e-01 8.797602e-02 3.357066e-02 2.216261e-02 -9.462111e-02 2.133885e-02 3.443900e-02 -1.506044e-03 -2.613081e-02 -4.989458e-02 -2.607602e-02 -1.110165e-03 -1.231957e-02 -4.306822e-02 -5.980953e-02 -4.931029e-02 -5.015679e-02 7.319371e-02
<VARIANCE> 39
 8.830877e+00 7.497871e+00 7.149244e+00 6.954769e+00 1.069025e+01 1.354834e+01 1.551482e+01 1.829813e+01 2.107852e+01 1.501604e+01 1.462417e+01 1.123481e+01 7.109528e+00 1.326814e-01 2.179341e-01 3.124948e-01 5.102936e-01 8.225766e-01 1.093096e+00 1.204810e+00 1.243425e+00 1.202953e+00 1.253412e+00 1.183605e+00 1.045158e+00 4.637018e-02 3.214361e-02 5.144079e-02 6.323157e-02 1.115979e-01 1.554781e-01 2.433936e-01 2.505483e-01 2.547514e-01 2.724180e-01 2.638206e-01 2.367132e-01 2.073248e-01 2.330923e-02
<GCONST> 6.890133e+01
<STATE> 7
<MEAN> 39
 -1.561745e+01 6.142445e-01 8.405371e-01 2.395617e+00 3.132964e+00 2.881637e+00 4.476265e+00 4.552613e+00 4.419410e+00 3.916048e+00 4.017827e+00 2.287218e+00 4.776441e+01 -9.460849e-02 -5.300286e-01 -3.658009e-02 -2.794652e-01 -9.172873e-02 -7.831898e-01 -6.216093e-01 -3.317415e-01 -8.521502e-02 -1.453299e-01 -3.450708e-01 -2.418817e-01 1.585072e+00 6.146455e-02 -3.534911e-01 -1.417173e-01 -2.503621e-01 -2.678283e-02 -2.899719e-01 -3.721308e-01 -2.418184e-01 -5.377745e-02 -7.534929e-02 -1.148637e-01 -1.400938e-01 8.985621e-01
<VARIANCE> 39
 9.063521e+00 1.229947e+01 6.869465e+00 6.012975e+00 9.362632e+00 1.008312e+01 1.198413e+01 1.454247e+01 1.537428e+01 1.194584e+01 1.359481e+01 8.135048e+00 6.163412e+00 6.953030e-01 8.646232e-01 1.063621e+00 1.016554e+00 1.206865e+00 1.365100e+00 2.024782e+00 1.658591e+00 1.373699e+00 1.076088e+00 1.180788e+00 1.256888e+00 3.298481e+00 1.367161e-01 1.563334e-01 2.257251e-01 1.675304e-01 2.489132e-01 2.303073e-01 3.338895e-01 2.507408e-01 2.317692e-01 2.302422e-01 2.989636e-01 2.789610e-01 3.024183e-01
<GCONST> 8.574627e+01
<STATE> 8
<MEAN> 39
 -1.587681e+01 -3.050629e+00 -2.923025e-01 -6.649572e-01 2.268258e+00 -3.039683e+00 -1.222526e+00 4.486369e-01 2.089138e+00 2.177375e+00 1.610150e+00 8.983571e-02 5.997134e+01 7.437149e-02 -1.806645e+00 -1.202186e+00 -1.020943e+00 1.856536e-01 -8.549199e-01 -1.164871e+00 -9.015459e-02 -2.346825e-01 5.875435e-02 -3.527918e-01 -8.741961e-01 3.619667e+00 9.847408e-02 -5.693379e-02 -3.115983e-01 -1.422724e-01 -6.012231e-02 3.530544e-01 2.839608e-01 3.155051e-01 5.621566e-02 1.406937e-01 6.401677e-02 4.816457e-02 -6.292734e-01
<VARIANCE> 39
 2.360817e+01 1.490432e+01 1.653580e+01 1.135215e+01 2.054177e+01 1.922993e+01 3.102607e+01 1.492779e+01 1.669743e+01 2.012295e+01 1.325302e+01 1.946175e+01 3.273718e+01 1.361147e+00 1.288800e+00 2.179370e+00 1.059134e+00 2.476730e+00 2.330374e+00 2.402416e+00 2.248532e+00 1.554572e+00 2.144835e+00 1.647666e+00 2.144198e+00 2.657603e+00 1.755010e-01 2.921726e-01 2.866234e-01 2.384847e-01 4.391049e-01 3.825864e-01 4.440514e-01 3.454706e-01 3.484266e-01 4.088841e-01 2.840801e-01 4.649316e-01 8.414665e-01
<GCONST> 1.045751e+02
<STATE> 9
<MEAN> 39
 -1.317755e+01 -8.486678e+00 -3.515758e+00 -4.345434e+00 2.384290e+00 -1.473811e+00 -6.239134e-01 9.348590e-01 1.947932e+00 2.907725e+00 1.145991e+00 -4.668496e-01 6.350661e+01 3.317054e-01 -4.349424e-01 -5.403898e-01 -4.951222e-01 -4.996152e-01 -9.306653e-03 -2.146797e-01 -5.832226e-02 1.764381e-02 1.623715e-01 -4.033662e-01 1.834153e-01 -5.186611e-01 2.367386e-02 4.978518e-01 4.203126e-01 3.306160e-01 8.863020e-02 1.350240e-01 2.187620e-01 -2.723526e-04 8.584218e-02 -2.406667e-02 5.793611e-02 1.283937e-01 -8.464148e-01
<VARIANCE> 39
 4.007190e+01 1.102704e+01 2.775910e+01 1.465896e+01 2.619800e+01 2.070056e+01 4.413947e+01 2.429937e+01 2.324938e+01 1.953461e+01 1.979275e+01 2.437535e+01 2.243473e+01 4.771341e-01 1.137646e+00 1.412514e+00 1.592192e+00 1.718915e+00 1.597134e+00 2.158401e+00 2.102412e+00 2.088639e+00 2.513690e+00 1.727202e+00 2.124732e+00 1.260185e+00 1.399825e-01 2.253927e-01 3.141094e-01 2.260437e-01 4.440623e-01 3.562480e-01 4.795148e-01 4.401251e-01 3.302943e-01 3.799306e-01 3.987569e-01 5.042601e-01 4.344157e-01
<GCONST> 1.043558e+02
<STATE> 10
<MEAN> 39
 -1.498338e+01 -6.225795e+00 -4.799524e+00 -4.965804e+00 1.641916e+00 -5.668652e+00 -5.091466e+00 3.690868e+00 1.453106e+00 1.530596e+00 -4.250430e-01 -1.982117e+00 5.947025e+01 2.983891e-01 3.597946e-01 2.592058e-01 2.562460e-01 5.931857e-02 1.124109e-01 2.110545e-01 -2.313901e-03 1.821547e-01 -5.799190e-02 1.514901e-01 1.170118e-01 -9.075405e-01 -5.158296e-02 4.721431e-02 1.200385e-02 8.310023e-02 1.907661e-02 1.053015e-01 4.669770e-02 -1.800221e-02 -1.357410e-02 -1.056632e-02 1.417507e-02 5.380058e-02 1.832188e-03
<VARIANCE> 39
 7.337270e+00 1.116986e+01 8.930184e+00 1.244955e+01 1.048642e+01 1.826188e+01 2.285166e+01 1.847941e+01 2.081277e+01 2.711755e+01 1.661967e+01 1.241220e+01 1.471935e+01 3.889517e-01 6.468956e-01 6.803070e-01 8.295707e-01 9.629769e-01 1.511259e+00 1.504907e+00 1.423711e+00 1.449894e+00 1.650538e+00 1.432713e+00 1.300445e+00 6.851094e-01 6.160486e-02 9.875595e-02 1.330697e-01 1.427156e-01 2.025831e-01 2.924470e-01 3.229618e-01 2.753254e-01 2.996133e-01 3.506816e-01 2.915980e-01 2.158697e-01 5.857806e-02
<GCONST> 8.458325e+01
<STATE> 11
<MEAN> 39
 -1.300556e+01 -1.792604e+00 -5.921975e-01 1.028858e+00 3.051975e+00 2.522770e+00 3.019255e+00 2.057620e+00 4.056100e+00 3.427456e+00 2.621856e+00 2.448035e+00 5.049397e+01 -2.389648e-01 4.137989e-01 1.749098e-01 2.745390e-01 2.238967e-01 2.656334e-01 2.595612e-01 9.002617e-03 -9.889732e-02 6.657930e-02 1.659722e-01 2.857960e-02 -5.388588e-01 -3.008922e-02 -6.117913e-02 -1.696943e-02 -6.874679e-02 2.136926e-03 -9.907309e-02 -5.097683e-02 -1.261731e-03 -2.630655e-02 2.154357e-02 4.978814e-02 -3.109055e-02 1.378998e-01
<VARIANCE> 39
 1.604308e+01 3.122081e+01 1.106108e+01 1.067586e+01 1.275112e+01 2.322588e+01 1.955836e+01 3.001282e+01 2.106833e+01 1.946883e+01 1.875274e+01 1.153411e+01 1.887175e+01 4.193206e-01 6.021321e-01 6.530662e-01 9.367535e-01 9.124391e-01 1.772738e+00 1.552104e+00 1.820228e+00 1.589678e+00 1.777695e+00 1.939573e+00 1.231589e+00 5.039387e-01 8.257525e-02 9.524396e-02 9.993515e-02 1.572562e-01 1.669630e-01 2.773475e-01 2.735852e-01 3.563649e-01 3.264850e-01 3.682396e-01 3.836427e-01 2.401495e-01 5.167092e-02
<GCONST> 8.807310e+01
<TRANSP> 12
 0.000000e+00 1.000000e+00 0.000000e+00 0.000000e+00 0.000000e+00 0.000000e+00 0.000000e+00 0.000000e+00 0.000000e+00 0.000000e+00 0.000000e+00 0.000000e+00
 0.000000e+00 7.562295e-01 2.437705e-01 0.000000e+00 0.000000e+00 0.000000e+00 0.000000e+00 0.000000e+00 0.000000e+00 0.000000e+00 0.000000e+00 0.000000e+00
 0.000000e+00 0.000000e+00 8.600945e-01 1.399055e-01 0.000000e+00 0.000000e+00 0.000000e+00 0.000000e+00 0.000000e+00 0.000000e+00 0.000000e+00 0.000000e+00
 0.000000e+00 0.000000e+00 0.000000e+00 6.236988e-01 3.763012e-01 0.000000e+00 0.000000e+00 0.000000e+00 0.000000e+00 0.000000e+00 0.000000e+00 0.000000e+00
 0.000000e+00 0.000000e+00 0.000000e+00 0.000000e+00 7.041399e-01 2.958601e-01 0.000000e+00 0.000000e+00 0.000000e+00 0.000000e+00 0.000000e+00 0.000000e+00
 0.000000e+00 0.000000e+00 0.000000e+00 0.000000e+00 0.000000e+00 9.056745e-01 9.432548e-02 0.000000e+00 0.000000e+00 0.000000e+00 0.000000e+00 0.000000e+00
 0.000000e+00 0.000000e+00 0.000000e+00 0.000000e+00 0.000000e+00 0.000000e+00 7.084789e-01 2.915211e-01 0.000000e+00 0.000000e+00 0.000000e+00 0.000000e+00
 0.000000e+00 0.000000e+00 0.000000e+00 0.000000e+00 0.000000e+00 0.000000e+00 0.000000e+00 6.137629e-01 3.862371e-01 0.000000e+00 0.000000e+00 0.000000e+00
 0.000000e+00 0.000000e+00 0.000000e+00 0.000000e+00 0.000000e+00 0.000000e+00 0.000000e+00 0.000000e+00 7.169690e-01 2.830311e-01 0.000000e+00 0.000000e+00
 0.000000e+00 0.000000e+00 0.000000e+00 0.000000e+00 0.000000e+00 0.000000e+00 0.000000e+00 0.000000e+00 0.000000e+00 8.505208e-01 1.494792e-01 0.000000e+00
 0.000000e+00 0.000000e+00 0.000000e+00 0.000000e+00 0.000000e+00 0.000000e+00 0.000000e+00 0.000000e+00 0.000000e+00 0.000000e+00 8.444427e-01 1.555573e-01
 0.000000e+00 0.000000e+00 0.000000e+00 0.000000e+00 0.000000e+00 0.000000e+00 0.000000e+00 0.000000e+00 0.000000e+00 0.000000e+00 0.000000e+00 0.000000e+00
<ENDHMM>
~h "right"
<BEGINHMM>
<NUMSTATES> 12
<STATE> 2
<MEAN> 39
 -1.319306e+01 -8.398721e+00 1.626543e+00 -1.045794e+00 -4.537871e+00 -2.220310e+00 6.052063e+00 6.498292e+00 3.654166e+00 -3.771096e+00 -1.896113e+00 9.859103e-01 5.944529e+01 6.217052e-01 4.750241e-02 -1.980221e-02 4.497215e-02 -1.096964e+00 -8.706204e-01 -2.203094e-01 -2.110348e-01 1.739916e-01 -3.763595e-01 2.322125e-02 -6.793501e-01 1.434252e+00 3.128370e-01 2.999613e-01 1.101641e-01 -1.582250e-02 -1.922401e-01 -2.279473e-01 -3.436078e-01 -2.548737e-01 -8.098876e-02 1.176446e-01 1.766336e-01 -1.454240e-01 2.028634e-01
<VARIANCE> 39
 2.782845e+01 2.768394e+01 1.457621e+01 1.965026e+01 2.926300e+01 1.950305e+01 3.342760e+01 3.223030e+01 2.000086e+01 2.356912e+01 2.281452e+01 2.390828e+01 3.093120e+01 1.523708e+00 2.587187e+00 1.458820e+00 2.193595e+00 2.106562e+00 1.909859e+00 2.831757e+00 2.312456e+00 2.272135e+00 1.942444e+00 1.967954e+00 2.198684e+00 1.288665e+00 1.796340e-01 3.473366e-01 2.553482e-01 6.127007e-01 3.125729e-01 4.253417e-01 4.669240e-01 3.861923e-01 4.603449e-01 3.996765e-01 4.029361e-01 3.983942e-01 2.238112e-01
<GCONST> 1.088300e+02
<STATE> 3
<MEAN> 39
 -5.909060e+00 -4.636676e+00 2.842929e+00 -3.518283e+00 -1.310246e+01 -1.035040e+01 -3.650821e-01 2.213011e+00 2.855275e+00 -5.266651e+00 2.238819e-01 -3.560776e+00 7.002776e+01 1.387108e+00 -5.227301e-01 6.876599e-01 -1.721277e+00 -2.366377e+00 -2.159946e+00 -1.887734e+00 -6.592853e-01 -2.600360e-01 -1.038745e-01 1.167296e+00 -2.389332e-01 3.043941e+00 -6.786386e-01 -5.037494e-01 2.240254e-02 -7.014635e-02 2.373264e-01 4.206479e-01 2.317180e-01 2.130320e-01 3.606718e-02 8.840531e-02 1.092035e-01 4.118193e-01 -4.064946e-01
<VARIANCE> 39
 3.536716e+01 1.967441e+01 1.359168e+01 4.419362e+01 4.397353e+01 1.861680e+01 6.048349e+01 2.605025e+01 3.786542e+01 1.178133e+01 1.332160e+01 8.859773e+00 2.441642e+01 1.496536e+00 1.554538e+00 1.227552e+00 2.463368e+00 2.444256e+00 1.749126e+00 1.554976e+00 1.690046e+00 2.874181e+00 1.513700e+00 1.287710e+00 9.797692e-01 1.536219e+00 1.113015e-01 2.854021e-01 1.707074e-01 5.052037e-01 4.174498e-01 3.856632e-01 2.706712e-01 2.700860e-01 2.904508e-01 3.009767e-01 2.380087e-01 1.643523e-01 3.645981e-01
<GCONST> 1.022297e+02
<STATE> 4
<MEAN> 39
 -6.683889e+00 -7.778676e+00 5.576125e+00 -4.770287e+00 -1.757886e+01 -1.339857e+01 -1.974046e+00 -6.165204e-01 2.261562e+00 -5.359856e+00 4.152133e+00 -2.288814e+00 7.519144e+01 -9.465914e-02 1.388139e-01 9.859746e-01 -2.086156e-02 -9.614254e-01 -1.404707e-01 -3.505042e-01 -9.953654e-01 -5.396056e-01 -5.884686e-02 7.694768e-01 2.920353e-01 1.286432e-01 -6.453220e-02 3.372418e-01 6.478728e-02 2.107672e-01 1.934948e-01 3.189569e-01 1.878626e-01 -1.852040e-01 -1.360583e-01 -2.037510e-02 -1.590319e-01 2.486796e-02 -4.619243e-01
<VARIANCE> 39
 3.794058e+01 1.141550e+01 1.511232e+01 4.428843e+01 2.709044e+01 1.130581e+01 6.544532e+01 3.948690e+01 6.196158e+01 1.799186e+01 1.200653e+01 5.686617e+00 1.166528e+01 2.613974e-01 9.717650e-01 7.601211e-01 9.113207e-01 1.162055e+00 9.103214e-01 7.096670e-01 7.779675e-01 1.049210e+00 9.311545e-01 5.876732e-01 5.475027e-01 5.426031e-01 8.128032e-02 1.373819e-01 1.208806e-01 2.336759e-01 2.219099e-01 1.593531e-01 1.615278e-01 1.726102e-01 1.980732e-01 1.472803e-01 1.299627e-01 6.334288e-02 1.487945e-01
<GCONST> 8.226587e+01
<STATE> 5
<MEAN> 39
 -5.834794e+00 -4.670323e+00 1.310112e+01 -3.603597e+00 -2.251504e+01 -8.940267e+00 -1.489249e+00 -1.152993e+01 2.223437e+00 -9.052267e+00 5.162210e+00 3.474979e-01 7.405128e+01 -3.419486e-01 5.867560e-01 9.391307e-01 -1.178548e-01 4.263539e-02 6.245663e-01 -3.044518e-01 -8.842428e-01 -6.784661e-01 -1.679899e-01 -3.446624e-01 1.517437e-01 -3.355536e-01 -2.457549e-02 -2.524137e-02 -1.060082e-01 1.618210e-02 1.375143e-01 -4.506783e-02 -2.014189e-02 2.002389e-01 3.709164e-03 -1.370811e-03 -7.070033e-02 -2.301676e-02 1.509993e-02
<VARIANCE> 39
 5.300063e+01 1.433237e+01 3.480382e+01 2.707134e+01 2.173124e+01 2.923413e+01 3.030987e+01 3.813164e+01 4.905874e+01 2.979443e+01 1.067231e+01 1.906506e+01 8.051510e+00 3.289329e-01 6.535488e-01 1.169137e+00 1.101579e+00 1.403240e+00 1.798557e+00 1.233546e+00 1.472200e+00 9.332182e-01 7.104568e-01 7.522700e-01 6.658164e-01 2.914531e-01 4.537694e-02 1.241751e-01 2.404612e-01 2.291422e-01 2.777224e-01 3.586089e-01 2.330173e-01 1.934258e-01 1.578195e-01 1.392796e-01 1.520538e-01 1.034157e-01 3.457689e-02
<GCONST> 8.643827e+01
<STATE> 6
<MEAN> 39
 -1.066789e+01 1.225549e+00 1.477561e+01 -4.888297e+00 -1.882024e+01 -7.291286e+00 -7.414462e+00 -5.537509e+00 -8.453120e+00 -4.886044e+00 3.998962e+00 -3.806429e+00 6.790012e+01 -9.546638e-02 2.657140e-01 -2.080864e-03 2.723546e-01 -1.398849e-02 -6.824521e-02 1.266753e-02 -1.329577e-01 -1.415046e-02 -1.793632e-01 4.784597e-02 -2.055185e-02 -1.348012e-01 1.955882e-02 -7.450689e-02 -1.750810e-01 1.131413e-01 1.189720e-02 -7.732767e-02 1.402498e-02 6.024462e-02 1.688754e-01 -1.347545e-02 -5.661736e-02 7.097857e-02 3.308395e-02
<VARIANCE> 39
 7.161632e+00 9.021731e+00 1.821032e+01 5.876633e+01 1.008541e+01 5.274211e+01 5.418924e+01 8.502529e+01 3.133270e+01 1.442436e+01 1.662496e+01 1.657280e+01 2.285688e+01 1.206191e-01 4.669446e-01 1.233944e+00 6.368786e-01 6.453514e-01 1.382415e+00 7.359688e-01 8.647063e-01 1.553285e+00 6.433479e-01 7.612566e-01 9.102882e-01 2.410784e-01 1.940898e-02 5.234312e-02 1.001420e-01 1.603336e-01 1.331215e-01 1.766465e-01 1.470737e-01 1.759533e-01 2.234394e-01 1.130693e-01 1.575333e-01 1.592468e-01 3.275570e-02
<GCONST> 7.771024e+01
<STATE> 7
<MEAN> 39
 -1.257949e+01 -6.568781e-01 1.029513e+01 -4.806254e-01 -1.612803e+01 -8.238151e+00 -6.386007e+00 -6.281706e+00 -2.277260e+00 -7.023501e+00 7.935820e-01 1.197888e+00 6.841097e+01 2.608960e-01 -6.921519e-01 -6.629642e-01 6.324562e-01 1.903035e-01 1.667091e-01 -3.456205e-01 3.590513e-01 9.130222e-01 8.044648e-02 -6.064159e-01 6.317143e-01 -2.091588e-01 2.898795e-01 -2.707654e-01 -2.728690e-02 -1.756220e-01 -3.758970e-01 -1.007968e-01 -2.273895e-02 -2.654377e-02 8.827492e-02 -3.995296e-02 1.373203e-01 -1.007668e-01 2.184419e-01
<VARIANCE> 39
 2.811302e+01 1.901989e+01 2.715932e+01 3.254034e+01 4.346560e+01 5.373183e+01 4.222324e+01 3.660957e+01 2.862199e+01 2.969248e+01 2.098977e+01 1.894259e+01 3.452036e+01 3.437549e+00 2.152728e+00 2.338434e+00 2.650280e+00 8.156720e+00 5.291095e+00 3.115175e+00 3.041870e+00 2.987927e+00 2.584344e+00 2.730711e+00 2.608665e+00 4.045344e+00 5.983812e-01 3.045470e-01 5.046026e-01 4.433895e-01 1.645182e+00 1.068473e+00 6.530357e-01 5.017128e-01 4.641002e-01 5.856515e-01 5.447955e-01 4.686114e-01 8.442898e-01
<GCONST> 1.247699e+02
<STATE> 8
<MEAN> 39
 -2.124604e+00 -7.853761e+00 9.862311e+00 2.313595e+00 -2.013260e+01 -9.254697e+00 -4.590835e+00 -9.643021e+00 7.173512e+00 -5.678554e+00 -2.253321e+00 3.301553e+00 7.082602e+01 6.460711e-01 -1.053704e+00 -8.742567e-01 -1.572052e-01 -6.126433e-01 -3.560100e-01 -2.298884e-01 4.336979e-01 7.764673e-01 2.417962e-01 -5.832558e-02 -4.911291e-01 7.020301e-01 -2.792257e-01 1.953099e-01 6.866286e-02 -1.686136e-01 5.010084e-01 1.888530e-01 2.122103e-02 2.322333e-01 -1.132707e-01 7.975820e-02 -4.934735e-02 -1.771763e-01 -1.722273e-01
<VARIANCE> 39
 2.346445e+01 2.090700e+01 5.756612e+01 3.485421e+01 3.557625e+01 1.683239e+01 4.074899e+01 4.438243e+01 3.083727e+01 5.697160e+01 2.259918e+01 2.637586e+01 1.475705e+01 1.297940e+00 1.570392e+00 1.679882e+00 1.197692e+00 3.871591e+00 1.699275e+00 2.201755e+00 1.393206e+00 2.237696e+00 3.254892e+00 1.370788e+00 1.805101e+00 1.294559e+00 2.464601e-01 3.203907e-01 2.572452e-01 2.216745e-01 6.552569e-01 3.635133e-01 3.074821e-01 2.491395e-01 3.869310e-01 4.166962e-01 1.560696e-01 2.387278e-01 2.878307e-01
<GCONST> 1.077243e+02
<STATE> 9
<MEAN> 39
 -3.426562e-01 -1.261597e+01 4.029557e+00 -3.824123e+00 -1.666186e+01 -9.020144e+00 -3.974439e+00 -6.573640e+00 6.959345e+00 -4.703073e+00 -4.888358e+00 -1.174996e+00 7.417979e+01 1.778733e-02 3.057312e-01 -9.799169e-01 -2.130013e-01 8.582754e-01 2.588612e-01 5.594394e-02 7.645113e-01 -2.438515e-01 -3.900222e-01 -1.963577e-01 -6.305822e-01 -3.859214e-01 -1.444485e-01 3.335186e-01 6.613620e-02 1.575071e-01 3.244031e-01 8.527842e-02 1.370488e-01 -8.226918e-03 -1.360619e-01 3.820474e-02 -7.765359e-02 -1.812442e-02 -3.597997e-01
<VARIANCE> 39
 3.936856e+01 1.560646e+01 3.843074e+01 2.235537e+01 5.118122e+01 2.651036e+01 6.352716e+01 4.469407e+01 3.848985e+01 3.893988e+01 2.827462e+01 4.141471e+01 9.258988e+00 2.609340e-01 1.231752e+00 6.447238e-01 1.392461e+00 1.615610e+00 1.022879e+00 1.934879e+00 1.450411e+00 1.229202e+00 1.976780e+00 1.145238e+00 1.281125e+00 7.922147e-01 9.726349e-02 1.518707e-01 1.804348e-01 1.283128e-01 3.624069e-01 2.601297e-01 5.079800e-01 2.010058e-01 2.744370e-01 2.492107e-01 2.804667e-01 2.355994e-01 1.184197e-01
<GCONST> 9.779422e+01
<STATE> 10
<MEAN> 39
 -6.299921e+00 -3.973358e+00 -1.028383e+00 -2.171883e+00 -1.299621e+01 -8.606737e+00 -6.943377e+00 2.391646e+00 4.959024e+00 -7.046277e+00 -2.404710e+00 -3.706500e+00 6.595464e+01 -1.006876e+00 1.183590e+00 1.832596e-01 8.029028e-01 2.313604e+00 9.454601e-01 1.505190e+00 4.412968e-01 -1.422054e-01 7.272207e-01 -4.594839e-01 4.329095e-01 -2.441820e+00 -3.018395e-01 -1.388765e-01 2.103634e-01 2.371585e-01 2.168406e-01 3.527051e-01 2.903003e-01 -1.737667e-01 1.039672e-02 2.658638e-01 1.846669e-01 3.521765e-01 -3.078083e-01
<VARIANCE> 39
 2.230615e+01 2.447582e+01 1.795624e+01 4.614676e+01 4.166127e+01 3.093078e+01 6.559635e+01 5.755470e+01 2.604647e+01 3.101991e+01 3.664289e+01 4.355335e+01 3.666800e+01 1.042722e+00 1.704914e+00 1.011397e+00 2.590547e+00 2.674762e+00 2.606544e+00 3.447851e+00 2.152396e+00 2.202763e+00 1.992079e+00 2.864035e+00 1.648159e+00 2.664821e+00 1.183130e-01 4.241747e-01 1.900085e-01 4.681327e-01 4.080670e-01 3.414747e-01 7.055950e-01 4.755042e-01 4.245868e-01 4.545602e-01 5.813592e-01 3.172573e-01 3.007750e-01
<GCONST> 1.142529e+02
<STATE> 11
<MEAN> 39
 -1.322823e+01 -3.042781e+00 4.917093e-01 1.037770e+00 -6.673905e-01 -3.469909e-01 9.104730e-02 1.509577e+00 3.455728e+00 -1.906643e+00 -1.583379e+00 1.150194e+00 5.399263e+01 -7.941589e-01 -7.570862e-03 -7.104246e-02 -1.571904e-01 8.191792e-01 5.230520e-01 3.129919e-01 -1.188784e-01 -1.141072e-01 9.264053e-01 7.465321e-01 4.428246e-01 -1.065398e+00 2.006528e-01 1.827852e-02 -3.636914e-02 -1.322899e-01 -3.860517e-01 -2.638856e-01 -2.099737e-01 -4.271497e-02 -3.738300e-02 -1.808883e-01 -3.995504e-02 -1.146062e-01 3.449856e-01
<VARIANCE> 39
 2.164087e+01 1.437295e+01 1.799243e+01 2.397895e+01 2.203177e+01 1.633856e+01 3.935285e+01 4.293004e+01 1.529682e+01 2.694522e+01 2.627700e+01 1.929581e+01 2.350361e+01 9.381260e-01 1.385317e+00 1.109787e+00 1.742210e+00 3.559492e+00 2.246624e+00 3.003154e+00 1.819273e+00 1.602391e+00 2.286165e+00 1.787047e+00 1.918501e+00 1.433892e+00 9.489486e-02 2.656715e-01 1.901278e-01 3.980216e-01 5.409265e-01 3.357688e-01 5.381542e-01 3.426033e-01 2.882100e-01 3.626212e-01 3.580670e-01 3.011852e-01 2.427397e-01
<GCONST> 1.042393e+02
<TRANSP> 12
 0.000000e+00 1.000000e+00 0.000000e+00 0.000000e+00 0.000000e+00 0.000000e+00 0.000000e+00 0.000000e+00 0.000000e+00 0.000000e+00 0.000000e+00 0.000000e+00
 0.000000e+00 8.414282e-01 1.585718e-01 0.000000e+00 0.000000e+00 0.000000e+00 0.000000e+00 0.000000e+00 0.000000e+00 0.000000e+00 0.000000e+00 0.000000e+00
 0.000000e+00 0.000000e+00 6.589255e-01 3.410746e-01 0.000000e+00 0.000000e+00 0.000000e+00 0.000000e+00 0.000000e+00 0.000000e+00 0.000000e+00 0.000000e+00
 0.000000e+00 0.000000e+00 0.000000e+00 7.745805e-01 2.254195e-01 0.000000e+00 0.000000e+00 0.000000e+00 0.000000e+00 0.000000e+00 0.000000e+00 0.000000e+00
 0.000000e+00 0.000000e+00 0.000000e+00 0.000000e+00 8.320311e-01 1.679689e-01 0.000000e+00 0.000000e+00 0.000000e+00 0.000000e+00 0.000000e+00 0.000000e+00
 0.000000e+00 0.000000e+00 0.000000e+00 0.000000e+00 0.000000e+00 8.844001e-01 1.155999e-01 0.000000e+00 0.000000e+00 0.000000e+00 0.000000e+00 0.000000e+00
 0.000000e+00 0.000000e+00 0.000000e+00 0.000000e+00 0.000000e+00 0.000000e+00 8.464163e-01 1.535837e-01 0.000000e+00 0.000000e+00 0.000000e+00 0.000000e+00
 0.000000e+00 0.000000e+00 0.000000e+00 0.000000e+00 0.000000e+00 0.000000e+00 0.000000e+00 7.901266e-01 2.098734e-01 0.000000e+00 0.000000e+00 0.000000e+00
 0.000000e+00 0.000000e+00 0.000000e+00 0.000000e+00 0.000000e+00 0.000000e+00 0.000000e+00 0.000000e+00 8.190041e-01 1.809959e-01 0.000000e+00 0.000000e+00
 0.000000e+00 0.000000e+00 0.000000e+00 0.000000e+00 0.000000e+00 0.000000e+00 0.000000e+00 0.000000e+00 0.000000e+00 7.931385e-01 2.068615e-01 0.000000e+00
 0.000000e+00 0.000000e+00 0.000000e+00 0.000000e+00 0.000000e+00 0.000000e+00 0.000000e+00 0.000000e+00 0.000000e+00 0.000000e+00 8.443982e-01 1.556018e-01
 0.000000e+00 0.000000e+00 0.000000e+00 0.000000e+00 0.000000e+00 0.000000e+00 0.000000e+00 0.000000e+00 0.000000e+00 0.000000e+00 0.000000e+00 0.000000e+00
<ENDHMM>
~h "left"
<BEGINHMM>
<NUMSTATES> 12
<STATE> 2
<MEAN> 39
 -4.943603e+00 -5.554439e-01 6.922963e-01 3.603449e+00 -2.534764e+00 -5.157789e+00 -6.590008e+00 -1.806322e+00 7.957044e-01 -3.705459e+00 -6.624081e-01 -2.955556e+00 5.963724e+01 9.525852e-01 -5.332658e-01 1.729401e-01 -1.048639e+00 -1.519869e+00 -1.301128e+00 -1.008944e+00 -2.224983e-01 4.615844e-01 -4.932841e-01 -1.951253e-01 -4.881700e-01 2.436866e+00 -2.777649e-01 -2.114783e-01 -5.968935e-02 -2.203779e-01 -1.220467e-01 5.443782e-02 3.658862e-01 3.090014e-01 3.347343e-01 8.992495e-02 6.621529e-02 1.056222e-01 1.436115e-01
<VARIANCE> 39
 4.203920e+01 1.876414e+01 2.352264e+01 2.905749e+01 2.897299e+01 5.131076e+01 3.308666e+01 4.231540e+01 1.647320e+01 2.246000e+01 1.413374e+01 1.422067e+01 4.120463e+01 2.950997e+00 1.979774e+00 9.949333e-01 2.155491e+00 2.638085e+00 3.268194e+00 4.210577e+00 2.604785e+00 3.539248e+00 1.923510e+00 1.285205e+00 1.809316e+00 2.665456e+00 5.375992e-01 3.063180e-01 2.142042e-01 3.916891e-01 5.126700e-01 6.809211e-01 7.288136e-01 4.507000e-01 4.628860e-01 3.281100e-01 2.417974e-01 3.366559e-01 3.517464e-01
<GCONST> 1.132930e+02
<STATE> 3
<MEAN> 39
 -4.423109e+00 -5.260308e+00 -1.169144e+00 -5.798940e+00 -1.149723e+01 -9.621199e+00 -2.762570e+00 -2.260636e-02 9.013155e+00 -7.790439e+00 -2.324086e+00 -5.885444e+00 7.554672e+01 -8.592204e-02 4.064365e-01 -3.702173e-01 1.136560e-01 -1.880631e-01 4.165328e-02 5.446696e-01 -2.227036e-01 -3.210042e-01 -1.029254e-01 -3.431880e-01 -2.073689e-01 2.171498e-01 1.455489e-02 3.201404e-01 1.896961e-01 4.544814e-01 2.597777e-01 3.515574e-02 -4.871396e-02 -3.500366e-01 -5.554134e-01 2.526225e-01 5.760723e-03 -4.356963e-03 -6.217743e-01
<VARIANCE> 39
 4.615426e+01 2.308600e+01 2.618445e+01 3.075961e+01 2.979998e+01 3.538340e+01 1.047137e+02 2.587238e+01 3.949857e+01 1.949297e+01 1.206890e+01 1.503245e+01 1.670174e+01 8.172841e-01 1.684220e+00 1.732256e+00 2.975891e+00 2.798886e+00 1.226567e+00 3.738111e+00 3.381039e+00 4.389699e+00 2.392098e+00 1.238768e+00 1.268323e+00 3.837296e+00 1.558781e-01 1.405773e-01 3.960374e-01 2.776789e-01 4.796427e-01 3.331251e-01 6.948994e-01 4.760111e-01 4.696030e-01 4.210815e-01 2.653084e-01 3.016431e-01 1.612868e-01
<GCONST> 1.098061e+02
<STATE> 4
<MEAN> 39
 -5.307190e+00 2.177430e+00 1.912108e+00 3.879362e+00 -1.051450e+01 -1.074252e+01 -1.645821e+00 -3.760958e+00 -4.091232e+00 -2.184556e+00 -2.435268e+00 -6.541202e+00 6.585571e+01 -2.007698e-01 9.028240e-01 5.293694e-01 6.482721e-01 3.563128e-01 -5.667205e-02 1.965711e-01 -4.817766e-01 -7.679154e-01 4.045635e-01 1.636289e-01 5.171575e-02 -9.466191e-01 -2.936490e-01 1.378424e-02 -2.271709e-01 -2.305637e-01 2.701018e-01 1.048895e-01 4.688803e-02 2.558673e-01 4.032208e-01 -1.633881e-01 7.370425e-02 2.022800e-01 1.528982e-01
<VARIANCE> 39
 2.544900e+01 2.417310e+01 2.975047e+01 2.012426e+01 2.025973e+01 2.034469e+01 3.892817e+01 1.179045e+02 2.543694e+01 1.495004e+01 2.183551e+01 2.161551e+01 9.542397e+00 8.399914e-01 8.481655e-01 2.482101e+00 1.503854e+00 1.926679e+00 1.029935e+00 1.853052e+00 3.466462e+00 3.608797e+00 1.898704e+00 1.409926e+00 1.570085e+00 8.560094e-01 3.584428e-01 1.796043e-01 3.732183e-01 2.376161e-01 4.358748e-01 1.943207e-01 4.447695e-01 5.343350e-01 4.675039e-01 3.263683e-01 2.842208e-01 2.564248e-01 1.489623e-01
<GCONST> 1.039133e+02
<STATE> 5
<MEAN> 39
 -1.609947e+01 8.301911e+00 -3.358860e-02 2.973651e+00 -6.426387e-01 -7.424656e+00 6.279954e-01 -4.923632e+00 -1.788849e+00 -2.583273e+00 2.482825e-01 -2.184940e+00 6.403138e+01 -4.003135e+00 -1.911743e-02 -1.510090e+00 -7.423802e-01 1.859519e+00 8.473843e-01 1.331839e+00 6.244218e-01 1.087536e+00 -2.513772e-02 5.717450e-01 1.087651e+00 7.802554e-01 -2.337447e-02 -3.980818e-01 -8.193295e-02 -1.495198e-01 -3.353751e-01 9.350292e-03 3.683224e-02 1.578466e-02 7.612908e-04 1.172379e-01 -9.299660e-02 -1.895785e-01 2.750023e-01
<VARIANCE> 39
 8.687379e+01 1.375709e+01 2.913525e+01 2.002564e+01 3.488696e+01 3.852131e+01 4.269907e+01 4.316087e+01 2.476862e+01 2.189465e+01 1.907605e+01 2.427410e+01 1.257267e+01 3.573995e+00 2.395431e+00 1.921327e+00 2.347065e+00 5.036038e+00 2.785883e+00 4.522764e+00 3.120717e+00 2.300838e+00 3.014949e+00 2.378195e+00 1.833489e+00 1.096863e+00 1.418162e+00 3.331349e-01 4.063573e-01 3.791032e-01 7.414333e-01 4.879643e-01 7.763914e-01 5.239760e-01 4.223069e-01 5.173849e-01 4.715319e-01 3.316267e-01 2.532407e-01
<GCONST> 1.179772e+02
<STATE> 6
<MEAN> 39
 -2.939922e+01 6.579683e+00 -6.079009e+00 5.306572e-01 1.251225e+00 -4.056180e+00 3.864981e+00 -1.428499e+00 2.399956e+00 -9.085329e-01 8.462940e-01 8.396573e-01 6.768534e+01 8.173099e-02 1.628479e-02 -4.573176e-02 3.364083e-01 -2.447401e-02 6.438043e-01 -1.585030e-01 4.021915e-01 1.616497e-01 1.837597e-01 2.062962e-01 5.537776e-02 -7.243970e-01 4.288390e-01 1.054613e-01 1.584744e-01 1.928298e-01 3.214969e-02 6.946070e-03 -3.438644e-02 2.524530e-02 -4.850313e-02 -3.734482e-04 1.296477e-02 -1.009459e-02 -4.748130e-01
<VARIANCE> 39
 9.568704e+00 1.857990e+01 1.710936e+01 3.490729e+01 1.604380e+01 2.709721e+01 2.304888e+01 2.382148e+01 1.825944e+01 1.654607e+01 1.625248e+01 1.533935e+01 1.905304e+01 1.289906e+00 1.129662e+00 1.073334e+00 1.700425e+00 1.381963e+00 1.276492e+00 1.279148e+00 1.862012e+00 1.488672e+00 1.616875e+00 1.651179e+00 1.322118e+00 2.955634e+00 3.763376e-01 2.146530e-01 2.133206e-01 2.634042e-01 3.438164e-01 2.668570e-01 3.704769e-01 3.519300e-01 3.303492e-01 3.194505e-01 3.412436e-01 2.517363e-01 1.530968e-01
<GCONST> 9.856523e+01
<STATE> 7
<MEAN> 39
 -2.361120e+01 6.806905e+00 -4.324929e+00 4.931558e+00 3.195624e+00 7.593248e-01 5.317091e+00 2.223811e+00 4.814597e+00 1.157246e+00 3.399943e+00 2.184629e+00 5.319153e+01 7.891398e-01 -6.227753e-01 2.680181e-01 -4.182903e-01 -1.565944e-01 -1.808180e-01 1.192587e-02 1.711505e-01 1.989011e-01 2.042748e-01 -2.637217e-02 2.319162e-01 -5.477372e-01 -1.386170e-01 -3.424630e-01 -4.728799e-02 -4.567187e-01 -4.446067e-01 -3.387648e-01 -4.515611e-01 -1.862759e-01 -1.329743e-01 -2.356763e-01 -1.267068e-01 -1.175480e-01 1.247332e+00
<VARIANCE> 39
 1.548060e+01 1.919977e+01 7.033819e+00 1.096195e+01 1.371630e+01 1.508509e+01 1.712283e+01 1.563492e+01 1.678172e+01 1.239092e+01 1.623068e+01 1.451729e+01 1.595374e+01 1.214055e+00 1.653107e+00 7.919469e-01 2.196830e+00 2.122157e+00 1.052350e+00 2.086298e+00 1.352930e+00 1.721728e+00 1.566627e+00 1.293044e+00 1.359154e+00 8.165913e+00 2.127835e-01 2.572135e-01 1.461008e-01 3.392115e-01 3.104686e-01 2.478475e-01 4.016602e-01 3.076808e-01 3.632476e-01 3.585695e-01 2.871363e-01 2.940921e-01 5.960844e-01
<GCONST> 9.736311e+01
<STATE> 8
<MEAN> 39
 -2.044540e+01 4.287651e-01 -2.095841e+00 -8.179879e-01 -1.186663e+00 -2.215276e+00 -9.268038e-01 1.033871e+00 3.803776e+00 -2.839787e-01 1.491360e+00 4.743737e-01 6.312506e+01 2.415159e+00 -1.050505e+00 5.926475e-01 -8.022707e-01 -1.591157e+00 -1.485662e+00 -2.220052e+00 -1.339987e+00 -5.987513e-03 -6.851972e-01 -9.641801e-01 -9.005370e-01 2.577552e+00 7.041174e-01 5.776632e-02 4.971359e-02 1.203937e-01 -2.988777e-01 -3.345782e-01 -3.253288e-01 -3.954388e-01 1.828200e-01 9.782505e-03 -1.829876e-01 -1.473995e-01 -7.398304e-02
<VARIANCE> 39
 3.868060e+01 1.749832e+01 4.303750e+01 2.601579e+01 4.425840e+01 2.730362e+01 2.955584e+01 2.063130e+01 2.634407e+01 2.018453e+01 2.846453e+01 2.469719e+01 1.722522e+01 3.590922e+00 2.580895e+00 3.471277e+00 3.509583e+00 4.925016e+00 5.186103e+00 4.296430e+00 3.037285e+00 2.645502e+00 3.011134e+00 2.291258e+00 1.988673e+00 5.395645e+00 4.299033e-01 4.609783e-01 8.991892e-01 7.520354e-01 8.153151e-01 8.233879e-01 6.522186e-01 4.939851e-01 4.598310e-01 5.206311e-01 3.591202e-01 4.035439e-01 8.739506e-01
<GCONST> 1.231796e+02
<STATE> 9
<MEAN> 39
 -8.091071e+00 -5.331820e+00 -1.551051e-01 -3.460204e+00 -1.272871e+01 -1.265025e+01 -1.129813e+01 -4.320206e+00 3.331007e+00 -3.658083e+00 -3.020378e+00 -1.529262e+00 7.279990e+01 1.642854e+00 -1.360043e+00 1.836434e-01 -3.389462e-02 -2.118630e+00 -5.024507e-01 -8.621222e-01 6.893926e-02 2.381206e-01 -1.140850e-01 -1.727457e-01 -3.244170e-01 9.928928e-01 -5.618174e-01 1.402743e-01 -1.556627e-01 2.249296e-01 3.788933e-01 5.414888e-01 6.178100e-01 4.933210e-01 -1.340633e-02 5.759535e-02 1.167125e-01 1.137601e-01 -5.019785e-01
<VARIANCE> 39
 2.350442e+01 3.838809e+01 3.369420e+01 3.715780e+01 6.085539e+01 6.544862e+01 7.619177e+01 4.255808e+01 4.114416e+01 2.881542e+01 2.669085e+01 2.981152e+01 2.103516e+01 2.255562e+00 1.899359e+00 4.122453e+00 2.578023e+00 4.497711e+00 5.258556e+00 6.668280e+00 3.607355e+00 3.738732e+00 1.913275e+00 2.187342e+00 2.157042e+00 3.397866e+00 3.232663e-01 4.394225e-01 6.303851e-01 3.600566e-01 1.319256e+00 7.655908e-01 1.325499e+00 6.849802e-01 6.330975e-01 4.964154e-01 5.663194e-01 4.253668e-01 9.001037e-01
<GCONST> 1.274890e+02
<STATE> 10
<MEAN> 39
 -2.609243e+00 -7.872464e+00 -2.673326e+00 -3.135535e+00 -1.319437e+01 -7.094862e+00 -8.209139e+00 -2.483717e-01 5.784833e+00 -4.191533e+00 -4.020879e+00 -5.894336e+00 7.133495e+01 -2.994826e-01 4.474881e-01 -8.541849e-02 4.185671e-01 1.257938e+00 5.989239e-01 8.937017e-01 6.411790e-01 -2.856625e-01 -3.140531e-01 -2.815259e-01 1.203462e-01 -1.269650e+00 -2.416325e-01 1.917132e-01 1.492984e-01 1.530059e-01 4.442745e-01 1.084395e-01 1.942774e-01 -2.896563e-02 -4.764045e-02 1.311869e-01 1.296253e-01 1.973886e-01 -3.851528e-01
<VARIANCE> 39
 2.597199e+01 2.119850e+01 1.561230e+01 4.878328e+01 6.138481e+01 3.345572e+01 6.240540e+01 4.468187e+01 3.935080e+01 2.320997e+01 1.508807e+01 4.007614e+01 2.929934e+01 7.444323e-01 1.797554e+00 1.247992e+00 2.010562e+00 3.046974e+00 1.854287e+00 2.180439e+00 2.360126e+00 1.803098e+00 2.499621e+00 1.965289e+00 1.902720e+00 2.324367e+00 1.451373e-01 2.550092e-01 2.366285e-01 3.454273e-01 4.416427e-01 3.131069e-01 3.579345e-01 4.884761e-01 4.014301e-01 4.559270e-01 3.676254e-01 4.168068e-01 1.170291e-01
<GCONST> 1.097903e+02
<STATE> 11
<MEAN> 39
 -1.161920e+01 -2.271970e+00 1.451666e-01 3.063441e+00 3.024266e-01 -1.714730e+00 2.310548e-01 3.472768e+00 3.076370e+00 -1.170546e+00 -1.514263e+00 7.770268e-01 5.513528e+01 -9.270945e-01 2.560114e-01 2.710379e-01 1.593199e-01 9.661408e-01 4.276558e-01 6.861933e-01 1.040948e-01 8.577371e-02 8.447429e-01 7.091857e-01 5.010921e-01 -1.576186e+00 1.275217e-01 -1.063372e-01 -7.923272e-02 -1.716569e-01 -3.473789e-01 -1.361169e-01 -2.155940e-01 -7.683812e-02 1.591501e-02 -4.563254e-02 -7.745828e-03 -1.516510e-01 3.020014e-01
<VARIANCE> 39
 2.042492e+01 1.578088e+01 1.622067e+01 2.353951e+01 2.774023e+01 2.048507e+01 4.540974e+01 3.314871e+01 1.856164e+01 3.341018e+01 2.148742e+01 2.348563e+01 3.314272e+01 1.384708e+00 1.193144e+00 1.040014e+00 1.795179e+00 4.296469e+00 2.357344e+00 3.997277e+00 2.667838e+00 2.653227e+00 2.717761e+00 1.823667e+00 2.832513e+00 1.722764e+00 2.177172e-01 2.352568e-01 1.867086e-01 3.369684e-01 4.887660e-01 3.834080e-01 6.357027e-01 5.234493e-01 4.302972e-01 5.517203e-01 4.028070e-01 4.596289e-01 1.692695e-01
<GCONST> 1.097685e+02
<TRANSP> 12
 0.000000e+00 1.000000e+00 0.000000e+00 0.000000e+00 0.000000e+00 0.000000e+00 0.000000e+00 0.000000e+00 0.000000e+00 0.000000e+00 0.000000e+00 0.000000e+00
 0.000000e+00 8.527936e-01 1.472064e-01 0.000000e+00 0.000000e+00 0.000000e+00 0.000000e+00 0.000000e+00 0.000000e+00 0.000000e+00 0.000000e+00 0.000000e+00
 0.000000e+00 0.000000e+00 8.690050e-01 1.309950e-01 0.000000e+00 0.000000e+00 0.000000e+00 0.000000e+00 0.000000e+00 0.000000e+00 0.000000e+00 0.000000e+00
 0.000000e+00 0.000000e+00 0.000000e+00 8.798265e-01 1.201735e-01 0.000000e+00 0.000000e+00 0.000000e+00 0.000000e+00 0.000000e+00 0.000000e+00 0.000000e+00
 0.000000e+00 0.000000e+00 0.000000e+00 0.000000e+00 8.084110e-01 1.915890e-01 0.000000e+00 0.000000e+00 0.000000e+00 0.000000e+00 0.000000e+00 0.000000e+00
 0.000000e+00 0.000000e+00 0.000000e+00 0.000000e+00 0.000000e+00 8.897646e-01 1.102354e-01 0.000000e+00 0.000000e+00 0.000000e+00 0.000000e+00 0.000000e+00
 0.000000e+00 0.000000e+00 0.000000e+00 0.000000e+00 0.000000e+00 0.000000e+00 8.018036e-01 1.981964e-01 0.000000e+00 0.000000e+00 0.000000e+00 0.000000e+00
 0.000000e+00 0.000000e+00 0.000000e+00 0.000000e+00 0.000000e+00 0.000000e+00 0.000000e+00 7.603995e-01 2.396005e-01 0.000000e+00 0.000000e+00 0.000000e+00
 0.000000e+00 0.000000e+00 0.000000e+00 0.000000e+00 0.000000e+00 0.000000e+00 0.000000e+00 0.000000e+00 8.141309e-01 1.858691e-01 0.000000e+00 0.000000e+00
 0.000000e+00 0.000000e+00 0.000000e+00 0.000000e+00 0.000000e+00 0.000000e+00 0.000000e+00 0.000000e+00 0.000000e+00 8.789416e-01 1.210584e-01 0.000000e+00
 0.000000e+00 0.000000e+00 0.000000e+00 0.000000e+00 0.000000e+00 0.000000e+00 0.000000e+00 0.000000e+00 0.000000e+00 0.000000e+00 8.721397e-01 1.278603e-01
 0.000000e+00 0.000000e+00 0.000000e+00 0.000000e+00 0.000000e+00 0.000000e+00 0.000000e+00 0.000000e+00 0.000000e+00 0.000000e+00 0.000000e+00 0.000000e+00
<ENDHMM>
~h "down"
<BEGINHMM>
<NUMSTATES> 12
<STATE> 2
<MEAN> 39
 -1.374337e+01 1.983619e+00 3.511536e+00 7.162810e+00 -1.322987e+00 -8.766702e-01 4.409514e+00 1.563604e-01 -4.122567e-01 4.422564e-01 1.048778e+00 -2.358995e+00 5.187794e+01 1.895392e+00 7.556500e-01 8.666124e-01 6.569103e-01 -1.533534e+00 -1.369749e+00 -5.213712e-01 -1.791376e+00 -1.556786e+00 -7.941112e-01 -8.783643e-01 -1.124200e+00 1.858330e+00 4.020115e-01 -7.217524e-02 -6.738611e-02 -2.963939e-01 -4.790482e-01 -3.756246e-01 -2.602979e-01 -2.384644e-01 -2.965362e-01 -3.912841e-02 -1.333300e-01 1.600342e-02 3.440221e-01
<VARIANCE> 39
 3.084866e+01 1.418093e+01 1.390086e+01 2.485772e+01 3.195038e+01 2.657347e+01 3.744868e+01 3.280762e+01 2.241151e+01 1.594229e+01 2.744091e+01 1.799145e+01 2.072091e+01 3.638290e+00 1.811096e+00 1.301665e+00 1.805735e+00 3.493319e+00 2.330340e+00 2.203106e+00 3.738462e+00 2.552782e+00 1.748735e+00 2.628639e+00 1.908549e+00 2.169310e+00 4.910493e-01 3.469937e-01 2.972598e-01 3.032729e-01 5.030397e-01 3.717571e-01 3.803724e-01 4.858742e-01 4.395714e-01 3.397237e-01 4.289650e-01 3.602252e-01 3.378894e-01
<GCONST> 1.110065e+02
<STATE> 3
<MEAN> 39
 -2.818017e+00 1.976989e+00 5.641564e+00 7.703228e+00 -1.046567e+01 -1.031850e+01 1.721794e+00 -1.075646e+01 -6.289239e+00 -9.035091e-01 -2.730247e+00 -6.567501e+00 6.240651e+01 2.380866e-01 -6.162731e-02 -4.966787e-01 -6.153260e-01 -7.286888e-01 -6.823195e-01 -4.636594e-01 4.303331e-02 -2.095830e-01 -4.555029e-01 -6.959531e-02 1.583891e-01 1.558152e+00 -4.828519e-01 -8.292907e-02 -3.016312e-01 -3.245979e-01 3.358445e-01 2.968024e-01 -5.652119e-02 7.349317e-01 4.288266e-01 -1.795330e-01 2.930622e-01 2.869124e-01 -2.840700e-02
<VARIANCE> 39
 2.521704e+01 1.318626e+01 6.345520e+00 3.800971e+01 2.705268e+01 1.685457e+01 2.161111e+01 7.015155e+01 2.073836e+01 1.237527e+01 5.641531e+01 3.693800e+01 1.361683e+01 1.690774e+00 9.917482e-01 1.185239e+00 2.174266e+00 2.672694e+00 1.878430e+00 1.721363e+00 5.542256e+00 2.188057e+00 1.820847e+00 2.025232e+00 1.662043e+00 1.645421e+00 1.896049e-01 2.035306e-01 1.767249e-01 3.054831e-01 3.667578e-01 2.639984e-01 3.751330e-01 5.550254e-01 3.183680e-01 3.695060e-01 3.585577e-01 2.847802e-01 2.771436e-01
<GCONST> 1.048604e+02
<STATE> 4
<MEAN> 39
 -7.708881e+00 5.954213e-01 -3.505918e-01 -2.038055e+00 -1.278968e+01 -1.044811e+01 -2.717223e+00 7.586120e-01 -2.474877e+00 -8.054497e+00 -2.871600e-01 -1.067410e+00 7.263788e+01 -4.171424e-01 -1.192412e+00 -9.953555e-03 -2.044183e+00 -1.248908e+00 4.255460e-01 3.045750e-01 1.492309e+00 7.743831e-01 -8.228761e-01 8.664762e-01 6.891730e-01 1.890511e+00 1.671185e-01 -1.940978e-01 6.105223e-01 2.266074e-01 -2.657198e-01 1.978742e-01 5.264891e-01 -7.317299e-01 -2.639909e-01 5.289810e-01 -1.783018e-01 -3.361262e-01 -3.754325e-01
<VARIANCE> 39
 3.183963e+01 2.228838e+01 1.411776e+01 4.104200e+01 2.884607e+01 1.526865e+01 3.905953e+01 3.428462e+01 4.683842e+01 2.640814e+01 1.442221e+01 1.874626e+01 2.298090e+01 9.073402e-01 1.050309e+00 2.636759e+00 1.656274e+00 2.365774e+00 1.425982e+00 4.174445e+00 5.761636e+00 2.565036e+00 3.275372e+00 2.695381e+00 2.798456e+00 1.098649e+00 1.150077e-01 2.186926e-01 2.206766e-01 3.627269e-01 4.306162e-01 2.310878e-01 4.432164e-01 6.441644e-01 3.888972e-01 3.766306e-01 3.478618e-01 3.124586e-01 1.141392e-01
<GCONST> 1.077321e+02
<STATE> 5
<MEAN> 39
 -6.779640e+00 -6.019741e+00 5.182286e+00 -7.308980e+00 -1.940155e+01 -7.444011e+00 5.123947e+00 -1.597955e+00 -8.121208e-02 -7.306415e+00 1.253073e+00 -1.453887e+00 7.735307e+01 -1.474752e-02 -5.466411e-01 1.190928e-01 -2.713979e-01 -1.483018e-01 8.312345e-02 9.564578e-02 1.687008e-01 1.886289e-01 -1.399657e-01 -1.844531e-02 -2.140336e-01 1.799133e-01 3.890174e-02 8.172276e-02 -1.459680e-01 1.277222e-01 2.246013e-01 -1.050877e-01 -1.704803e-01 1.028586e-01 3.866837e-02 -1.035734e-01 -3.120346e-02 2.537823e-02 -1.188765e-01
<VARIANCE> 39
 5.455922e+01 1.611464e+01 1.656560e+01 2.715705e+01 2.683687e+01 2.453650e+01 6.595762e+01 4.871555e+01 4.156769e+01 2.253105e+01 8.705407e+00 1.260596e+01 1.674603e+01 2.422075e-01 4.117798e-01 6.181498e-01 5.256138e-01 1.015209e+00 7.039861e-01 9.196761e-01 9.359274e-01 8.033167e-01 8.140209e-01 5.483528e-01 3.830455e-01 1.832297e-01 4.810253e-02 9.297448e-02 9.051854e-02 7.959834e-02 1.028776e-01 1.100292e-01 1.728996e-01 1.621700e-01 1.260692e-01 1.351786e-01 9.569276e-02 7.772642e-02 2.793154e-02
<GCONST> 7.494167e+01
<STATE> 6
<MEAN> 39
 -7.389337e+00 -8.549636e+00 1.982970e+00 -8.435930e+00 -1.521710e+01 -8.710078e+00 -1.337675e+00 4.512538e+00 9.188568e-01 -1.097795e+01 1.064233e-01 -2.966454e+00 7.636990e+01 2.485789e-01 1.911757e-01 -7.481380e-01 5.413967e-01 1.376559e+00 -2.597669e-01 -1.337859e+00 2.909485e-01 8.512949e-01 -3.788832e-01 -4.647793e-01 -1.290054e-01 -7.153488e-01 -7.231606e-02 3.919993e-01 -3.993942e-02 3.250837e-01 2.067326e-01 1.506347e-01 -2.535579e-01 -3.775085e-01 1.597776e-01 2.686985e-01 -1.579883e-01 -2.964555e-02 -3.520695e-01
<VARIANCE> 39
 2.668954e+01 1.831212e+01 2.408126e+01 4.133126e+01 2.811054e+01 1.971932e+01 9.148913e+01 2.877719e+01 3.498520e+01 4.113248e+01 1.581992e+01 1.787053e+01 1.742791e+01 4.593532e-01 9.134843e-01 1.043919e+00 8.451061e-01 1.122840e+00 1.189062e+00 1.171592e+00 1.716174e+00 1.547801e+00 1.157457e+00 1.144840e+00 8.265879e-01 3.916704e-01 4.759061e-02 9.544791e-02 1.164409e-01 1.438392e-01 1.711573e-01 1.883895e-01 2.471041e-01 2.493639e-01 1.892654e-01 2.068028e-01 2.000118e-01 1.189826e-01 8.957823e-02
<GCONST> 8.922781e+01
<STATE> 7
<MEAN> 39
 -7.137607e+00 -3.543752e+00 -2.234482e+00 -4.813113e+00 -1.154960e+01 -9.404956e+00 -9.826491e+00 1.425374e+00 6.317464e+00 -9.607760e+00 -2.237019e+00 -5.398716e+00 7.207296e+01 -2.097925e-01 1.815689e+00 5.040842e-01 2.252926e+00 2.273077e+00 6.040007e-01 -1.043038e+00 -1.765517e+00 -2.601646e-01 7.226569e-01 -6.787794e-01 -2.599897e-01 -3.179878e+00 -2.978590e-01 -9.895515e-02 6.765100e-01 3.722438e-01 4.136332e-01 5.667469e-01 8.460313e-01 -7.872926e-02 -6.188380e-01 6.142882e-02 1.198844e-01 2.151200e-01 -7.973815e-01
<VARIANCE> 39
 1.597413e+01 3.945175e+01 5.087885e+01 2.370393e+01 2.249065e+01 2.212441e+01 1.405789e+02 4.856415e+01 6.825693e+01 3.995110e+01 1.997749e+01 2.679392e+01 2.794804e+01 7.396264e-01 8.212479e-01 3.586339e+00 1.585773e+00 1.644338e+00 1.521959e+00 4.647588e+00 3.183224e+00 4.630212e+00 2.424323e+00 1.308548e+00 1.425007e+00 3.023754e+00 1.057130e-01 3.220229e-01 4.799911e-01 2.234202e-01 2.924956e-01 2.990742e-01 6.552451e-01 5.622123e-01 9.030397e-01 4.841888e-01 2.437378e-01 2.542485e-01 2.594140e-01
<GCONST> 1.127743e+02
<STATE> 8
<MEAN> 39
 -9.277649e+00 2.048401e+00 3.551293e+00 4.123561e+00 -1.433446e+00 -4.655886e+00 -9.171495e+00 -6.041368e+00 -6.067966e-01 -8.563630e+00 -4.750712e+00 -5.566191e+00 5.695729e+01 -9.652694e-01 4.517270e-02 2.079122e-01 7.306564e-01 1.355519e+00 1.199770e+00 1.182407e+00 1.444759e-01 -6.083680e-01 7.200757e-01 1.993211e-02 6.121902e-01 -1.500528e+00 -2.389973e-01 -2.775234e-01 -5.851486e-01 -5.397491e-01 -4.305879e-01 -4.607654e-02 1.554025e-02 4.046151e-01 4.400620e-01 2.468195e-01 2.209678e-01 1.886562e-01 7.372428e-01
<VARIANCE> 39
 1.439403e+01 2.349746e+01 1.205398e+01 1.908525e+01 1.830782e+01 2.148129e+01 5.259041e+01 4.107973e+01 2.365839e+01 1.814799e+01 1.570661e+01 1.802068e+01 2.846760e+01 1.832485e+00 1.165753e+00 3.809522e+00 2.602659e+00 3.303576e+00 2.086246e+00 3.808232e+00 1.728230e+00 4.292386e+00 1.602402e+00 1.528619e+00 1.384931e+00 6.149326e+00 2.342686e-01 2.355018e-01 3.959731e-01 2.724869e-01 2.351087e-01 2.526409e-01 5.578259e-01 2.792355e-01 4.482437e-01 3.133696e-01 3.593025e-01 2.226030e-01 3.972065e-01
<GCONST> 1.077920e+02
<STATE> 9
<MEAN> 39
 -1.627432e+01 8.829387e-02 -3.546890e+00 -1.585326e+00 -2.676305e+00 -4.102082e+00 -4.515811e+00 6.317158e-01 7.334641e-02 -3.329410e+00 -1.726549e+00 -8.274368e-01 6.226900e+01 -4.145083e-02 -1.634555e-01 -4.419062e-01 -6.943867e-02 4.513859e-01 2.061972e-01 2.929830e-01 2.528333e-01 7.542588e-01 5.092698e-01 2.031189e-01 4.255611e-01 -1.639999e-01 2.915200e-01 -5.280166e-02 2.357390e-01 7.683648e-02 8.203112e-02 -2.256065e-02 -5.700135e-02 -7.787279e-02 3.800659e-02 -2.313112e-02 -6.105302e-02 -1.098122e-01 -2.431965e-01
<VARIANCE> 39
 2.836233e+01 3.130305e+01 2.466454e+01 2.578662e+01 1.677597e+01 1.590949e+01 3.126085e+01 4.366604e+01 1.972514e+01 1.911260e+01 1.580365e+01 1.703490e+01 3.606993e+01 2.783800e+00 1.063566e+00 2.473423e+00 2.461856e+00 2.804154e+00 2.420422e+00 2.989991e+00 2.212307e+00 2.548751e+00 2.475262e+00 1.835378e+00 1.559056e+00 4.666751e+00 4.704087e-01 2.509274e-01 3.713548e-01 4.809934e-01 5.313954e-01 3.920753e-01 7.321293e-01 5.214296e-01 4.025549e-01 4.256326e-01 3.232419e-01 2.602419e-01 5.345576e-01
<GCONST> 1.127136e+02
<STATE> 10
<MEAN> 39
 -1.195050e+01 -4.131424e+00 -4.310831e-01 1.893202e+00 4.172488e+00 -8.335901e-02 -2.497433e+00 4.845202e-01 6.238193e+00 8.530796e-01 -1.249835e+00 3.926822e-01 5.883547e+01 -3.092263e-01 -1.488312e-01 -2.916964e-01 -2.798743e-01 2.521828e-01 5.261791e-01 3.228437e-01 2.308887e-01 -1.913542e-01 1.077899e+00 6.779425e-01 3.735996e-02 -1.479301e+00 5.620850e-02 1.153906e-01 -5.622798e-02 -2.128354e-01 -3.788388e-01 -2.731138e-01 4.962258e-02 -7.559413e-02 -3.419237e-01 -2.325316e-01 1.652641e-01 2.877819e-02 1.997042e-01
<VARIANCE> 39
 1.543058e+01 4.308475e+01 1.770284e+01 1.450421e+01 1.608204e+01 1.548284e+01 3.021238e+01 3.275779e+01 2.870049e+01 3.544016e+01 2.740636e+01 2.880194e+01 2.461270e+01 9.539344e-01 1.671391e+00 1.119787e+00 1.927057e+00 1.751574e+00 2.166185e+00 3.543893e+00 2.813713e+00 3.585711e+00 2.525748e+00 2.354851e+00 1.907319e+00 8.833427e-01 1.550316e-01 2.382973e-01 2.188240e-01 3.861246e-01 3.542437e-01 4.439830e-01 4.879614e-01 4.689675e-01 5.028138e-01 4.052965e-01 4.380384e-01 4.316733e-01 1.763583e-01
<GCONST> 1.073041e+02
<STATE> 11
<MEAN> 39
 -1.475536e+01 3.861556e-01 1.520318e+00 2.773370e+00 1.489153e+00 1.588668e+00 3.780110e+00 5.318847e+00 3.129424e+00 2.586982e+00 4.018060e+00 2.883570e+00 4.824350e+01 -3.419973e-02 1.337253e-01 -5.967275e-02 -1.486259e-01 2.401499e-02 1.547564e-01 3.798920e-02 -1.665199e-01 2.380275e-02 6.527895e-02 8.625798e-02 1.975761e-01 -2.763750e-01 1.915354e-02 2.490805e-02 2.780847e-02 1.548722e-02 -1.742996e-02 -6.932820e-02 -7.362338e-02 -3.377991e-02 -3.897339e-02 -4.109254e-02 -8.018875e-02 -3.528639e-02 1.161456e-01
<VARIANCE> 39
 5.766768e+00 1.121257e+01 1.116901e+01 1.607999e+01 1.382844e+01 1.953940e+01 1.621000e+01 2.272857e+01 1.637861e+01 1.719370e+01 1.975429e+01 1.395839e+01 1.909428e+01 3.081234e-01 4.258938e-01 6.658203e-01 1.331666e+00 1.650176e+00 2.270808e+00 1.353015e+00 1.526808e+00 1.667230e+00 1.151293e+00 1.259265e+00 1.570078e+00 1.723858e+00 7.374796e-02 8.088588e-02 1.392407e-01 2.801476e-01 3.418477e-01 4.973177e-01 2.746425e-01 3.186017e-01 3.458137e-01 2.219447e-01 2.720549e-01 3.103966e-01 3.883365e-01
<GCONST> 8.996998e+01
<TRANSP> 12
 0.000000e+00 1.000000e+00 0.000000e+00 0.000000e+00 0.000000e+00 0.000000e+00 0.000000e+00 0.000000e+00 0.000000e+00 0.000000e+00 0.000000e+00 0.000000e+00
 0.000000e+00 6.661683e-01 3.338318e-01 0.000000e+00 0.000000e+00 0.000000e+00 0.000000e+00 0.000000e+00 0.000000e+00 0.000000e+00 0.000000e+00 0.000000e+00
 0.000000e+00 0.000000e+00 8.538823e-01 1.461177e-01 0.000000e+00 0.000000e+00 0.000000e+00 0.000000e+00 0.000000e+00 0.000000e+00 0.000000e+00 0.000000e+00
 0.000000e+00 0.000000e+00 0.000000e+00 7.616874e-01 2.383126e-01 0.000000e+00 0.000000e+00 0.000000e+00 0.000000e+00 0.000000e+00 0.000000e+00 0.000000e+00
 0.000000e+00 0.000000e+00 0.000000e+00 0.000000e+00 9.016706e-01 9.832942e-02 0.000000e+00 0.000000e+00 0.000000e+00 0.000000e+00 0.000000e+00 0.000000e+00
 0.000000e+00 0.000000e+00 0.000000e+00 0.000000e+00 0.000000e+00 7.326298e-01 2.673702e-01 0.000000e+00 0.000000e+00 0.000000e+00 0.000000e+00 0.000000e+00
 0.000000e+00 0.000000e+00 0.000000e+00 0.000000e+00 0.000000e+00 0.000000e+00 6.208670e-01 3.791330e-01 0.000000e+00 0.000000e+00 0.000000e+00 0.000000e+00
 0.000000e+00 0.000000e+00 0.000000e+00 0.000000e+00 0.000000e+00 0.000000e+00 0.000000e+00 7.276791e-01 2.723209e-01 0.000000e+00 0.000000e+00 0.000000e+00
 0.000000e+00 0.000000e+00 0.000000e+00 0.000000e+00 0.000000e+00 0.000000e+00 0.000000e+00 0.000000e+00 7.622942e-01 2.377058e-01 0.000000e+00 0.000000e+00
 0.000000e+00 0.000000e+00 0.000000e+00 0.000000e+00 0.000000e+00 0.000000e+00 0.000000e+00 0.000000e+00 0.000000e+00 7.557573e-01 2.442427e-01 0.000000e+00
 0.000000e+00 0.000000e+00 0.000000e+00 0.000000e+00 0.000000e+00 0.000000e+00 0.000000e+00 0.000000e+00 0.000000e+00 0.000000e+00 8.300360e-01 1.699640e-01
 0.000000e+00 0.000000e+00 0.000000e+00 0.000000e+00 0.000000e+00 0.000000e+00 0.000000e+00 0.000000e+00 0.000000e+00 0.000000e+00 0.000000e+00 0.000000e+00
<ENDHMM>
~h "sil"
<BEGINHMM>
<NUMSTATES> 5
<STATE> 2
<MEAN> 39
 -1.404593e+01 -3.474692e+00 -6.983939e-01 6.867424e-01 1.395756e+00 -1.333122e+00 1.024965e+00 5.712691e-01 1.323284e+00 2.035491e-01 1.387732e+00 3.906227e-01 5.163537e+01 -4.203748e-02 8.643954e-02 2.192858e-02 5.313952e-02 3.552481e-02 5.890507e-02 7.462335e-02 1.039928e-02 -3.242258e-02 7.682964e-03 3.616782e-02 1.938394e-02 -1.069748e-01 7.677501e-03 -4.795962e-03 -4.053427e-03 -3.794316e-03 -3.542157e-03 9.550165e-04 -5.381605e-03 9.585856e-03 1.092042e-02 -5.302781e-03 -7.759218e-03 -4.420587e-03 1.888654e-02
<VARIANCE> 39
 1.055871e+01 1.754920e+01 1.103163e+01 1.502867e+01 1.467397e+01 1.499202e+01 2.025061e+01 2.338652e+01 1.873030e+01 1.913462e+01 1.741419e+01 1.564586e+01 1.119066e+01 2.674505e-01 4.460071e-01 6.413538e-01 8.234764e-01 1.029599e+00 1.204855e+00 1.479248e+00 1.596348e+00 1.483211e+00 1.545986e+00 1.469450e+00 1.305318e+00 3.178660e-01 5.087412e-02 7.888351e-02 1.270699e-01 1.688894e-01 2.101615e-01 2.394741e-01 3.017005e-01 3.230495e-01 3.050279e-01 3.093632e-01 3.041177e-01 2.633375e-01 5.965554e-02
<GCONST> 8.373167e+01
<STATE> 3
<MEAN> 39
 -1.578411e+01 1.709451e+00 1.536994e+00 2.581862e+00 2.981328e+00 2.628457e+00 3.597008e+00 4.037732e+00 3.388860e+00 3.557485e+00 3.665469e+00 2.432123e+00 4.644641e+01 -8.238380e-03 9.078798e-03 2.043471e-03 4.924438e-03 4.138005e-03 1.801758e-02 1.125782e-02 2.606154e-02 1.004753e-02 6.838019e-03 1.433476e-03 -1.906781e-02 -1.881271e-02 1.816159e-03 -6.170065e-03 -3.554963e-03 -1.236418e-03 -1.082028e-02 -8.471413e-03 -5.958502e-03 -5.828642e-04 -2.821376e-03 -7.169384e-03 -5.273054e-03 -3.537698e-03 1.265500e-02
<VARIANCE> 39
 4.295569e+00 6.030376e+00 5.098001e+00 6.294951e+00 8.557714e+00 1.101712e+01 1.115422e+01 1.319809e+01 1.437207e+01 1.305269e+01 1.201782e+01 1.110334e+01 2.975588e+00 1.436253e-01 2.580279e-01 3.885601e-01 5.586474e-01 7.337372e-01 9.144221e-01 1.061278e+00 1.185122e+00 1.259365e+00 1.275783e+00 1.192201e+00 1.134777e+00 8.795726e-02 2.895308e-02 5.197046e-02 7.958813e-02 1.153350e-01 1.502562e-01 1.913487e-01 2.203856e-01 2.433092e-01 2.596766e-01 2.635717e-01 2.443063e-01 2.369682e-01 1.827869e-02
<GCONST> 6.531194e+01
<STATE> 4
<MEAN> 39
 -1.641976e+01 -1.866168e-01 8.172355e-01 2.051386e+00 2.409516e+00 1.348625e+00 2.918424e+00 3.958655e+00 3.374593e+00 2.419783e+00 3.310681e+00 2.217128e+00 4.946604e+01 1.637273e-01 -2.987499e-02 -1.758037e-03 -4.518155e-02 -2.790552e-01 -1.503694e-01 -5.702641e-02 -7.867078e-02 -9.363893e-02 -1.797032e-01 -1.447531e-01 -8.731329e-02 3.121066e-01 8.719580e-02 9.181501e-03 5.213567e-03 -6.239536e-02 -1.066116e-01 -4.753051e-02 -3.283152e-02 -6.543466e-02 -3.876844e-02 -5.657473e-02 -2.123343e-02 -3.409388e-02 1.188295e-01
<VARIANCE> 39
 1.632584e+01 2.065026e+01 1.494006e+01 1.756946e+01 1.800422e+01 1.896394e+01 2.032870e+01 2.014851e+01 1.883576e+01 1.889648e+01 1.852226e+01 1.496168e+01 2.818492e+01 1.513311e+00 1.462168e+00 1.322561e+00 1.911731e+00 2.063913e+00 1.915084e+00 2.096094e+00 2.190020e+00 2.105362e+00 1.862303e+00 1.914179e+00 1.595578e+00 2.557255e+00 2.785347e-01 2.681194e-01 2.440339e-01 3.701729e-01 3.801405e-01 3.449067e-01 4.089029e-01 4.245407e-01 4.269637e-01 3.541186e-01 3.804266e-01 3.168941e-01 4.480995e-01
<GCONST> 1.042070e+02
<TRANSP> 5
 0.000000e+00 7.000000e-01 3.000000e-01 0.000000e+00 0.000000e+00
 0.000000e+00 7.682326e-01 3.176742e-02 2.000000e-01 0.000000e+00
 0.000000e+00 0.000000e+00 9.715214e-01 2.847856e-02 0.000000e+00
 0.000000e+00 2.000000e-01 0.000000e+00 7.381412e-01 6.185884e-02
 0.000000e+00 0.000000e+00 0.000000e+00 0.000000e+00 0.000000e+00
<ENDHMM>
