~o
<STREAMINFO> 1 39
<VECSIZE> 39<NULLD><MFCC_D_A_0><DIAGC>
~h "down"
<BEGINHMM>
<NUMSTATES> 6
<STATE> 2
<MEAN> 39
 -6.418797e+00 1.671401e+00 3.531039e+00 4.984640e+00 -9.099247e+00 -8.343781e+00 1.293886e+00 -5.232428e+00 -3.799403e+00 -2.705145e+00 -1.174800e+00 -4.113894e+00 6.291961e+01 4.070845e-01 -1.948570e-01 -1.050012e-01 -7.382395e-01 -1.058716e+00 -5.296628e-01 -2.667366e-01 7.744478e-02 -2.013132e-01 -6.687965e-01 4.613738e-02 4.525447e-02 1.739067e+00 -1.029086e-01 -1.251376e-01 1.623127e-02 -1.707429e-01 -2.181829e-02 1.301943e-01 6.406647e-02 1.106796e-01 7.327505e-02 5.289041e-02 6.543489e-02 5.768566e-02 -4.037531e-02
<VARIANCE> 39
 4.773693e+01 1.629603e+01 1.712755e+01 4.997694e+01 4.682827e+01 3.395621e+01 3.669550e+01 8.130419e+01 3.447986e+01 2.968933e+01 4.106009e+01 3.370316e+01 6.915965e+01 2.626583e+00 1.703866e+00 1.881261e+00 2.894519e+00 2.925478e+00 2.271991e+00 2.699749e+00 6.685441e+00 3.101310e+00 2.236591e+00 2.756037e+00 2.506699e+00 1.637373e+00 3.899756e-01 2.483944e-01 3.800828e-01 3.740188e-01 5.515999e-01 3.498190e-01 4.978599e-01 9.919326e-01 4.953816e-01 4.657284e-01 4.234530e-01 3.787007e-01 3.079609e-01
<GCONST> 1.200912e+02
<STATE> 3
<MEAN> 39
 -7.082499e+00 -6.531763e+00 4.435843e+00 -7.642729e+00 -1.856393e+01 -7.711077e+00 3.467498e+00 -1.556053e-01 -1.225854e-01 -7.993121e+00 1.010395e+00 -1.733756e+00 7.717798e+01 4.273412e-02 -4.608241e-01 -1.641318e-02 -1.719004e-01 1.447890e-01 2.208587e-02 -1.614071e-01 2.446236e-01 2.935079e-01 -1.997117e-01 -1.004748e-01 -1.920303e-01 3.622736e-02 1.699899e-02 1.493844e-01 -1.250372e-01 1.692926e-01 2.156669e-01 -6.466012e-02 -1.774635e-01 -7.883931e-03 6.197305e-02 -2.274855e-02 -6.674592e-02 -1.360728e-03 -1.616412e-01
<VARIANCE> 39
 4.767044e+01 1.721891e+01 1.876031e+01 3.233726e+01 2.865632e+01 2.341520e+01 7.868486e+01 5.143754e+01 4.124098e+01 2.829541e+01 9.809185e+00 1.406253e+01 1.684091e+01 2.719963e-01 5.214054e-01 8.658211e-01 7.053345e-01 1.391123e+00 8.232808e-01 1.225197e+00 1.083067e+00 9.729517e-01 9.087074e-01 7.211652e-01 4.678729e-01 3.105074e-01 4.215056e-02 9.455340e-02 9.066421e-02 1.009585e-01 1.086204e-01 1.271253e-01 1.902706e-01 2.120161e-01 1.409130e-01 1.632740e-01 1.169918e-01 9.104054e-02 4.054415e-02
<GCONST> 8.078489e+01
<STATE> 4
<MEAN> 39
 -1.068068e+01 -1.475697e+00 -3.319384e-01 -3.444705e-01 -4.107329e+00 -5.309319e+00 -6.945573e+00 -1.462229e+00 2.343634e+00 -7.015669e+00 -3.140166e+00 -3.379708e+00 6.414624e+01 -4.324133e-01 3.744245e-01 -5.093366e-02 7.390040e-01 1.268240e+00 6.335673e-01 3.987134e-02 -2.086014e-01 1.566041e-01 7.626158e-01 -9.081050e-02 2.437478e-01 -1.487837e+00 -4.648468e-02 -7.880004e-02 3.393023e-02 -7.735582e-02 -4.587875e-02 9.195555e-02 1.875454e-01 3.660056e-02 -4.599942e-02 1.258904e-01 1.262941e-01 5.486265e-02 -6.526756e-02
<VARIANCE> 39
 3.354650e+01 4.744610e+01 3.563685e+01 3.968424e+01 4.925183e+01 2.927749e+01 7.493233e+01 5.420403e+01 4.466993e+01 3.464063e+01 1.929638e+01 2.858473e+01 6.689158e+01 1.903663e+00 1.937146e+00 3.203826e+00 3.163819e+00 2.982783e+00 2.309641e+00 4.732610e+00 3.214462e+00 4.174773e+00 2.183698e+00 1.777134e+00 1.603442e+00 5.379656e+00 3.341799e-01 3.197638e-01 6.187925e-01 5.246662e-01 4.933306e-01 4.238563e-01 7.639495e-01 5.483118e-01 7.155967e-01 4.083233e-01 3.599544e-01 2.898213e-01 7.143738e-01
<GCONST> 1.233372e+02
<STATE> 5
<MEAN> 39
 -1.446949e+01 -6.075665e-01 3.878907e-01 1.796742e+00 1.779394e+00 5.866158e-01 1.454551e+00 4.234083e+00 3.448289e+00 2.308594e+00 2.636570e+00 1.944244e+00 5.155281e+01 -3.984111e-02 7.985389e-02 -1.566672e-01 -1.796107e-01 2.767238e-02 2.339815e-01 2.360972e-01 -9.757572e-02 -1.229808e-01 2.547907e-01 3.001221e-01 1.728426e-01 -5.829867e-01 4.037660e-02 5.281065e-02 2.717407e-02 -8.150150e-03 -1.076899e-01 -1.170745e-01 -6.326340e-02 -5.699836e-02 -8.899762e-02 -1.421672e-01 -5.362711e-02 2.441060e-03 1.391734e-01
<VARIANCE> 39
 7.976391e+00 1.768662e+01 1.538214e+01 1.806519e+01 1.739605e+01 1.921068e+01 2.775385e+01 2.530002e+01 2.254139e+01 2.202754e+01 2.340590e+01 1.749750e+01 3.893124e+01 5.832994e-01 6.042752e-01 8.038734e-01 1.357040e+00 1.580408e+00 2.129903e+00 1.819052e+00 1.696257e+00 2.121910e+00 1.765614e+00 1.751218e+00 1.689320e+00 1.671693e+00 1.094993e-01 1.055385e-01 1.516367e-01 2.641886e-01 3.526516e-01 4.574441e-01 3.306538e-01 3.416747e-01 3.803273e-01 2.985334e-01 3.047338e-01 3.340032e-01 3.381429e-01
<GCONST> 9.758044e+01
<TRANSP> 6
 0.000000e+00 1.000000e+00 0.000000e+00 0.000000e+00 0.000000e+00 0.000000e+00
 0.000000e+00 9.272523e-01 7.274768e-02 0.000000e+00 0.000000e+00 0.000000e+00
 0.000000e+00 0.000000e+00 9.248150e-01 7.518503e-02 0.000000e+00 0.000000e+00
 0.000000e+00 0.000000e+00 0.000000e+00 9.167420e-01 8.325803e-02 0.000000e+00
 0.000000e+00 0.000000e+00 0.000000e+00 0.000000e+00 8.934178e-01 1.065822e-01
 0.000000e+00 0.000000e+00 0.000000e+00 0.000000e+00 0.000000e+00 0.000000e+00
<ENDHMM>
