~o
<STREAMINFO> 1 39
<VECSIZE> 39<NULLD><MFCC_D_A_0><DIAGC>
~h "left"
<BEGINHMM>
<NUMSTATES> 6
<STATE> 2
<MEAN> 39
 -5.180512e+00 -2.514695e-01 7.780671e-01 8.855425e-01 -8.068298e+00 -8.771550e+00 -3.423119e+00 -2.393906e+00 1.209448e+00 -4.302010e+00 -1.778852e+00 -5.197384e+00 6.683630e+01 -1.445133e-01 3.414100e-01 1.254018e-02 -7.747680e-02 -1.171872e-01 -2.866583e-01 5.425915e-02 -1.986997e-01 -1.361527e-01 -4.467069e-02 -4.187522e-02 -2.584964e-02 4.262847e-01 -2.565668e-01 5.108985e-03 -7.500876e-02 -2.038755e-02 1.558227e-01 8.619609e-02 1.500442e-01 7.686941e-02 7.743071e-02 5.103635e-02 5.737342e-02 9.226645e-02 -5.876200e-02
<VARIANCE> 39
 3.765786e+01 3.814998e+01 2.891920e+01 4.577700e+01 4.206992e+01 3.911547e+01 6.190647e+01 6.776943e+01 5.788473e+01 2.430292e+01 1.732658e+01 2.013729e+01 5.936428e+01 2.988142e+00 1.879029e+00 2.070416e+00 2.674977e+00 3.796001e+00 2.262303e+00 3.865395e+00 3.328026e+00 4.098514e+00 2.238054e+00 1.552618e+00 1.905858e+00 4.023250e+00 4.568176e-01 2.804092e-01 3.693934e-01 4.018898e-01 5.073470e-01 3.937226e-01 6.644616e-01 5.702385e-01 6.475784e-01 3.942884e-01 2.666830e-01 3.072380e-01 3.674598e-01
<GCONST> 1.204940e+02
<STATE> 3
<MEAN> 39
 -2.573475e+01 6.020206e+00 -4.766340e+00 1.609690e+00 1.621201e+00 -2.823042e+00 3.702093e+00 -3.399891e-01 2.825259e+00 -4.729102e-01 1.856512e+00 9.907019e-01 6.288200e+01 -1.031280e-01 -3.844458e-01 -1.686602e-01 -2.400175e-01 -6.060205e-02 1.662570e-01 -1.364774e-01 1.133426e-01 2.824056e-01 2.414579e-02 3.327456e-02 4.705226e-02 1.329057e-01 3.875605e-01 -8.588985e-02 1.246114e-01 -1.793427e-02 -2.416722e-01 -1.593432e-01 -2.566822e-01 -1.230958e-01 -4.798441e-02 -5.197817e-02 -1.118974e-01 -1.138335e-01 1.140315e-01
<VARIANCE> 39
 3.002065e+01 2.216978e+01 1.727049e+01 2.839098e+01 2.085001e+01 3.044939e+01 2.303335e+01 2.580602e+01 2.054210e+01 1.863816e+01 1.820201e+01 1.644010e+01 5.204197e+01 5.555859e+00 1.659532e+00 1.773587e+00 2.421718e+00 3.179117e+00 2.624321e+00 3.114120e+00 2.317169e+00 1.913670e+00 2.111282e+00 1.884125e+00 1.574292e+00 5.969315e+00 4.929789e-01 3.182332e-01 2.619301e-01 4.402836e-01 5.007932e-01 3.886132e-01 4.804778e-01 4.183629e-01 3.587860e-01 4.051502e-01 3.668023e-01 2.964109e-01 8.710164e-01
<GCONST> 1.133227e+02
<STATE> 4
<MEAN> 39
 -5.814524e+00 -6.628994e+00 -1.316083e+00 -3.315826e+00 -1.229866e+01 -8.903928e+00 -9.435093e+00 -2.136121e+00 4.903355e+00 -3.764072e+00 -3.375863e+00 -3.858450e+00 7.175800e+01 7.744596e-01 -4.423235e-01 8.311930e-02 1.081135e-01 -3.971298e-01 -4.110667e-02 -1.324208e-01 2.538585e-01 -4.826297e-02 -2.528584e-01 -3.414516e-01 -1.836371e-01 -5.314401e-02 -3.091336e-01 1.974154e-01 -2.094359e-02 1.756012e-01 3.523433e-01 2.279048e-01 3.623889e-01 1.621968e-01 -3.466026e-02 1.154682e-01 1.057108e-01 1.432740e-01 -4.234910e-01
<VARIANCE> 39
 4.821124e+01 3.143094e+01 2.942987e+01 4.388091e+01 6.896382e+01 5.811113e+01 6.806981e+01 4.337531e+01 4.178890e+01 2.572849e+01 2.091080e+01 4.235884e+01 2.659840e+01 2.840303e+00 2.631704e+00 2.879812e+00 2.376224e+00 6.441854e+00 3.948746e+00 5.513236e+00 3.390251e+00 2.645268e+00 2.491350e+00 2.153579e+00 2.141485e+00 4.408535e+00 3.038665e-01 3.314654e-01 5.522272e-01 3.946577e-01 9.027578e-01 6.179566e-01 7.730393e-01 6.350982e-01 5.142815e-01 4.870906e-01 4.520728e-01 4.319220e-01 4.736561e-01
<GCONST> 1.256158e+02
<STATE> 5
<MEAN> 39
 -1.106634e+01 -2.299694e+00 -1.713294e-01 2.976722e+00 -7.818009e-01 -2.084126e+00 -1.772208e-01 3.675814e+00 3.128326e+00 -1.557149e+00 -1.960134e+00 3.782196e-01 5.597126e+01 -9.255073e-01 3.759169e-01 3.004192e-01 3.038209e-01 1.103422e+00 4.835469e-01 7.642365e-01 6.873046e-02 5.002137e-02 7.547874e-01 6.454867e-01 5.292249e-01 -1.652185e+00 8.664609e-02 -1.330018e-01 -4.867066e-02 -1.431409e-01 -2.949374e-01 -1.033193e-01 -1.961089e-01 -7.367831e-02 2.453458e-02 -2.030141e-02 3.505044e-02 -1.042115e-01 2.556401e-01
<VARIANCE> 39
 2.227191e+01 1.580349e+01 1.626685e+01 2.356717e+01 3.953238e+01 2.129819e+01 4.574711e+01 3.374846e+01 1.880941e+01 3.347475e+01 2.200841e+01 2.507416e+01 3.847795e+01 1.282042e+00 1.307113e+00 9.829059e-01 1.959876e+00 4.239310e+00 2.345802e+00 3.834471e+00 2.624835e+00 2.689420e+00 2.679699e+00 1.816926e+00 2.723818e+00 1.675597e+00 2.194129e-01 2.430175e-01 1.856384e-01 3.444371e-01 4.852064e-01 3.844612e-01 6.018397e-01 5.097544e-01 4.138300e-01 5.400867e-01 4.017437e-01 4.674736e-01 1.774856e-01
<GCONST> 1.104030e+02
<TRANSP> 6
 0.000000e+00 1.000000e+00 0.000000e+00 0.000000e+00 0.000000e+00 0.000000e+00
 0.000000e+00 9.600836e-01 3.991643e-02 0.000000e+00 0.000000e+00 0.000000e+00
 0.000000e+00 0.000000e+00 9.501374e-01 4.986266e-02 0.000000e+00 0.000000e+00
 0.000000e+00 0.000000e+00 0.000000e+00 9.285251e-01 7.147494e-02 0.000000e+00
 0.000000e+00 0.000000e+00 0.000000e+00 0.000000e+00 8.840157e-01 1.159843e-01
 0.000000e+00 0.000000e+00 0.000000e+00 0.000000e+00 0.000000e+00 0.000000e+00
<ENDHMM>
