~o
<STREAMINFO> 1 39
<VECSIZE> 39<NULLD><MFCC_D_A_0><DIAGC>
~h "right"
<BEGINHMM>
<NUMSTATES> 6
<STATE> 2
<MEAN> 39
 -1.031512e+01 -7.405517e+00 2.209315e+00 -2.235354e+00 -8.302455e+00 -5.692601e+00 3.395814e+00 4.509257e+00 3.531582e+00 -4.428759e+00 -7.086009e-01 -7.331836e-01 6.437361e+01 7.337121e-01 -1.769599e-01 2.747647e-01 -4.718603e-01 -1.459407e+00 -1.183098e+00 -7.441407e-01 -3.983414e-01 1.361098e-02 -2.572204e-01 4.653085e-01 -4.350484e-01 1.803313e+00 -2.757377e-02 9.490923e-02 8.008295e-02 2.799751e-02 -1.382960e-02 3.025930e-02 -9.317803e-02 -1.109020e-01 -6.413699e-02 1.001697e-01 1.241261e-01 4.086381e-02 -8.852135e-02
<VARIANCE> 39
 4.472485e+01 2.692115e+01 1.435410e+01 3.035126e+01 5.644650e+01 3.697449e+01 5.521602e+01 3.716178e+01 2.940684e+01 1.977726e+01 2.134309e+01 2.190023e+01 6.589816e+01 1.602439e+00 2.182385e+00 1.440048e+00 2.776584e+00 2.438255e+00 2.153222e+00 2.752085e+00 2.012774e+00 2.353538e+00 1.730118e+00 1.918687e+00 1.759822e+00 1.894148e+00 3.449635e-01 4.559947e-01 2.192996e-01 5.625983e-01 3.910023e-01 4.900397e-01 4.761668e-01 3.770806e-01 3.892734e-01 3.476276e-01 3.337141e-01 3.522950e-01 3.982490e-01
<GCONST> 1.137132e+02
<STATE> 3
<MEAN> 39
 -8.390602e+00 -2.245871e+00 1.274572e+01 -4.403275e+00 -1.998468e+01 -9.051723e+00 -4.463753e+00 -6.813313e+00 -3.110350e+00 -6.388542e+00 4.467777e+00 -2.043303e+00 7.123988e+01 -1.622097e-01 3.699984e-01 4.741717e-01 1.178905e-01 -1.501549e-01 1.568445e-01 -1.376329e-01 -5.365169e-01 -3.321344e-01 -1.614730e-01 2.554534e-02 9.315272e-02 -1.887954e-01 3.115004e-03 2.919194e-03 -1.063257e-01 8.017084e-02 8.209965e-02 1.048278e-02 1.108562e-02 6.321731e-02 6.878947e-02 -1.481327e-02 -8.748398e-02 2.462654e-02 -4.395794e-02
<VARIANCE> 39
 3.294520e+01 2.314141e+01 3.238628e+01 4.616057e+01 1.928580e+01 4.240863e+01 5.642255e+01 7.640405e+01 6.909413e+01 2.400969e+01 1.401955e+01 1.917271e+01 2.626968e+01 2.203292e-01 5.979281e-01 1.396008e+00 8.518445e-01 1.069243e+00 1.501132e+00 9.164495e-01 1.241743e+00 1.368645e+00 7.200370e-01 8.292755e-01 7.853100e-01 2.913447e-01 3.496255e-02 1.013123e-01 1.550582e-01 1.915437e-01 1.975489e-01 2.484451e-01 1.766399e-01 1.978778e-01 2.046894e-01 1.229111e-01 1.511826e-01 1.226998e-01 6.548452e-02
<GCONST> 8.812403e+01
<STATE> 4
<MEAN> 39
 -5.639609e+00 -6.674520e+00 6.683490e+00 -1.321998e+00 -1.697876e+01 -8.948435e+00 -5.876451e+00 -5.945714e+00 3.779892e+00 -6.156303e+00 -2.001640e+00 3.123491e-01 7.080320e+01 1.313868e-01 -2.171378e-01 -6.917132e-01 1.271346e-01 4.649544e-01 1.145737e-01 2.606221e-03 5.661273e-01 4.289843e-01 8.673240e-02 -3.787707e-01 -8.380854e-02 -3.306141e-01 -6.123670e-02 8.400647e-02 6.313846e-02 -2.380799e-03 1.236546e-01 8.501089e-02 1.116518e-01 6.590603e-03 -4.640239e-02 6.343165e-02 3.269917e-02 -2.457333e-02 -1.453348e-01
<VARIANCE> 39
 5.552843e+01 4.100597e+01 5.406451e+01 3.851690e+01 4.570186e+01 3.428623e+01 5.385349e+01 5.288826e+01 5.023978e+01 4.079774e+01 3.074066e+01 3.705064e+01 2.539415e+01 1.917413e+00 2.321995e+00 1.666192e+00 2.064511e+00 5.374716e+00 2.923964e+00 2.920456e+00 2.083780e+00 2.513524e+00 2.648739e+00 2.188167e+00 2.243397e+00 3.101150e+00 3.743874e-01 3.288777e-01 3.279741e-01 3.420748e-01 1.007476e+00 6.143036e-01 5.847395e-01 3.612575e-01 3.959351e-01 4.588980e-01 4.145548e-01 3.677317e-01 5.000561e-01
<GCONST> 1.215702e+02
<STATE> 5
<MEAN> 39
 -1.150028e+01 -2.546311e+00 1.648829e-01 1.136058e+00 -3.157479e+00 -1.870816e+00 -5.940936e-01 1.926278e+00 3.760087e+00 -2.795142e+00 -1.974407e+00 -7.121078e-03 5.568766e+01 -9.024740e-01 2.756962e-01 2.364350e-02 2.634023e-01 1.248374e+00 8.010505e-01 7.426020e-01 -1.274603e-01 -2.023382e-01 8.748444e-01 5.323768e-01 5.587272e-01 -1.479082e+00 8.441091e-02 -1.281732e-01 8.021001e-03 -9.086116e-02 -2.526841e-01 -1.342465e-01 -1.473352e-01 -4.951237e-02 -1.299051e-02 -8.966852e-02 3.909950e-02 -1.871479e-02 2.670498e-01
<VARIANCE> 39
 3.228672e+01 1.513648e+01 1.687945e+01 2.601869e+01 4.671730e+01 2.564349e+01 4.191445e+01 5.101653e+01 1.645611e+01 3.001254e+01 2.880617e+01 2.763839e+01 3.098721e+01 9.892972e-01 1.770058e+00 1.068229e+00 2.282576e+00 3.724075e+00 2.393532e+00 3.366715e+00 1.842894e+00 1.620016e+00 2.213291e+00 1.844800e+00 1.750168e+00 2.124480e+00 1.383123e-01 3.351043e-01 1.799656e-01 4.273311e-01 5.658510e-01 3.578014e-01 5.178632e-01 3.997625e-01 3.302862e-01 3.906687e-01 3.797064e-01 3.258420e-01 2.517981e-01
<GCONST> 1.093673e+02
<TRANSP> 6
 0.000000e+00 1.000000e+00 0.000000e+00 0.000000e+00 0.000000e+00 0.000000e+00
 0.000000e+00 9.048461e-01 9.515391e-02 0.000000e+00 0.000000e+00 0.000000e+00
 0.000000e+00 0.000000e+00 9.447154e-01 5.528458e-02 0.000000e+00 0.000000e+00
 0.000000e+00 0.000000e+00 0.000000e+00 9.479702e-01 5.202986e-02 0.000000e+00
 0.000000e+00 0.000000e+00 0.000000e+00 0.000000e+00 8.826708e-01 1.173293e-01
 0.000000e+00 0.000000e+00 0.000000e+00 0.000000e+00 0.000000e+00 0.000000e+00
<ENDHMM>
