~o
<STREAMINFO> 1 39
<VECSIZE> 39<NULLD><MFCC_D_A_0><DIAGC>
~h "sil"
<BEGINHMM>
<NUMSTATES> 6
<STATE> 2
<MEAN> 39
 -1.402158e+01 -3.475091e+00 -7.297477e-01 6.774877e-01 1.387404e+00 -1.395576e+00 1.069259e+00 4.815042e-01 1.264113e+00 2.075078e-01 1.291248e+00 3.088520e-01 5.163117e+01 -4.368609e-02 8.655914e-02 2.501823e-02 4.858177e-02 3.145370e-02 5.841994e-02 6.863993e-02 1.452744e-02 -2.503206e-02 1.380430e-02 3.567461e-02 2.018540e-02 -1.054060e-01 6.337267e-03 -3.691172e-03 -3.252633e-03 -4.080728e-03 -2.222654e-03 2.282701e-03 -6.358684e-03 1.099233e-02 1.450715e-02 -2.087422e-03 -5.393993e-03 -5.249633e-03 1.997272e-02
<VARIANCE> 39
 1.011827e+01 1.713474e+01 1.075978e+01 1.473536e+01 1.469297e+01 1.448425e+01 2.013929e+01 2.281424e+01 1.875151e+01 1.884515e+01 1.725830e+01 1.535903e+01 1.049092e+01 2.414078e-01 4.215474e-01 6.062287e-01 7.983744e-01 9.994121e-01 1.178755e+00 1.449198e+00 1.577366e+00 1.496124e+00 1.510815e+00 1.454637e+00 1.304388e+00 2.598335e-01 4.586133e-02 7.442376e-02 1.195496e-01 1.629380e-01 2.029431e-01 2.350687e-01 2.953972e-01 3.197882e-01 3.045642e-01 3.020045e-01 3.020092e-01 2.624571e-01 4.738566e-02
<GCONST> 8.228409e+01
<STATE> 3
<MEAN> 39
 -1.582018e+01 1.963739e+00 1.735745e+00 2.625634e+00 3.066758e+00 2.810914e+00 3.663593e+00 4.049043e+00 3.313708e+00 3.770162e+00 3.639193e+00 2.475509e+00 4.626029e+01 -8.164469e-03 1.255931e-02 1.800441e-04 -6.763717e-04 1.249351e-02 2.472980e-02 9.530247e-03 2.065356e-02 4.290458e-03 4.439436e-03 6.778193e-03 -1.564733e-02 -2.646762e-02 1.450624e-03 -7.766747e-03 -3.561065e-03 -1.611212e-03 -9.588432e-03 -1.009490e-02 -3.566445e-03 5.053588e-04 -1.499183e-03 -5.345018e-03 -4.565230e-03 5.520371e-04 9.152340e-03
<VARIANCE> 39
 3.986918e+00 4.705855e+00 4.445506e+00 5.793274e+00 7.973417e+00 1.007362e+01 1.077223e+01 1.237135e+01 1.383216e+01 1.218424e+01 1.126594e+01 1.075016e+01 2.076657e+00 1.147700e-01 2.151787e-01 3.522539e-01 5.218749e-01 6.752493e-01 8.574992e-01 1.026379e+00 1.169172e+00 1.215976e+00 1.273090e+00 1.164411e+00 1.129349e+00 4.792929e-02 2.282900e-02 4.201077e-02 7.161955e-02 1.097260e-01 1.380996e-01 1.780658e-01 2.119399e-01 2.393130e-01 2.506628e-01 2.640342e-01 2.398336e-01 2.372190e-01 9.183123e-03
<GCONST> 6.094970e+01
<STATE> 4
<MEAN> 39
 -1.600472e+01 8.596007e-01 7.730584e-01 2.475322e+00 2.812832e+00 2.087749e+00 3.258546e+00 4.431656e+00 3.817412e+00 3.052197e+00 4.102663e+00 2.550352e+00 4.720975e+01 -8.019055e-03 -2.846968e-02 -1.272162e-02 4.316666e-02 -4.312028e-02 -1.472656e-02 1.323871e-02 3.455566e-02 1.176309e-02 -3.421272e-02 -2.620483e-02 -1.879923e-02 5.024690e-02 1.535888e-02 -3.997135e-03 -2.102165e-03 -7.761111e-03 -3.133492e-02 -1.293784e-02 -1.842780e-02 -2.076362e-02 -2.352027e-02 -3.484154e-02 -2.052228e-02 -1.607600e-02 4.459070e-02
<VARIANCE> 39
 6.008927e+00 9.961330e+00 7.421110e+00 9.591940e+00 1.141873e+01 1.450898e+01 1.433387e+01 1.537459e+01 1.557526e+01 1.632428e+01 1.425289e+01 1.228126e+01 7.142037e+00 4.158646e-01 6.679896e-01 7.086197e-01 9.220653e-01 1.190341e+00 1.309329e+00 1.413738e+00 1.445269e+00 1.533829e+00 1.519082e+00 1.447913e+00 1.225368e+00 5.361570e-01 9.446501e-02 1.418628e-01 1.461648e-01 1.968182e-01 2.511885e-01 2.654735e-01 2.947963e-01 2.952101e-01 3.222116e-01 3.059223e-01 2.921854e-01 2.535495e-01 1.201172e-01
<GCONST> 8.340781e+01
<STATE> 5
<MEAN> 39
 -1.649574e+01 -9.308428e-01 1.029475e+00 1.759591e+00 2.030003e+00 9.716273e-01 2.666856e+00 3.566168e+00 3.152660e+00 1.734615e+00 2.775398e+00 2.020901e+00 5.094677e+01 2.955728e-01 -8.812739e-03 1.681127e-02 -1.127265e-01 -4.230868e-01 -2.415482e-01 -8.526511e-02 -1.637929e-01 -1.754978e-01 -2.577625e-01 -2.232296e-01 -1.540777e-01 4.608184e-01 1.322497e-01 1.880921e-02 6.452276e-03 -9.359308e-02 -1.507282e-01 -6.721219e-02 -3.659301e-02 -8.727335e-02 -4.686816e-02 -6.285209e-02 -1.726875e-02 -4.717803e-02 1.507919e-01
<VARIANCE> 39
 2.443466e+01 2.777354e+01 2.024589e+01 2.238829e+01 2.139408e+01 2.130695e+01 2.349293e+01 2.335954e+01 2.052581e+01 1.974137e+01 2.007444e+01 1.656367e+01 3.893742e+01 2.199662e+00 1.875802e+00 1.702825e+00 2.482377e+00 2.518011e+00 2.240982e+00 2.470465e+00 2.576048e+00 2.350379e+00 1.983891e+00 2.135132e+00 1.786415e+00 3.887339e+00 3.832368e-01 3.228823e-01 3.038849e-01 4.543053e-01 4.384847e-01 3.918557e-01 4.697791e-01 4.910424e-01 4.749508e-01 3.695613e-01 4.200238e-01 3.478002e-01 6.607366e-01
<GCONST> 1.115170e+02
<TRANSP> 6
 0.000000e+00 8.156251e-01 1.843749e-01 0.000000e+00 0.000000e+00 0.000000e+00
 0.000000e+00 9.678332e-01 1.553405e-02 1.663273e-02 0.000000e+00 0.000000e+00
 0.000000e+00 0.000000e+00 9.790196e-01 2.098039e-02 0.000000e+00 0.000000e+00
 0.000000e+00 0.000000e+00 0.000000e+00 9.221824e-01 5.200744e-02 2.581014e-02
 0.000000e+00 0.000000e+00 0.000000e+00 0.000000e+00 9.104275e-01 8.957253e-02
 0.000000e+00 0.000000e+00 0.000000e+00 0.000000e+00 0.000000e+00 0.000000e+00
<ENDHMM>
