~o
<STREAMINFO> 1 39
<VECSIZE> 39<NULLD><MFCC_D_A_0><DIAGC>
~h "up"
<BEGINHMM>
<NUMSTATES> 6
<STATE> 2
<MEAN> 39
 -4.521178e+00 5.627542e+00 -4.897565e+00 -1.507499e+01 -1.679544e+01 1.420388e+00 7.608201e-01 -3.867223e+00 -2.838787e+00 -5.170972e+00 -8.221114e-01 -2.105631e+00 6.374648e+01 6.290550e-01 2.916051e-01 -1.088133e-01 -5.897650e-01 -6.847721e-01 -2.053896e-01 -2.203085e-01 -4.425862e-01 -2.356996e-01 -5.937598e-01 -4.108157e-01 -4.185576e-01 8.195238e-01 -3.569530e-01 -1.391060e-01 2.014985e-01 5.794232e-01 6.125671e-01 1.392241e-02 7.525239e-02 2.264645e-01 1.620458e-01 1.910138e-01 5.490005e-02 1.049886e-01 -4.827730e-01
<VARIANCE> 39
 3.329615e+01 1.786398e+01 2.246058e+01 6.256927e+01 9.443678e+01 8.310377e+01 3.329683e+01 5.524958e+01 8.491660e+01 5.089418e+01 3.306482e+01 2.802592e+01 6.150227e+01 3.483289e+00 1.496443e+00 2.022787e+00 1.100226e+01 1.431529e+01 2.911413e+00 1.931090e+00 4.507183e+00 3.279411e+00 3.287087e+00 2.200514e+00 1.742302e+00 8.087124e+00 4.424479e-01 2.681080e-01 2.514122e-01 9.933450e-01 1.054004e+00 3.991712e-01 3.346217e-01 6.322358e-01 4.903613e-01 4.657307e-01 3.842552e-01 3.059978e-01 6.922370e-01
<GCONST> 1.276568e+02
<STATE> 3
<MEAN> 39
 -1.115405e+01 3.385518e+00 1.060671e+00 -2.328547e+00 -2.280075e+00 4.648273e-01 2.569478e+00 6.179308e-01 1.881033e+00 -2.878816e+00 -9.115293e-01 -1.696868e+00 5.344868e+01 -2.265272e+00 -1.087974e+00 6.564700e-01 2.279315e+00 2.268868e+00 6.957214e-01 9.749781e-01 1.631058e+00 1.773961e+00 2.066134e+00 1.452816e+00 1.392863e+00 -3.001460e+00 4.537661e-01 6.075823e-02 -4.634010e-01 -9.720715e-01 -1.010415e+00 9.215531e-02 -9.928885e-02 -2.464599e-01 -1.172575e-02 2.212813e-02 1.765336e-01 7.844570e-02 6.885755e-01
<VARIANCE> 39
 2.575073e+01 1.673631e+01 8.482799e+00 1.616526e+01 1.896062e+01 2.264521e+01 2.166059e+01 2.425870e+01 3.987369e+01 2.679687e+01 2.120149e+01 2.066644e+01 3.032748e+01 1.580173e+00 1.355007e+00 2.552683e+00 3.783062e+00 5.764950e+00 2.390739e+00 1.884595e+00 2.073963e+00 2.811432e+00 1.868058e+00 1.781437e+00 1.572701e+00 2.243990e+00 2.655402e-01 3.403335e-01 2.537642e-01 3.994994e-01 7.580903e-01 5.027046e-01 4.062603e-01 4.039349e-01 6.354761e-01 5.267719e-01 5.023859e-01 3.458764e-01 3.386731e-01
<GCONST> 1.105802e+02
<STATE> 4
<MEAN> 39
 -1.522655e+01 1.248415e+00 7.734461e-01 1.337532e+00 1.826710e+00 2.165651e+00 3.591208e+00 3.894948e+00 4.544534e+00 3.092832e+00 3.263140e+00 2.457837e+00 4.813179e+01 -9.398013e-02 -7.839783e-02 1.225616e-02 1.512443e-01 2.054918e-01 -1.570344e-02 -4.803352e-02 -8.858579e-03 -6.216618e-02 1.061454e-01 4.079976e-02 2.549677e-02 -5.108821e-02 4.701144e-02 1.483212e-02 -7.770154e-03 -6.468207e-02 -5.247160e-02 -6.924650e-02 -6.921281e-02 -7.675500e-02 -8.049928e-02 -9.981866e-02 -8.509507e-02 -7.011023e-02 1.689627e-01
<VARIANCE> 39
 9.012103e+00 9.378480e+00 7.103990e+00 7.464699e+00 1.072269e+01 1.262946e+01 1.540393e+01 1.698868e+01 1.955507e+01 1.419081e+01 1.404504e+01 1.081600e+01 8.412190e+00 2.163497e-01 5.358684e-01 4.597574e-01 5.898925e-01 8.751506e-01 1.122358e+00 1.369046e+00 1.285625e+00 1.371140e+00 1.252511e+00 1.227263e+00 1.093391e+00 4.778965e-01 6.948140e-02 1.209520e-01 1.061998e-01 1.320215e-01 1.811673e-01 2.428843e-01 3.109950e-01 2.862571e-01 2.965343e-01 2.792321e-01 2.704791e-01 2.297366e-01 1.808351e-01
<GCONST> 7.895530e+01
<STATE> 5
<MEAN> 39
 -1.392205e+01 -5.379799e+00 -2.816054e+00 -2.670878e+00 2.282576e+00 -2.119952e+00 -1.292251e+00 1.732941e+00 2.077465e+00 2.435323e+00 1.054840e+00 -2.572937e-01 5.788815e+01 8.679578e-02 -1.518668e-01 -1.251700e-01 -1.164742e-01 2.207017e-02 -9.345180e-02 -1.309017e-01 -7.544171e-02 -1.663604e-02 2.109477e-02 -5.715836e-02 -6.238477e-02 1.500371e-01 -3.258266e-03 3.824037e-02 1.675643e-02 2.711225e-02 1.701941e-02 5.385367e-02 5.031766e-02 2.395398e-02 1.154504e-02 1.738731e-02 3.474306e-02 1.979393e-02 -1.073227e-01
<VARIANCE> 39
 2.056875e+01 1.960703e+01 1.770276e+01 1.808972e+01 1.657005e+01 3.241459e+01 3.824985e+01 2.410474e+01 2.147006e+01 2.379183e+01 1.996343e+01 1.798351e+01 4.028656e+01 6.835200e-01 1.346770e+00 1.352117e+00 1.369812e+00 1.446787e+00 2.033020e+00 2.124462e+00 1.900047e+00 1.600463e+00 1.972999e+00 1.787554e+00 1.741297e+00 4.108006e+00 1.090601e-01 1.957633e-01 2.356508e-01 2.172841e-01 2.845380e-01 3.562464e-01 3.772844e-01 3.580035e-01 3.132300e-01 3.846713e-01 3.493392e-01 3.351663e-01 5.063767e-01
<GCONST> 1.030290e+02
<TRANSP> 6
 0.000000e+00 1.000000e+00 0.000000e+00 0.000000e+00 0.000000e+00 0.000000e+00
 0.000000e+00 9.203781e-01 7.962188e-02 0.000000e+00 0.000000e+00 0.000000e+00
 0.000000e+00 0.000000e+00 7.313539e-01 2.686461e-01 0.000000e+00 0.000000e+00
 0.000000e+00 0.000000e+00 0.000000e+00 9.383516e-01 5.301831e-02 8.630130e-03
 0.000000e+00 0.000000e+00 0.000000e+00 0.000000e+00 9.523728e-01 4.762714e-02
 0.000000e+00 0.000000e+00 0.000000e+00 0.000000e+00 0.000000e+00 0.000000e+00
<ENDHMM>
