~o
<STREAMINFO> 1 39
<VECSIZE> 39<NULLD><MFCC_D_A_0><DIAGC>
~h "down"
<BEGINHMM>
<NUMSTATES> 12
<STATE> 2
<MEAN> 39
 -1.374337e+01 1.983619e+00 3.511536e+00 7.162810e+00 -1.322987e+00 -8.766702e-01 4.409514e+00 1.563604e-01 -4.122567e-01 4.422564e-01 1.048778e+00 -2.358995e+00 5.187794e+01 1.895392e+00 7.556500e-01 8.666124e-01 6.569103e-01 -1.533534e+00 -1.369749e+00 -5.213712e-01 -1.791376e+00 -1.556786e+00 -7.941112e-01 -8.783643e-01 -1.124200e+00 1.858330e+00 4.020115e-01 -7.217524e-02 -6.738611e-02 -2.963939e-01 -4.790482e-01 -3.756246e-01 -2.602979e-01 -2.384644e-01 -2.965362e-01 -3.912841e-02 -1.333300e-01 1.600342e-02 3.440221e-01
<VARIANCE> 39
 3.084866e+01 1.418093e+01 1.390086e+01 2.485772e+01 3.195038e+01 2.657347e+01 3.744868e+01 3.280762e+01 2.241151e+01 1.594229e+01 2.744091e+01 1.799145e+01 2.072091e+01 3.638290e+00 1.811096e+00 1.301665e+00 1.805735e+00 3.493319e+00 2.330340e+00 2.203106e+00 3.738462e+00 2.552782e+00 1.748735e+00 2.628639e+00 1.908549e+00 2.169310e+00 4.910493e-01 3.469937e-01 2.972598e-01 3.032729e-01 5.030397e-01 3.717571e-01 3.803724e-01 4.858742e-01 4.395714e-01 3.397237e-01 4.289650e-01 3.602252e-01 3.378894e-01
<GCONST> 1.110065e+02
<STATE> 3
<MEAN> 39
 -2.818017e+00 1.976989e+00 5.641564e+00 7.703228e+00 -1.046567e+01 -1.031850e+01 1.721794e+00 -1.075646e+01 -6.289239e+00 -9.035091e-01 -2.730247e+00 -6.567501e+00 6.240651e+01 2.380866e-01 -6.162731e-02 -4.966787e-01 -6.153260e-01 -7.286888e-01 -6.823195e-01 -4.636594e-01 4.303331e-02 -2.095830e-01 -4.555029e-01 -6.959531e-02 1.583891e-01 1.558152e+00 -4.828519e-01 -8.292907e-02 -3.016312e-01 -3.245979e-01 3.358445e-01 2.968024e-01 -5.652119e-02 7.349317e-01 4.288266e-01 -1.795330e-01 2.930622e-01 2.869124e-01 -2.840700e-02
<VARIANCE> 39
 2.521704e+01 1.318626e+01 6.345520e+00 3.800971e+01 2.705268e+01 1.685457e+01 2.161111e+01 7.015155e+01 2.073836e+01 1.237527e+01 5.641531e+01 3.693800e+01 1.361683e+01 1.690774e+00 9.917482e-01 1.185239e+00 2.174266e+00 2.672694e+00 1.878430e+00 1.721363e+00 5.542256e+00 2.188057e+00 1.820847e+00 2.025232e+00 1.662043e+00 1.645421e+00 1.896049e-01 2.035306e-01 1.767249e-01 3.054831e-01 3.667578e-01 2.639984e-01 3.751330e-01 5.550254e-01 3.183680e-01 3.695060e-01 3.585577e-01 2.847802e-01 2.771436e-01
<GCONST> 1.048604e+02
<STATE> 4
<MEAN> 39
 -7.708881e+00 5.954213e-01 -3.505918e-01 -2.038055e+00 -1.278968e+01 -1.044811e+01 -2.717223e+00 7.586120e-01 -2.474877e+00 -8.054497e+00 -2.871600e-01 -1.067410e+00 7.263788e+01 -4.171424e-01 -1.192412e+00 -9.953555e-03 -2.044183e+00 -1.248908e+00 4.255460e-01 3.045750e-01 1.492309e+00 7.743831e-01 -8.228761e-01 8.664762e-01 6.891730e-01 1.890511e+00 1.671185e-01 -1.940978e-01 6.105223e-01 2.266074e-01 -2.657198e-01 1.978742e-01 5.264891e-01 -7.317299e-01 -2.639909e-01 5.289810e-01 -1.783018e-01 -3.361262e-01 -3.754325e-01
<VARIANCE> 39
 3.183963e+01 2.228838e+01 1.411776e+01 4.104200e+01 2.884607e+01 1.526865e+01 3.905953e+01 3.428462e+01 4.683842e+01 2.640814e+01 1.442221e+01 1.874626e+01 2.298090e+01 9.073402e-01 1.050309e+00 2.636759e+00 1.656274e+00 2.365774e+00 1.425982e+00 4.174445e+00 5.761636e+00 2.565036e+00 3.275372e+00 2.695381e+00 2.798456e+00 1.098649e+00 1.150077e-01 2.186926e-01 2.206766e-01 3.627269e-01 4.306162e-01 2.310878e-01 4.432164e-01 6.441644e-01 3.888972e-01 3.766306e-01 3.478618e-01 3.124586e-01 1.141392e-01
<GCONST> 1.077321e+02
<STATE> 5
<MEAN> 39
 -6.779640e+00 -6.019741e+00 5.182286e+00 -7.308980e+00 -1.940155e+01 -7.444011e+00 5.123947e+00 -1.597955e+00 -8.121208e-02 -7.306415e+00 1.253073e+00 -1.453887e+00 7.735307e+01 -1.474752e-02 -5.466411e-01 1.190928e-01 -2.713979e-01 -1.483018e-01 8.312345e-02 9.564578e-02 1.687008e-01 1.886289e-01 -1.399657e-01 -1.844531e-02 -2.140336e-01 1.799133e-01 3.890174e-02 8.172276e-02 -1.459680e-01 1.277222e-01 2.246013e-01 -1.050877e-01 -1.704803e-01 1.028586e-01 3.866837e-02 -1.035734e-01 -3.120346e-02 2.537823e-02 -1.188765e-01
<VARIANCE> 39
 5.455922e+01 1.611464e+01 1.656560e+01 2.715705e+01 2.683687e+01 2.453650e+01 6.595762e+01 4.871555e+01 4.156769e+01 2.253105e+01 8.705407e+00 1.260596e+01 1.674603e+01 2.422075e-01 4.117798e-01 6.181498e-01 5.256138e-01 1.015209e+00 7.039861e-01 9.196761e-01 9.359274e-01 8.033167e-01 8.140209e-01 5.483528e-01 3.830455e-01 1.832297e-01 4.810253e-02 9.297448e-02 9.051854e-02 7.959834e-02 1.028776e-01 1.100292e-01 1.728996e-01 1.621700e-01 1.260692e-01 1.351786e-01 9.569276e-02 7.772642e-02 2.793154e-02
<GCONST> 7.494168e+01
<STATE> 6
<MEAN> 39
 -7.389337e+00 -8.549636e+00 1.982970e+00 -8.435930e+00 -1.521710e+01 -8.710078e+00 -1.337675e+00 4.512538e+00 9.188568e-01 -1.097795e+01 1.064233e-01 -2.966454e+00 7.636990e+01 2.485789e-01 1.911757e-01 -7.481380e-01 5.413967e-01 1.376559e+00 -2.597669e-01 -1.337859e+00 2.909485e-01 8.512949e-01 -3.788832e-01 -4.647793e-01 -1.290054e-01 -7.153488e-01 -7.231606e-02 3.919993e-01 -3.993942e-02 3.250837e-01 2.067326e-01 1.506347e-01 -2.535579e-01 -3.775085e-01 1.597776e-01 2.686985e-01 -1.579883e-01 -2.964555e-02 -3.520695e-01
<VARIANCE> 39
 2.668954e+01 1.831212e+01 2.408126e+01 4.133126e+01 2.811054e+01 1.971932e+01 9.148913e+01 2.877719e+01 3.498520e+01 4.113248e+01 1.581992e+01 1.787053e+01 1.742791e+01 4.593532e-01 9.134843e-01 1.043919e+00 8.451061e-01 1.122840e+00 1.189062e+00 1.171592e+00 1.716174e+00 1.547801e+00 1.157457e+00 1.144840e+00 8.265879e-01 3.916704e-01 4.759061e-02 9.544791e-02 1.164409e-01 1.438392e-01 1.711573e-01 1.883895e-01 2.471041e-01 2.493639e-01 1.892654e-01 2.068028e-01 2.000118e-01 1.189826e-01 8.957823e-02
<GCONST> 8.922782e+01
<STATE> 7
<MEAN> 39
 -7.137607e+00 -3.543752e+00 -2.234482e+00 -4.813113e+00 -1.154960e+01 -9.404956e+00 -9.826491e+00 1.425374e+00 6.317464e+00 -9.607760e+00 -2.237019e+00 -5.398716e+00 7.207296e+01 -2.097925e-01 1.815689e+00 5.040842e-01 2.252926e+00 2.273077e+00 6.040007e-01 -1.043038e+00 -1.765517e+00 -2.601646e-01 7.226569e-01 -6.787794e-01 -2.599897e-01 -3.179878e+00 -2.978590e-01 -9.895515e-02 6.765100e-01 3.722438e-01 4.136332e-01 5.667469e-01 8.460313e-01 -7.872926e-02 -6.188380e-01 6.142882e-02 1.198844e-01 2.151200e-01 -7.973815e-01
<VARIANCE> 39
 1.597413e+01 3.945175e+01 5.087885e+01 2.370393e+01 2.249065e+01 2.212441e+01 1.405789e+02 4.856415e+01 6.825693e+01 3.995110e+01 1.997749e+01 2.679392e+01 2.794804e+01 7.396264e-01 8.212479e-01 3.586339e+00 1.585773e+00 1.644338e+00 1.521959e+00 4.647588e+00 3.183224e+00 4.630212e+00 2.424323e+00 1.308548e+00 1.425007e+00 3.023754e+00 1.057130e-01 3.220229e-01 4.799911e-01 2.234202e-01 2.924956e-01 2.990742e-01 6.552451e-01 5.622123e-01 9.030397e-01 4.841888e-01 2.437378e-01 2.542485e-01 2.594140e-01
<GCONST> 1.127743e+02
<STATE> 8
<MEAN> 39
 -9.277649e+00 2.048401e+00 3.551293e+00 4.123561e+00 -1.433446e+00 -4.655886e+00 -9.171495e+00 -6.041368e+00 -6.067966e-01 -8.563630e+00 -4.750712e+00 -5.566191e+00 5.695729e+01 -9.652694e-01 4.517270e-02 2.079122e-01 7.306564e-01 1.355519e+00 1.199770e+00 1.182407e+00 1.444759e-01 -6.083680e-01 7.200757e-01 1.993211e-02 6.121902e-01 -1.500528e+00 -2.389973e-01 -2.775234e-01 -5.851486e-01 -5.397491e-01 -4.305879e-01 -4.607654e-02 1.554025e-02 4.046151e-01 4.400620e-01 2.468195e-01 2.209678e-01 1.886562e-01 7.372428e-01
<VARIANCE> 39
 1.439403e+01 2.349746e+01 1.205398e+01 1.908525e+01 1.830782e+01 2.148129e+01 5.259041e+01 4.107973e+01 2.365839e+01 1.814799e+01 1.570661e+01 1.802068e+01 2.846760e+01 1.832485e+00 1.165753e+00 3.809522e+00 2.602659e+00 3.303576e+00 2.086246e+00 3.808232e+00 1.728230e+00 4.292386e+00 1.602402e+00 1.528619e+00 1.384931e+00 6.149326e+00 2.342686e-01 2.355018e-01 3.959731e-01 2.724869e-01 2.351087e-01 2.526409e-01 5.578259e-01 2.792355e-01 4.482437e-01 3.133696e-01 3.593025e-01 2.226030e-01 3.972065e-01
<GCONST> 1.077920e+02
<STATE> 9
<MEAN> 39
 -1.627432e+01 8.829387e-02 -3.546890e+00 -1.585326e+00 -2.676305e+00 -4.102082e+00 -4.515811e+00 6.317158e-01 7.334641e-02 -3.329410e+00 -1.726549e+00 -8.274368e-01 6.226900e+01 -4.145083e-02 -1.634555e-01 -4.419062e-01 -6.943867e-02 4.513859e-01 2.061972e-01 2.929830e-01 2.528333e-01 7.542588e-01 5.092698e-01 2.031189e-01 4.255611e-01 -1.639999e-01 2.915200e-01 -5.280166e-02 2.357390e-01 7.683648e-02 8.203112e-02 -2.256065e-02 -5.700135e-02 -7.787279e-02 3.800659e-02 -2.313112e-02 -6.105302e-02 -1.098122e-01 -2.431965e-01
<VARIANCE> 39
 2.836233e+01 3.130305e+01 2.466454e+01 2.578662e+01 1.677597e+01 1.590949e+01 3.126085e+01 4.366604e+01 1.972514e+01 1.911260e+01 1.580365e+01 1.703490e+01 3.606993e+01 2.783800e+00 1.063566e+00 2.473423e+00 2.461856e+00 2.804154e+00 2.420422e+00 2.989991e+00 2.212307e+00 2.548751e+00 2.475262e+00 1.835378e+00 1.559056e+00 4.666751e+00 4.704087e-01 2.509274e-01 3.713548e-01 4.809934e-01 5.313954e-01 3.920753e-01 7.321293e-01 5.214296e-01 4.025549e-01 4.256326e-01 3.232419e-01 2.602419e-01 5.345576e-01
<GCONST> 1.127136e+02
<STATE> 10
<MEAN> 39
 -1.195050e+01 -4.131424e+00 -4.310831e-01 1.893202e+00 4.172488e+00 -8.335901e-02 -2.497433e+00 4.845202e-01 6.238193e+00 8.530796e-01 -1.249835e+00 3.926822e-01 5.883547e+01 -3.092263e-01 -1.488312e-01 -2.916964e-01 -2.798743e-01 2.521828e-01 5.261791e-01 3.228437e-01 2.308887e-01 -1.913542e-01 1.077899e+00 6.779425e-01 3.735996e-02 -1.479301e+00 5.620850e-02 1.153906e-01 -5.622798e-02 -2.128354e-01 -3.788388e-01 -2.731138e-01 4.962258e-02 -7.559413e-02 -3.419237e-01 -2.325316e-01 1.652641e-01 2.877819e-02 1.997042e-01
<VARIANCE> 39
 1.543058e+01 4.308475e+01 1.770284e+01 1.450421e+01 1.608204e+01 1.548284e+01 3.021238e+01 3.275779e+01 2.870049e+01 3.544016e+01 2.740636e+01 2.880194e+01 2.461270e+01 9.539344e-01 1.671391e+00 1.119787e+00 1.927057e+00 1.751574e+00 2.166185e+00 3.543893e+00 2.813713e+00 3.585711e+00 2.525748e+00 2.354851e+00 1.907319e+00 8.833427e-01 1.550316e-01 2.382973e-01 2.188240e-01 3.861246e-01 3.542437e-01 4.439830e-01 4.879614e-01 4.689675e-01 5.028138e-01 4.052965e-01 4.380384e-01 4.316733e-01 1.763583e-01
<GCONST> 1.073041e+02
<STATE> 11
<MEAN> 39
 -1.475536e+01 3.861556e-01 1.520318e+00 2.773370e+00 1.489153e+00 1.588668e+00 3.780110e+00 5.318847e+00 3.129424e+00 2.586982e+00 4.018060e+00 2.883570e+00 4.824350e+01 -3.419973e-02 1.337253e-01 -5.967275e-02 -1.486259e-01 2.401499e-02 1.547564e-01 3.798920e-02 -1.665199e-01 2.380275e-02 6.527895e-02 8.625798e-02 1.975761e-01 -2.763750e-01 1.915354e-02 2.490805e-02 2.780847e-02 1.548722e-02 -1.742996e-02 -6.932820e-02 -7.362338e-02 -3.377991e-02 -3.897339e-02 -4.109254e-02 -8.018875e-02 -3.528639e-02 1.161456e-01
<VARIANCE> 39
 5.766768e+00 1.121257e+01 1.116901e+01 1.607999e+01 1.382844e+01 1.953940e+01 1.621000e+01 2.272857e+01 1.637861e+01 1.719370e+01 1.975429e+01 1.395839e+01 1.909428e+01 3.081234e-01 4.258938e-01 6.658203e-01 1.331666e+00 1.650176e+00 2.270808e+00 1.353015e+00 1.526808e+00 1.667230e+00 1.151293e+00 1.259265e+00 1.570078e+00 1.723858e+00 7.374796e-02 8.088588e-02 1.392407e-01 2.801476e-01 3.418477e-01 4.973177e-01 2.746425e-01 3.186017e-01 3.458137e-01 2.219447e-01 2.720549e-01 3.103966e-01 3.883365e-01
<GCONST> 8.996999e+01
<TRANSP> 12
 0.000000e+00 1.000000e+00 0.000000e+00 0.000000e+00 0.000000e+00 0.000000e+00 0.000000e+00 0.000000e+00 0.000000e+00 0.000000e+00 0.000000e+00 0.000000e+00
 0.000000e+00 6.661683e-01 3.338318e-01 0.000000e+00 0.000000e+00 0.000000e+00 0.000000e+00 0.000000e+00 0.000000e+00 0.000000e+00 0.000000e+00 0.000000e+00
 0.000000e+00 0.000000e+00 8.538823e-01 1.461177e-01 0.000000e+00 0.000000e+00 0.000000e+00 0.000000e+00 0.000000e+00 0.000000e+00 0.000000e+00 0.000000e+00
 0.000000e+00 0.000000e+00 0.000000e+00 7.616875e-01 2.383126e-01 0.000000e+00 0.000000e+00 0.000000e+00 0.000000e+00 0.000000e+00 0.000000e+00 0.000000e+00
 0.000000e+00 0.000000e+00 0.000000e+00 0.000000e+00 9.016706e-01 9.832942e-02 0.000000e+00 0.000000e+00 0.000000e+00 0.000000e+00 0.000000e+00 0.000000e+00
 0.000000e+00 0.000000e+00 0.000000e+00 0.000000e+00 0.000000e+00 7.326298e-01 2.673702e-01 0.000000e+00 0.000000e+00 0.000000e+00 0.000000e+00 0.000000e+00
 0.000000e+00 0.000000e+00 0.000000e+00 0.000000e+00 0.000000e+00 0.000000e+00 6.208670e-01 3.791330e-01 0.000000e+00 0.000000e+00 0.000000e+00 0.000000e+00
 0.000000e+00 0.000000e+00 0.000000e+00 0.000000e+00 0.000000e+00 0.000000e+00 0.000000e+00 7.276791e-01 2.723209e-01 0.000000e+00 0.000000e+00 0.000000e+00
 0.000000e+00 0.000000e+00 0.000000e+00 0.000000e+00 0.000000e+00 0.000000e+00 0.000000e+00 0.000000e+00 7.622942e-01 2.377058e-01 0.000000e+00 0.000000e+00
 0.000000e+00 0.000000e+00 0.000000e+00 0.000000e+00 0.000000e+00 0.000000e+00 0.000000e+00 0.000000e+00 0.000000e+00 7.557573e-01 2.442427e-01 0.000000e+00
 0.000000e+00 0.000000e+00 0.000000e+00 0.000000e+00 0.000000e+00 0.000000e+00 0.000000e+00 0.000000e+00 0.000000e+00 0.000000e+00 8.300360e-01 1.699640e-01
 0.000000e+00 0.000000e+00 0.000000e+00 0.000000e+00 0.000000e+00 0.000000e+00 0.000000e+00 0.000000e+00 0.000000e+00 0.000000e+00 0.000000e+00 0.000000e+00
<ENDHMM>
