~o
<STREAMINFO> 1 39
<VECSIZE> 39<NULLD><MFCC_D_A_0><DIAGC>
~h "left"
<BEGINHMM>
<NUMSTATES> 12
<STATE> 2
<MEAN> 39
 -4.943603e+00 -5.554439e-01 6.922963e-01 3.603449e+00 -2.534764e+00 -5.157789e+00 -6.590008e+00 -1.806322e+00 7.957044e-01 -3.705459e+00 -6.624081e-01 -2.955556e+00 5.963724e+01 9.525852e-01 -5.332658e-01 1.729401e-01 -1.048639e+00 -1.519869e+00 -1.301128e+00 -1.008944e+00 -2.224983e-01 4.615844e-01 -4.932841e-01 -1.951253e-01 -4.881700e-01 2.436866e+00 -2.777649e-01 -2.114783e-01 -5.968935e-02 -2.203779e-01 -1.220467e-01 5.443782e-02 3.658862e-01 3.090014e-01 3.347343e-01 8.992495e-02 6.621529e-02 1.056222e-01 1.436115e-01
<VARIANCE> 39
 4.203920e+01 1.876414e+01 2.352264e+01 2.905749e+01 2.897299e+01 5.131076e+01 3.308666e+01 4.231540e+01 1.647320e+01 2.246000e+01 1.413374e+01 1.422067e+01 4.120463e+01 2.950997e+00 1.979774e+00 9.949333e-01 2.155491e+00 2.638085e+00 3.268194e+00 4.210577e+00 2.604785e+00 3.539248e+00 1.923510e+00 1.285205e+00 1.809316e+00 2.665456e+00 5.375992e-01 3.063180e-01 2.142042e-01 3.916891e-01 5.126700e-01 6.809211e-01 7.288136e-01 4.507000e-01 4.628860e-01 3.281100e-01 2.417974e-01 3.366559e-01 3.517464e-01
<GCONST> 1.132930e+02
<STATE> 3
<MEAN> 39
 -4.423109e+00 -5.260308e+00 -1.169144e+00 -5.798940e+00 -1.149723e+01 -9.621199e+00 -2.762570e+00 -2.260636e-02 9.013155e+00 -7.790439e+00 -2.324086e+00 -5.885444e+00 7.554672e+01 -8.592204e-02 4.064365e-01 -3.702173e-01 1.136560e-01 -1.880631e-01 4.165328e-02 5.446696e-01 -2.227036e-01 -3.210042e-01 -1.029254e-01 -3.431880e-01 -2.073689e-01 2.171498e-01 1.455489e-02 3.201404e-01 1.896961e-01 4.544814e-01 2.597777e-01 3.515574e-02 -4.871396e-02 -3.500366e-01 -5.554134e-01 2.526225e-01 5.760723e-03 -4.356963e-03 -6.217743e-01
<VARIANCE> 39
 4.615426e+01 2.308600e+01 2.618445e+01 3.075961e+01 2.979998e+01 3.538340e+01 1.047137e+02 2.587238e+01 3.949857e+01 1.949297e+01 1.206890e+01 1.503245e+01 1.670174e+01 8.172841e-01 1.684220e+00 1.732256e+00 2.975891e+00 2.798886e+00 1.226567e+00 3.738111e+00 3.381039e+00 4.389699e+00 2.392098e+00 1.238768e+00 1.268323e+00 3.837296e+00 1.558781e-01 1.405773e-01 3.960374e-01 2.776789e-01 4.796427e-01 3.331251e-01 6.948994e-01 4.760111e-01 4.696030e-01 4.210815e-01 2.653084e-01 3.016431e-01 1.612868e-01
<GCONST> 1.098061e+02
<STATE> 4
<MEAN> 39
 -5.307190e+00 2.177430e+00 1.912108e+00 3.879362e+00 -1.051450e+01 -1.074252e+01 -1.645821e+00 -3.760958e+00 -4.091232e+00 -2.184556e+00 -2.435268e+00 -6.541202e+00 6.585571e+01 -2.007698e-01 9.028240e-01 5.293694e-01 6.482721e-01 3.563128e-01 -5.667205e-02 1.965711e-01 -4.817766e-01 -7.679154e-01 4.045635e-01 1.636289e-01 5.171575e-02 -9.466191e-01 -2.936490e-01 1.378424e-02 -2.271709e-01 -2.305637e-01 2.701018e-01 1.048895e-01 4.688803e-02 2.558673e-01 4.032208e-01 -1.633881e-01 7.370425e-02 2.022800e-01 1.528982e-01
<VARIANCE> 39
 2.544900e+01 2.417310e+01 2.975047e+01 2.012426e+01 2.025973e+01 2.034469e+01 3.892817e+01 1.179045e+02 2.543694e+01 1.495004e+01 2.183551e+01 2.161551e+01 9.542397e+00 8.399914e-01 8.481655e-01 2.482101e+00 1.503854e+00 1.926679e+00 1.029935e+00 1.853052e+00 3.466462e+00 3.608797e+00 1.898704e+00 1.409926e+00 1.570085e+00 8.560094e-01 3.584428e-01 1.796043e-01 3.732183e-01 2.376161e-01 4.358748e-01 1.943207e-01 4.447695e-01 5.343350e-01 4.675039e-01 3.263683e-01 2.842208e-01 2.564248e-01 1.489623e-01
<GCONST> 1.039133e+02
<STATE> 5
<MEAN> 39
 -1.609947e+01 8.301911e+00 -3.358860e-02 2.973651e+00 -6.426387e-01 -7.424656e+00 6.279954e-01 -4.923632e+00 -1.788849e+00 -2.583273e+00 2.482825e-01 -2.184940e+00 6.403138e+01 -4.003135e+00 -1.911743e-02 -1.510090e+00 -7.423802e-01 1.859519e+00 8.473843e-01 1.331839e+00 6.244218e-01 1.087536e+00 -2.513772e-02 5.717450e-01 1.087651e+00 7.802554e-01 -2.337447e-02 -3.980818e-01 -8.193295e-02 -1.495198e-01 -3.353751e-01 9.350292e-03 3.683224e-02 1.578466e-02 7.612908e-04 1.172379e-01 -9.299660e-02 -1.895785e-01 2.750023e-01
<VARIANCE> 39
 8.687379e+01 1.375709e+01 2.913525e+01 2.002564e+01 3.488696e+01 3.852131e+01 4.269907e+01 4.316087e+01 2.476862e+01 2.189465e+01 1.907605e+01 2.427410e+01 1.257267e+01 3.573995e+00 2.395431e+00 1.921327e+00 2.347065e+00 5.036038e+00 2.785883e+00 4.522764e+00 3.120717e+00 2.300838e+00 3.014949e+00 2.378195e+00 1.833489e+00 1.096863e+00 1.418162e+00 3.331349e-01 4.063573e-01 3.791032e-01 7.414333e-01 4.879643e-01 7.763914e-01 5.239760e-01 4.223069e-01 5.173849e-01 4.715319e-01 3.316267e-01 2.532407e-01
<GCONST> 1.179772e+02
<STATE> 6
<MEAN> 39
 -2.939922e+01 6.579683e+00 -6.079009e+00 5.306572e-01 1.251225e+00 -4.056180e+00 3.864981e+00 -1.428499e+00 2.399956e+00 -9.085329e-01 8.462940e-01 8.396573e-01 6.768534e+01 8.173099e-02 1.628479e-02 -4.573176e-02 3.364083e-01 -2.447401e-02 6.438043e-01 -1.585030e-01 4.021915e-01 1.616497e-01 1.837597e-01 2.062962e-01 5.537776e-02 -7.243970e-01 4.288390e-01 1.054613e-01 1.584744e-01 1.928298e-01 3.214969e-02 6.946070e-03 -3.438644e-02 2.524530e-02 -4.850313e-02 -3.734482e-04 1.296477e-02 -1.009459e-02 -4.748130e-01
<VARIANCE> 39
 9.568704e+00 1.857990e+01 1.710936e+01 3.490729e+01 1.604380e+01 2.709721e+01 2.304888e+01 2.382148e+01 1.825944e+01 1.654607e+01 1.625248e+01 1.533935e+01 1.905304e+01 1.289906e+00 1.129662e+00 1.073334e+00 1.700425e+00 1.381963e+00 1.276492e+00 1.279148e+00 1.862012e+00 1.488672e+00 1.616875e+00 1.651179e+00 1.322118e+00 2.955634e+00 3.763376e-01 2.146530e-01 2.133206e-01 2.634042e-01 3.438164e-01 2.668570e-01 3.704769e-01 3.519300e-01 3.303492e-01 3.194505e-01 3.412436e-01 2.517363e-01 1.530968e-01
<GCONST> 9.856523e+01
<STATE> 7
<MEAN> 39
 -2.361120e+01 6.806905e+00 -4.324929e+00 4.931558e+00 3.195624e+00 7.593248e-01 5.317091e+00 2.223811e+00 4.814597e+00 1.157246e+00 3.399943e+00 2.184629e+00 5.319153e+01 7.891398e-01 -6.227753e-01 2.680181e-01 -4.182903e-01 -1.565944e-01 -1.808180e-01 1.192587e-02 1.711505e-01 1.989011e-01 2.042748e-01 -2.637217e-02 2.319162e-01 -5.477372e-01 -1.386170e-01 -3.424630e-01 -4.728799e-02 -4.567187e-01 -4.446067e-01 -3.387648e-01 -4.515611e-01 -1.862759e-01 -1.329743e-01 -2.356763e-01 -1.267068e-01 -1.175480e-01 1.247332e+00
<VARIANCE> 39
 1.548060e+01 1.919977e+01 7.033819e+00 1.096195e+01 1.371630e+01 1.508509e+01 1.712283e+01 1.563492e+01 1.678172e+01 1.239092e+01 1.623068e+01 1.451729e+01 1.595374e+01 1.214055e+00 1.653107e+00 7.919469e-01 2.196830e+00 2.122157e+00 1.052350e+00 2.086298e+00 1.352930e+00 1.721728e+00 1.566627e+00 1.293044e+00 1.359154e+00 8.165913e+00 2.127835e-01 2.572135e-01 1.461008e-01 3.392115e-01 3.104686e-01 2.478475e-01 4.016602e-01 3.076808e-01 3.632476e-01 3.585695e-01 2.871363e-01 2.940921e-01 5.960844e-01
<GCONST> 9.736310e+01
<STATE> 8
<MEAN> 39
 -2.044540e+01 4.287651e-01 -2.095841e+00 -8.179879e-01 -1.186663e+00 -2.215276e+00 -9.268038e-01 1.033871e+00 3.803776e+00 -2.839787e-01 1.491360e+00 4.743737e-01 6.312506e+01 2.415159e+00 -1.050505e+00 5.926475e-01 -8.022707e-01 -1.591157e+00 -1.485662e+00 -2.220052e+00 -1.339987e+00 -5.987513e-03 -6.851972e-01 -9.641801e-01 -9.005370e-01 2.577552e+00 7.041174e-01 5.776632e-02 4.971359e-02 1.203937e-01 -2.988777e-01 -3.345782e-01 -3.253288e-01 -3.954388e-01 1.828200e-01 9.782505e-03 -1.829876e-01 -1.473995e-01 -7.398304e-02
<VARIANCE> 39
 3.868060e+01 1.749832e+01 4.303750e+01 2.601579e+01 4.425840e+01 2.730362e+01 2.955584e+01 2.063130e+01 2.634407e+01 2.018453e+01 2.846453e+01 2.469719e+01 1.722522e+01 3.590922e+00 2.580895e+00 3.471277e+00 3.509583e+00 4.925016e+00 5.186103e+00 4.296430e+00 3.037285e+00 2.645502e+00 3.011134e+00 2.291258e+00 1.988673e+00 5.395645e+00 4.299033e-01 4.609783e-01 8.991892e-01 7.520354e-01 8.153151e-01 8.233879e-01 6.522186e-01 4.939851e-01 4.598310e-01 5.206311e-01 3.591202e-01 4.035439e-01 8.739506e-01
<GCONST> 1.231796e+02
<STATE> 9
<MEAN> 39
 -8.091071e+00 -5.331820e+00 -1.551051e-01 -3.460204e+00 -1.272871e+01 -1.265025e+01 -1.129813e+01 -4.320206e+00 3.331007e+00 -3.658083e+00 -3.020378e+00 -1.529262e+00 7.279990e+01 1.642854e+00 -1.360043e+00 1.836434e-01 -3.389462e-02 -2.118630e+00 -5.024507e-01 -8.621222e-01 6.893926e-02 2.381206e-01 -1.140850e-01 -1.727457e-01 -3.244170e-01 9.928928e-01 -5.618174e-01 1.402743e-01 -1.556627e-01 2.249296e-01 3.788933e-01 5.414888e-01 6.178100e-01 4.933210e-01 -1.340633e-02 5.759535e-02 1.167125e-01 1.137601e-01 -5.019785e-01
<VARIANCE> 39
 2.350442e+01 3.838809e+01 3.369420e+01 3.715780e+01 6.085539e+01 6.544862e+01 7.619177e+01 4.255808e+01 4.114416e+01 2.881542e+01 2.669085e+01 2.981152e+01 2.103516e+01 2.255562e+00 1.899359e+00 4.122453e+00 2.578023e+00 4.497711e+00 5.258556e+00 6.668280e+00 3.607355e+00 3.738732e+00 1.913275e+00 2.187342e+00 2.157042e+00 3.397866e+00 3.232663e-01 4.394225e-01 6.303851e-01 3.600566e-01 1.319256e+00 7.655908e-01 1.325499e+00 6.849802e-01 6.330975e-01 4.964154e-01 5.663194e-01 4.253668e-01 9.001037e-01
<GCONST> 1.274890e+02
<STATE> 10
<MEAN> 39
 -2.609243e+00 -7.872464e+00 -2.673326e+00 -3.135535e+00 -1.319437e+01 -7.094862e+00 -8.209139e+00 -2.483717e-01 5.784833e+00 -4.191533e+00 -4.020879e+00 -5.894336e+00 7.133495e+01 -2.994826e-01 4.474881e-01 -8.541849e-02 4.185671e-01 1.257938e+00 5.989239e-01 8.937017e-01 6.411790e-01 -2.856625e-01 -3.140531e-01 -2.815259e-01 1.203462e-01 -1.269650e+00 -2.416325e-01 1.917132e-01 1.492984e-01 1.530059e-01 4.442745e-01 1.084395e-01 1.942774e-01 -2.896563e-02 -4.764045e-02 1.311869e-01 1.296253e-01 1.973886e-01 -3.851528e-01
<VARIANCE> 39
 2.597199e+01 2.119850e+01 1.561230e+01 4.878328e+01 6.138481e+01 3.345572e+01 6.240540e+01 4.468187e+01 3.935080e+01 2.320997e+01 1.508807e+01 4.007614e+01 2.929934e+01 7.444323e-01 1.797554e+00 1.247992e+00 2.010562e+00 3.046974e+00 1.854287e+00 2.180439e+00 2.360126e+00 1.803098e+00 2.499621e+00 1.965289e+00 1.902720e+00 2.324367e+00 1.451373e-01 2.550092e-01 2.366285e-01 3.454273e-01 4.416427e-01 3.131069e-01 3.579345e-01 4.884761e-01 4.014301e-01 4.559270e-01 3.676254e-01 4.168068e-01 1.170291e-01
<GCONST> 1.097903e+02
<STATE> 11
<MEAN> 39
 -1.161920e+01 -2.271970e+00 1.451666e-01 3.063441e+00 3.024266e-01 -1.714730e+00 2.310548e-01 3.472768e+00 3.076370e+00 -1.170546e+00 -1.514263e+00 7.770268e-01 5.513528e+01 -9.270945e-01 2.560114e-01 2.710379e-01 1.593199e-01 9.661408e-01 4.276558e-01 6.861933e-01 1.040948e-01 8.577371e-02 8.447429e-01 7.091857e-01 5.010921e-01 -1.576186e+00 1.275217e-01 -1.063372e-01 -7.923272e-02 -1.716569e-01 -3.473789e-01 -1.361169e-01 -2.155940e-01 -7.683812e-02 1.591501e-02 -4.563254e-02 -7.745828e-03 -1.516510e-01 3.020014e-01
<VARIANCE> 39
 2.042492e+01 1.578088e+01 1.622067e+01 2.353951e+01 2.774023e+01 2.048507e+01 4.540974e+01 3.314871e+01 1.856164e+01 3.341018e+01 2.148742e+01 2.348563e+01 3.314272e+01 1.384708e+00 1.193144e+00 1.040014e+00 1.795179e+00 4.296469e+00 2.357344e+00 3.997277e+00 2.667838e+00 2.653227e+00 2.717761e+00 1.823667e+00 2.832513e+00 1.722764e+00 2.177172e-01 2.352568e-01 1.867086e-01 3.369684e-01 4.887660e-01 3.834080e-01 6.357027e-01 5.234493e-01 4.302972e-01 5.517203e-01 4.028070e-01 4.596289e-01 1.692695e-01
<GCONST> 1.097685e+02
<TRANSP> 12
 0.000000e+00 1.000000e+00 0.000000e+00 0.000000e+00 0.000000e+00 0.000000e+00 0.000000e+00 0.000000e+00 0.000000e+00 0.000000e+00 0.000000e+00 0.000000e+00
 0.000000e+00 8.527936e-01 1.472064e-01 0.000000e+00 0.000000e+00 0.000000e+00 0.000000e+00 0.000000e+00 0.000000e+00 0.000000e+00 0.000000e+00 0.000000e+00
 0.000000e+00 0.000000e+00 8.690050e-01 1.309950e-01 0.000000e+00 0.000000e+00 0.000000e+00 0.000000e+00 0.000000e+00 0.000000e+00 0.000000e+00 0.000000e+00
 0.000000e+00 0.000000e+00 0.000000e+00 8.798265e-01 1.201735e-01 0.000000e+00 0.000000e+00 0.000000e+00 0.000000e+00 0.000000e+00 0.000000e+00 0.000000e+00
 0.000000e+00 0.000000e+00 0.000000e+00 0.000000e+00 8.084109e-01 1.915890e-01 0.000000e+00 0.000000e+00 0.000000e+00 0.000000e+00 0.000000e+00 0.000000e+00
 0.000000e+00 0.000000e+00 0.000000e+00 0.000000e+00 0.000000e+00 8.897646e-01 1.102354e-01 0.000000e+00 0.000000e+00 0.000000e+00 0.000000e+00 0.000000e+00
 0.000000e+00 0.000000e+00 0.000000e+00 0.000000e+00 0.000000e+00 0.000000e+00 8.018036e-01 1.981964e-01 0.000000e+00 0.000000e+00 0.000000e+00 0.000000e+00
 0.000000e+00 0.000000e+00 0.000000e+00 0.000000e+00 0.000000e+00 0.000000e+00 0.000000e+00 7.603994e-01 2.396005e-01 0.000000e+00 0.000000e+00 0.000000e+00
 0.000000e+00 0.000000e+00 0.000000e+00 0.000000e+00 0.000000e+00 0.000000e+00 0.000000e+00 0.000000e+00 8.141310e-01 1.858691e-01 0.000000e+00 0.000000e+00
 0.000000e+00 0.000000e+00 0.000000e+00 0.000000e+00 0.000000e+00 0.000000e+00 0.000000e+00 0.000000e+00 0.000000e+00 8.789417e-01 1.210584e-01 0.000000e+00
 0.000000e+00 0.000000e+00 0.000000e+00 0.000000e+00 0.000000e+00 0.000000e+00 0.000000e+00 0.000000e+00 0.000000e+00 0.000000e+00 8.721397e-01 1.278603e-01
 0.000000e+00 0.000000e+00 0.000000e+00 0.000000e+00 0.000000e+00 0.000000e+00 0.000000e+00 0.000000e+00 0.000000e+00 0.000000e+00 0.000000e+00 0.000000e+00
<ENDHMM>
