~o
<STREAMINFO> 1 39
<VECSIZE> 39<NULLD><MFCC_D_A_0><DIAGC>
~h "right"
<BEGINHMM>
<NUMSTATES> 12
<STATE> 2
<MEAN> 39
 -1.319306e+01 -8.398721e+00 1.626543e+00 -1.045794e+00 -4.537871e+00 -2.220310e+00 6.052063e+00 6.498292e+00 3.654166e+00 -3.771096e+00 -1.896113e+00 9.859103e-01 5.944529e+01 6.217052e-01 4.750241e-02 -1.980221e-02 4.497215e-02 -1.096964e+00 -8.706204e-01 -2.203094e-01 -2.110348e-01 1.739916e-01 -3.763595e-01 2.322125e-02 -6.793501e-01 1.434252e+00 3.128370e-01 2.999613e-01 1.101641e-01 -1.582250e-02 -1.922401e-01 -2.279473e-01 -3.436078e-01 -2.548737e-01 -8.098876e-02 1.176446e-01 1.766336e-01 -1.454240e-01 2.028634e-01
<VARIANCE> 39
 2.782845e+01 2.768394e+01 1.457621e+01 1.965026e+01 2.926300e+01 1.950305e+01 3.342760e+01 3.223030e+01 2.000086e+01 2.356912e+01 2.281452e+01 2.390828e+01 3.093120e+01 1.523708e+00 2.587187e+00 1.458820e+00 2.193595e+00 2.106562e+00 1.909859e+00 2.831757e+00 2.312456e+00 2.272135e+00 1.942444e+00 1.967954e+00 2.198684e+00 1.288665e+00 1.796340e-01 3.473366e-01 2.553482e-01 6.127007e-01 3.125729e-01 4.253417e-01 4.669240e-01 3.861923e-01 4.603449e-01 3.996765e-01 4.029361e-01 3.983942e-01 2.238112e-01
<GCONST> 1.088300e+02
<STATE> 3
<MEAN> 39
 -5.909060e+00 -4.636676e+00 2.842929e+00 -3.518283e+00 -1.310246e+01 -1.035040e+01 -3.650821e-01 2.213011e+00 2.855275e+00 -5.266651e+00 2.238819e-01 -3.560776e+00 7.002776e+01 1.387108e+00 -5.227301e-01 6.876599e-01 -1.721277e+00 -2.366377e+00 -2.159946e+00 -1.887734e+00 -6.592853e-01 -2.600360e-01 -1.038745e-01 1.167296e+00 -2.389332e-01 3.043941e+00 -6.786386e-01 -5.037494e-01 2.240254e-02 -7.014635e-02 2.373264e-01 4.206479e-01 2.317180e-01 2.130320e-01 3.606718e-02 8.840531e-02 1.092035e-01 4.118193e-01 -4.064946e-01
<VARIANCE> 39
 3.536716e+01 1.967441e+01 1.359168e+01 4.419362e+01 4.397353e+01 1.861680e+01 6.048349e+01 2.605025e+01 3.786542e+01 1.178133e+01 1.332160e+01 8.859773e+00 2.441642e+01 1.496536e+00 1.554538e+00 1.227552e+00 2.463368e+00 2.444256e+00 1.749126e+00 1.554976e+00 1.690046e+00 2.874181e+00 1.513700e+00 1.287710e+00 9.797692e-01 1.536219e+00 1.113015e-01 2.854021e-01 1.707074e-01 5.052037e-01 4.174498e-01 3.856632e-01 2.706712e-01 2.700860e-01 2.904508e-01 3.009767e-01 2.380087e-01 1.643523e-01 3.645981e-01
<GCONST> 1.022298e+02
<STATE> 4
<MEAN> 39
 -6.683889e+00 -7.778676e+00 5.576125e+00 -4.770287e+00 -1.757886e+01 -1.339857e+01 -1.974046e+00 -6.165204e-01 2.261562e+00 -5.359856e+00 4.152133e+00 -2.288814e+00 7.519144e+01 -9.465914e-02 1.388139e-01 9.859746e-01 -2.086156e-02 -9.614254e-01 -1.404707e-01 -3.505042e-01 -9.953654e-01 -5.396056e-01 -5.884686e-02 7.694768e-01 2.920353e-01 1.286432e-01 -6.453220e-02 3.372418e-01 6.478728e-02 2.107672e-01 1.934948e-01 3.189569e-01 1.878626e-01 -1.852040e-01 -1.360583e-01 -2.037510e-02 -1.590319e-01 2.486796e-02 -4.619243e-01
<VARIANCE> 39
 3.794058e+01 1.141550e+01 1.511232e+01 4.428843e+01 2.709044e+01 1.130581e+01 6.544532e+01 3.948690e+01 6.196158e+01 1.799186e+01 1.200653e+01 5.686617e+00 1.166528e+01 2.613974e-01 9.717650e-01 7.601211e-01 9.113207e-01 1.162055e+00 9.103214e-01 7.096670e-01 7.779675e-01 1.049210e+00 9.311545e-01 5.876732e-01 5.475027e-01 5.426031e-01 8.128032e-02 1.373819e-01 1.208806e-01 2.336759e-01 2.219099e-01 1.593531e-01 1.615278e-01 1.726102e-01 1.980732e-01 1.472803e-01 1.299627e-01 6.334288e-02 1.487945e-01
<GCONST> 8.226586e+01
<STATE> 5
<MEAN> 39
 -5.834794e+00 -4.670323e+00 1.310112e+01 -3.603597e+00 -2.251504e+01 -8.940267e+00 -1.489249e+00 -1.152993e+01 2.223437e+00 -9.052267e+00 5.162210e+00 3.474979e-01 7.405128e+01 -3.419486e-01 5.867560e-01 9.391307e-01 -1.178548e-01 4.263539e-02 6.245663e-01 -3.044518e-01 -8.842428e-01 -6.784661e-01 -1.679899e-01 -3.446624e-01 1.517437e-01 -3.355536e-01 -2.457549e-02 -2.524137e-02 -1.060082e-01 1.618210e-02 1.375143e-01 -4.506783e-02 -2.014189e-02 2.002389e-01 3.709164e-03 -1.370811e-03 -7.070033e-02 -2.301676e-02 1.509993e-02
<VARIANCE> 39
 5.300063e+01 1.433237e+01 3.480382e+01 2.707134e+01 2.173124e+01 2.923413e+01 3.030987e+01 3.813164e+01 4.905874e+01 2.979443e+01 1.067231e+01 1.906506e+01 8.051510e+00 3.289329e-01 6.535488e-01 1.169137e+00 1.101579e+00 1.403240e+00 1.798557e+00 1.233546e+00 1.472200e+00 9.332182e-01 7.104568e-01 7.522700e-01 6.658164e-01 2.914531e-01 4.537694e-02 1.241751e-01 2.404612e-01 2.291422e-01 2.777224e-01 3.586089e-01 2.330173e-01 1.934258e-01 1.578195e-01 1.392796e-01 1.520538e-01 1.034157e-01 3.457689e-02
<GCONST> 8.643827e+01
<STATE> 6
<MEAN> 39
 -1.066789e+01 1.225549e+00 1.477561e+01 -4.888297e+00 -1.882024e+01 -7.291286e+00 -7.414462e+00 -5.537509e+00 -8.453120e+00 -4.886044e+00 3.998962e+00 -3.806429e+00 6.790012e+01 -9.546638e-02 2.657140e-01 -2.080864e-03 2.723546e-01 -1.398849e-02 -6.824521e-02 1.266753e-02 -1.329577e-01 -1.415046e-02 -1.793632e-01 4.784597e-02 -2.055185e-02 -1.348012e-01 1.955882e-02 -7.450689e-02 -1.750810e-01 1.131413e-01 1.189720e-02 -7.732767e-02 1.402498e-02 6.024462e-02 1.688754e-01 -1.347545e-02 -5.661736e-02 7.097857e-02 3.308395e-02
<VARIANCE> 39
 7.161632e+00 9.021731e+00 1.821032e+01 5.876633e+01 1.008541e+01 5.274211e+01 5.418924e+01 8.502529e+01 3.133270e+01 1.442436e+01 1.662496e+01 1.657280e+01 2.285688e+01 1.206191e-01 4.669446e-01 1.233944e+00 6.368786e-01 6.453514e-01 1.382415e+00 7.359688e-01 8.647063e-01 1.553285e+00 6.433479e-01 7.612566e-01 9.102882e-01 2.410784e-01 1.940898e-02 5.234312e-02 1.001420e-01 1.603336e-01 1.331215e-01 1.766465e-01 1.470737e-01 1.759533e-01 2.234394e-01 1.130693e-01 1.575333e-01 1.592468e-01 3.275570e-02
<GCONST> 7.771024e+01
<STATE> 7
<MEAN> 39
 -1.257949e+01 -6.568781e-01 1.029513e+01 -4.806254e-01 -1.612803e+01 -8.238151e+00 -6.386007e+00 -6.281706e+00 -2.277260e+00 -7.023501e+00 7.935820e-01 1.197888e+00 6.841097e+01 2.608960e-01 -6.921519e-01 -6.629642e-01 6.324562e-01 1.903035e-01 1.667091e-01 -3.456205e-01 3.590513e-01 9.130222e-01 8.044648e-02 -6.064159e-01 6.317143e-01 -2.091588e-01 2.898795e-01 -2.707654e-01 -2.728690e-02 -1.756220e-01 -3.758970e-01 -1.007968e-01 -2.273895e-02 -2.654377e-02 8.827492e-02 -3.995296e-02 1.373203e-01 -1.007668e-01 2.184419e-01
<VARIANCE> 39
 2.811302e+01 1.901989e+01 2.715932e+01 3.254034e+01 4.346560e+01 5.373183e+01 4.222324e+01 3.660957e+01 2.862199e+01 2.969248e+01 2.098977e+01 1.894259e+01 3.452036e+01 3.437549e+00 2.152728e+00 2.338434e+00 2.650280e+00 8.156720e+00 5.291095e+00 3.115175e+00 3.041870e+00 2.987927e+00 2.584344e+00 2.730711e+00 2.608665e+00 4.045344e+00 5.983812e-01 3.045470e-01 5.046026e-01 4.433895e-01 1.645182e+00 1.068473e+00 6.530357e-01 5.017128e-01 4.641002e-01 5.856515e-01 5.447955e-01 4.686114e-01 8.442898e-01
<GCONST> 1.247699e+02
<STATE> 8
<MEAN> 39
 -2.124604e+00 -7.853761e+00 9.862311e+00 2.313595e+00 -2.013260e+01 -9.254697e+00 -4.590835e+00 -9.643021e+00 7.173512e+00 -5.678554e+00 -2.253321e+00 3.301553e+00 7.082602e+01 6.460711e-01 -1.053704e+00 -8.742567e-01 -1.572052e-01 -6.126433e-01 -3.560100e-01 -2.298884e-01 4.336979e-01 7.764673e-01 2.417962e-01 -5.832558e-02 -4.911291e-01 7.020301e-01 -2.792257e-01 1.953099e-01 6.866286e-02 -1.686136e-01 5.010084e-01 1.888530e-01 2.122103e-02 2.322333e-01 -1.132707e-01 7.975820e-02 -4.934735e-02 -1.771763e-01 -1.722273e-01
<VARIANCE> 39
 2.346445e+01 2.090700e+01 5.756612e+01 3.485421e+01 3.557625e+01 1.683239e+01 4.074899e+01 4.438243e+01 3.083727e+01 5.697160e+01 2.259918e+01 2.637586e+01 1.475705e+01 1.297940e+00 1.570392e+00 1.679882e+00 1.197692e+00 3.871591e+00 1.699275e+00 2.201755e+00 1.393206e+00 2.237696e+00 3.254892e+00 1.370788e+00 1.805101e+00 1.294559e+00 2.464601e-01 3.203907e-01 2.572452e-01 2.216745e-01 6.552569e-01 3.635133e-01 3.074821e-01 2.491395e-01 3.869310e-01 4.166962e-01 1.560696e-01 2.387278e-01 2.878307e-01
<GCONST> 1.077243e+02
<STATE> 9
<MEAN> 39
 -3.426562e-01 -1.261597e+01 4.029557e+00 -3.824123e+00 -1.666186e+01 -9.020144e+00 -3.974439e+00 -6.573640e+00 6.959345e+00 -4.703073e+00 -4.888358e+00 -1.174996e+00 7.417979e+01 1.778733e-02 3.057312e-01 -9.799169e-01 -2.130013e-01 8.582754e-01 2.588612e-01 5.594394e-02 7.645113e-01 -2.438515e-01 -3.900222e-01 -1.963577e-01 -6.305822e-01 -3.859214e-01 -1.444485e-01 3.335186e-01 6.613620e-02 1.575071e-01 3.244031e-01 8.527842e-02 1.370488e-01 -8.226918e-03 -1.360619e-01 3.820474e-02 -7.765359e-02 -1.812442e-02 -3.597997e-01
<VARIANCE> 39
 3.936856e+01 1.560646e+01 3.843074e+01 2.235537e+01 5.118122e+01 2.651036e+01 6.352716e+01 4.469407e+01 3.848985e+01 3.893988e+01 2.827462e+01 4.141471e+01 9.258988e+00 2.609340e-01 1.231752e+00 6.447238e-01 1.392461e+00 1.615610e+00 1.022879e+00 1.934879e+00 1.450411e+00 1.229202e+00 1.976780e+00 1.145238e+00 1.281125e+00 7.922147e-01 9.726349e-02 1.518707e-01 1.804348e-01 1.283128e-01 3.624069e-01 2.601297e-01 5.079800e-01 2.010058e-01 2.744370e-01 2.492107e-01 2.804667e-01 2.355994e-01 1.184197e-01
<GCONST> 9.779422e+01
<STATE> 10
<MEAN> 39
 -6.299921e+00 -3.973358e+00 -1.028383e+00 -2.171883e+00 -1.299621e+01 -8.606737e+00 -6.943377e+00 2.391646e+00 4.959024e+00 -7.046277e+00 -2.404710e+00 -3.706500e+00 6.595464e+01 -1.006876e+00 1.183590e+00 1.832596e-01 8.029028e-01 2.313604e+00 9.454601e-01 1.505190e+00 4.412968e-01 -1.422054e-01 7.272207e-01 -4.594839e-01 4.329095e-01 -2.441820e+00 -3.018395e-01 -1.388765e-01 2.103634e-01 2.371585e-01 2.168406e-01 3.527051e-01 2.903003e-01 -1.737667e-01 1.039672e-02 2.658638e-01 1.846669e-01 3.521765e-01 -3.078083e-01
<VARIANCE> 39
 2.230615e+01 2.447582e+01 1.795624e+01 4.614676e+01 4.166127e+01 3.093078e+01 6.559635e+01 5.755470e+01 2.604647e+01 3.101991e+01 3.664289e+01 4.355335e+01 3.666800e+01 1.042722e+00 1.704914e+00 1.011397e+00 2.590547e+00 2.674762e+00 2.606544e+00 3.447851e+00 2.152396e+00 2.202763e+00 1.992079e+00 2.864035e+00 1.648159e+00 2.664821e+00 1.183130e-01 4.241747e-01 1.900085e-01 4.681327e-01 4.080670e-01 3.414747e-01 7.055950e-01 4.755042e-01 4.245868e-01 4.545602e-01 5.813592e-01 3.172573e-01 3.007750e-01
<GCONST> 1.142529e+02
<STATE> 11
<MEAN> 39
 -1.322823e+01 -3.042781e+00 4.917093e-01 1.037770e+00 -6.673905e-01 -3.469909e-01 9.104730e-02 1.509577e+00 3.455728e+00 -1.906643e+00 -1.583379e+00 1.150194e+00 5.399263e+01 -7.941589e-01 -7.570862e-03 -7.104246e-02 -1.571904e-01 8.191792e-01 5.230520e-01 3.129919e-01 -1.188784e-01 -1.141072e-01 9.264053e-01 7.465321e-01 4.428246e-01 -1.065398e+00 2.006528e-01 1.827852e-02 -3.636914e-02 -1.322899e-01 -3.860517e-01 -2.638856e-01 -2.099737e-01 -4.271497e-02 -3.738300e-02 -1.808883e-01 -3.995504e-02 -1.146062e-01 3.449856e-01
<VARIANCE> 39
 2.164087e+01 1.437295e+01 1.799243e+01 2.397895e+01 2.203177e+01 1.633856e+01 3.935285e+01 4.293004e+01 1.529682e+01 2.694522e+01 2.627700e+01 1.929581e+01 2.350361e+01 9.381260e-01 1.385317e+00 1.109787e+00 1.742210e+00 3.559492e+00 2.246624e+00 3.003154e+00 1.819273e+00 1.602391e+00 2.286165e+00 1.787047e+00 1.918501e+00 1.433892e+00 9.489486e-02 2.656715e-01 1.901278e-01 3.980216e-01 5.409265e-01 3.357688e-01 5.381542e-01 3.426033e-01 2.882100e-01 3.626212e-01 3.580670e-01 3.011852e-01 2.427397e-01
<GCONST> 1.042393e+02
<TRANSP> 12
 0.000000e+00 1.000000e+00 0.000000e+00 0.000000e+00 0.000000e+00 0.000000e+00 0.000000e+00 0.000000e+00 0.000000e+00 0.000000e+00 0.000000e+00 0.000000e+00
 0.000000e+00 8.414282e-01 1.585718e-01 0.000000e+00 0.000000e+00 0.000000e+00 0.000000e+00 0.000000e+00 0.000000e+00 0.000000e+00 0.000000e+00 0.000000e+00
 0.000000e+00 0.000000e+00 6.589255e-01 3.410746e-01 0.000000e+00 0.000000e+00 0.000000e+00 0.000000e+00 0.000000e+00 0.000000e+00 0.000000e+00 0.000000e+00
 0.000000e+00 0.000000e+00 0.000000e+00 7.745805e-01 2.254195e-01 0.000000e+00 0.000000e+00 0.000000e+00 0.000000e+00 0.000000e+00 0.000000e+00 0.000000e+00
 0.000000e+00 0.000000e+00 0.000000e+00 0.000000e+00 8.320311e-01 1.679689e-01 0.000000e+00 0.000000e+00 0.000000e+00 0.000000e+00 0.000000e+00 0.000000e+00
 0.000000e+00 0.000000e+00 0.000000e+00 0.000000e+00 0.000000e+00 8.844001e-01 1.155999e-01 0.000000e+00 0.000000e+00 0.000000e+00 0.000000e+00 0.000000e+00
 0.000000e+00 0.000000e+00 0.000000e+00 0.000000e+00 0.000000e+00 0.000000e+00 8.464164e-01 1.535837e-01 0.000000e+00 0.000000e+00 0.000000e+00 0.000000e+00
 0.000000e+00 0.000000e+00 0.000000e+00 0.000000e+00 0.000000e+00 0.000000e+00 0.000000e+00 7.901266e-01 2.098734e-01 0.000000e+00 0.000000e+00 0.000000e+00
 0.000000e+00 0.000000e+00 0.000000e+00 0.000000e+00 0.000000e+00 0.000000e+00 0.000000e+00 0.000000e+00 8.190041e-01 1.809959e-01 0.000000e+00 0.000000e+00
 0.000000e+00 0.000000e+00 0.000000e+00 0.000000e+00 0.000000e+00 0.000000e+00 0.000000e+00 0.000000e+00 0.000000e+00 7.931385e-01 2.068615e-01 0.000000e+00
 0.000000e+00 0.000000e+00 0.000000e+00 0.000000e+00 0.000000e+00 0.000000e+00 0.000000e+00 0.000000e+00 0.000000e+00 0.000000e+00 8.443982e-01 1.556018e-01
 0.000000e+00 0.000000e+00 0.000000e+00 0.000000e+00 0.000000e+00 0.000000e+00 0.000000e+00 0.000000e+00 0.000000e+00 0.000000e+00 0.000000e+00 0.000000e+00
<ENDHMM>
