~o
<STREAMINFO> 1 39
<VECSIZE> 39<NULLD><MFCC_D_A_0><DIAGC>
~h "sil"
<BEGINHMM>
<NUMSTATES> 5
<STATE> 2
<MEAN> 39
 -1.404593e+01 -3.474692e+00 -6.983939e-01 6.867424e-01 1.395756e+00 -1.333122e+00 1.024965e+00 5.712691e-01 1.323284e+00 2.035491e-01 1.387732e+00 3.906227e-01 5.163537e+01 -4.203748e-02 8.643954e-02 2.192858e-02 5.313952e-02 3.552481e-02 5.890507e-02 7.462335e-02 1.039928e-02 -3.242258e-02 7.682964e-03 3.616782e-02 1.938394e-02 -1.069748e-01 7.677501e-03 -4.795962e-03 -4.053427e-03 -3.794316e-03 -3.542157e-03 9.550165e-04 -5.381605e-03 9.585856e-03 1.092042e-02 -5.302781e-03 -7.759218e-03 -4.420587e-03 1.888654e-02
<VARIANCE> 39
 1.055871e+01 1.754920e+01 1.103163e+01 1.502867e+01 1.467397e+01 1.499202e+01 2.025061e+01 2.338652e+01 1.873030e+01 1.913462e+01 1.741419e+01 1.564586e+01 1.119066e+01 2.674505e-01 4.460071e-01 6.413538e-01 8.234764e-01 1.029599e+00 1.204855e+00 1.479248e+00 1.596348e+00 1.483211e+00 1.545986e+00 1.469450e+00 1.305318e+00 3.178660e-01 5.087412e-02 7.888351e-02 1.270699e-01 1.688894e-01 2.101615e-01 2.394741e-01 3.017005e-01 3.230495e-01 3.050279e-01 3.093632e-01 3.041177e-01 2.633375e-01 5.965554e-02
<GCONST> 8.373167e+01
<STATE> 3
<MEAN> 39
 -1.578411e+01 1.709451e+00 1.536994e+00 2.581862e+00 2.981328e+00 2.628457e+00 3.597008e+00 4.037732e+00 3.388860e+00 3.557485e+00 3.665469e+00 2.432123e+00 4.644641e+01 -8.238380e-03 9.078798e-03 2.043471e-03 4.924438e-03 4.138005e-03 1.801758e-02 1.125782e-02 2.606154e-02 1.004753e-02 6.838019e-03 1.433476e-03 -1.906781e-02 -1.881271e-02 1.816159e-03 -6.170065e-03 -3.554963e-03 -1.236418e-03 -1.082028e-02 -8.471413e-03 -5.958502e-03 -5.828642e-04 -2.821376e-03 -7.169384e-03 -5.273054e-03 -3.537698e-03 1.265500e-02
<VARIANCE> 39
 4.295569e+00 6.030376e+00 5.098001e+00 6.294951e+00 8.557714e+00 1.101712e+01 1.115422e+01 1.319809e+01 1.437207e+01 1.305269e+01 1.201782e+01 1.110334e+01 2.975588e+00 1.436253e-01 2.580279e-01 3.885601e-01 5.586474e-01 7.337372e-01 9.144221e-01 1.061278e+00 1.185122e+00 1.259365e+00 1.275783e+00 1.192201e+00 1.134777e+00 8.795726e-02 2.895308e-02 5.197046e-02 7.958813e-02 1.153350e-01 1.502562e-01 1.913487e-01 2.203856e-01 2.433092e-01 2.596766e-01 2.635717e-01 2.443063e-01 2.369682e-01 1.827869e-02
<GCONST> 6.531194e+01
<STATE> 4
<MEAN> 39
 -1.641976e+01 -1.866168e-01 8.172355e-01 2.051386e+00 2.409516e+00 1.348625e+00 2.918424e+00 3.958655e+00 3.374593e+00 2.419783e+00 3.310681e+00 2.217128e+00 4.946604e+01 1.637273e-01 -2.987499e-02 -1.758037e-03 -4.518155e-02 -2.790552e-01 -1.503694e-01 -5.702641e-02 -7.867078e-02 -9.363893e-02 -1.797032e-01 -1.447531e-01 -8.731329e-02 3.121066e-01 8.719580e-02 9.181501e-03 5.213567e-03 -6.239536e-02 -1.066116e-01 -4.753051e-02 -3.283152e-02 -6.543466e-02 -3.876844e-02 -5.657473e-02 -2.123343e-02 -3.409388e-02 1.188295e-01
<VARIANCE> 39
 1.632584e+01 2.065026e+01 1.494006e+01 1.756946e+01 1.800422e+01 1.896394e+01 2.032870e+01 2.014851e+01 1.883576e+01 1.889648e+01 1.852226e+01 1.496168e+01 2.818492e+01 1.513311e+00 1.462168e+00 1.322561e+00 1.911731e+00 2.063913e+00 1.915084e+00 2.096094e+00 2.190020e+00 2.105362e+00 1.862303e+00 1.914179e+00 1.595578e+00 2.557255e+00 2.785347e-01 2.681194e-01 2.440339e-01 3.701729e-01 3.801405e-01 3.449067e-01 4.089029e-01 4.245407e-01 4.269637e-01 3.541186e-01 3.804266e-01 3.168941e-01 4.480995e-01
<GCONST> 1.042070e+02
<TRANSP> 5
 0.000000e+00 1.000000e+00 0.000000e+00 0.000000e+00 0.000000e+00
 0.000000e+00 9.602907e-01 3.970927e-02 0.000000e+00 0.000000e+00
 0.000000e+00 0.000000e+00 9.715214e-01 2.847856e-02 0.000000e+00
 0.000000e+00 0.000000e+00 0.000000e+00 9.226765e-01 7.732355e-02
 0.000000e+00 0.000000e+00 0.000000e+00 0.000000e+00 0.000000e+00
<ENDHMM>
