~o
<STREAMINFO> 1 39
<VECSIZE> 39<NULLD><MFCC_D_A_0><DIAGC>
~h "up"
<BEGINHMM>
<NUMSTATES> 12
<STATE> 2
<MEAN> 39
 -9.597094e+00 4.567269e+00 -2.835278e+00 -8.918980e+00 -8.308683e+00 2.749989e+00 1.787192e+00 -2.402209e-01 -5.157011e-01 -2.024345e+00 1.695911e+00 3.349869e-01 5.548796e+01 2.580371e+00 7.999208e-01 -1.052285e+00 -3.865644e+00 -4.356986e+00 2.501350e-01 -6.236182e-01 -1.852917e+00 -1.071138e+00 -1.868668e+00 -4.538920e-01 -1.088938e+00 3.565132e+00 -5.563013e-03 -1.718038e-01 6.276175e-02 3.951150e-02 -1.311213e-01 1.309406e-02 -1.072348e-01 -2.127021e-01 9.317068e-02 -1.024810e-01 -5.619963e-02 -5.584744e-02 3.154558e-01
<VARIANCE> 39
 4.047886e+01 2.395958e+01 1.730718e+01 7.757716e+01 8.888097e+01 5.079050e+01 2.470118e+01 3.495082e+01 4.597192e+01 4.053416e+01 2.430673e+01 2.679067e+01 4.613120e+01 2.282896e+00 2.037472e+00 1.940537e+00 4.740315e+00 6.428356e+00 3.921312e+00 2.262762e+00 3.611576e+00 5.059589e+00 3.891034e+00 2.927205e+00 2.507442e+00 3.847904e+00 6.380485e-01 3.693312e-01 2.794157e-01 1.302681e+00 1.132980e+00 4.797965e-01 3.438289e-01 5.315737e-01 6.118842e-01 5.685195e-01 4.019945e-01 3.852836e-01 6.041858e-01
<GCONST> 1.259879e+02
<STATE> 3
<MEAN> 39
 -2.072802e+00 5.989948e+00 -6.072552e+00 -1.883243e+01 -2.223578e+01 1.178968e+00 2.855680e-01 -5.972936e+00 -4.174044e+00 -6.794773e+00 -1.930151e+00 -3.140984e+00 6.833909e+01 1.241866e-02 1.897957e-01 6.109405e-02 2.554075e-01 2.918214e-01 -4.570608e-01 -1.163665e-01 -1.263406e-02 1.043114e-01 -9.149921e-02 -4.377275e-01 -1.356306e-01 7.473790e-02 -4.595948e-01 -5.781401e-02 2.473666e-01 9.139606e-01 1.098665e+00 -5.899892e-02 1.219955e-01 4.869658e-01 1.305160e-01 3.186406e-01 4.606863e-02 1.384433e-01 -9.078248e-01
<VARIANCE> 39
 1.021883e+01 1.524584e+01 2.203539e+01 2.713954e+01 3.870293e+01 1.058719e+02 3.869606e+01 6.003215e+01 1.047322e+02 5.272174e+01 3.590160e+01 2.396713e+01 1.742770e+01 7.191504e-01 7.546033e-01 7.958964e-01 3.440291e+00 4.990050e+00 1.722943e+00 1.373427e+00 3.037392e+00 1.346045e+00 1.480320e+00 1.661954e+00 9.119666e-01 3.031229e+00 2.593803e-01 2.003948e-01 2.031841e-01 6.470837e-01 5.336608e-01 3.384060e-01 3.081904e-01 5.286664e-01 4.046887e-01 3.626395e-01 3.450477e-01 2.396770e-01 2.954067e-01
<GCONST> 1.094675e+02
<STATE> 4
<MEAN> 39
 -4.833312e+00 5.932324e+00 -1.837649e+00 -8.826167e+00 -8.683613e+00 -1.711480e+00 3.688253e-01 -2.556824e+00 -2.369896e+00 -6.323366e+00 -3.227288e+00 -4.502254e+00 6.123466e+01 -2.722828e+00 -1.030875e+00 1.850614e+00 4.609589e+00 4.915914e+00 1.231445e-01 8.022668e-01 1.671958e+00 1.052837e+00 1.283553e+00 4.301833e-01 6.340770e-01 -3.956686e+00 -4.686867e-01 -3.161759e-01 -4.540980e-02 -3.041666e-01 -4.475603e-01 4.613377e-01 3.059133e-01 4.461301e-02 5.368940e-01 4.238157e-01 5.395551e-01 4.566128e-01 -2.149541e-01
<VARIANCE> 39
 2.811246e+01 1.697800e+01 2.442820e+01 3.801746e+01 4.670035e+01 3.186370e+01 2.271945e+01 2.199922e+01 5.136982e+01 2.102045e+01 1.754236e+01 2.135145e+01 3.493597e+01 8.817868e-01 1.531084e+00 2.013932e+00 2.417170e+00 4.163260e+00 4.705596e+00 2.660016e+00 3.383042e+00 4.885874e+00 3.229857e+00 2.532381e+00 1.981431e+00 1.402020e+00 3.202500e-01 3.741298e-01 4.692005e-01 9.257293e-01 1.205525e+00 3.429329e-01 2.913475e-01 4.743212e-01 4.288467e-01 3.640773e-01 4.044837e-01 2.370672e-01 4.387103e-01
<GCONST> 1.155834e+02
<STATE> 5
<MEAN> 39
 -1.329669e+01 2.103202e+00 7.281601e-01 -1.128947e+00 -1.161774e+00 1.937503e+00 4.156120e+00 2.641987e+00 4.619678e+00 3.725016e-01 1.730534e+00 8.433971e-01 5.028139e+01 -1.289394e+00 -8.455467e-01 -1.484282e-02 9.740233e-01 9.297717e-01 5.899073e-01 6.344977e-01 1.249965e+00 1.502473e+00 1.788506e+00 1.423515e+00 1.245605e+00 -1.799281e+00 6.585654e-01 2.016927e-01 -3.165823e-01 -7.589672e-01 -7.145517e-01 -2.007277e-01 -3.219318e-01 -3.963364e-01 -4.128732e-01 -3.732980e-01 -2.389022e-01 -2.571659e-01 8.672758e-01
<VARIANCE> 39
 1.622163e+01 9.632721e+00 7.881421e+00 1.328733e+01 1.208912e+01 1.937526e+01 1.844135e+01 2.498189e+01 3.158779e+01 2.382060e+01 1.847957e+01 1.540337e+01 1.226882e+01 1.344356e+00 1.181863e+00 1.292353e+00 1.507795e+00 2.599806e+00 1.477315e+00 1.789093e+00 1.737497e+00 2.087961e+00 1.715965e+00 1.679214e+00 1.648726e+00 1.906643e+00 1.160498e-01 1.941917e-01 2.886571e-01 4.044436e-01 7.018772e-01 3.599694e-01 3.592637e-01 3.806251e-01 4.324005e-01 4.404101e-01 3.824302e-01 2.942467e-01 1.325476e-01
<GCONST> 9.913093e+01
<STATE> 6
<MEAN> 39
 -1.505723e+01 1.029399e+00 7.361273e-01 8.865494e-01 1.489949e+00 1.849853e+00 3.236222e+00 2.994156e+00 3.958953e+00 2.762088e+00 3.001231e+00 2.239734e+00 4.819056e+01 -1.008291e-01 -4.495961e-02 2.987597e-02 1.688285e-01 2.755480e-01 4.348207e-02 -3.215995e-02 -4.100671e-02 -1.545727e-01 8.797602e-02 3.357066e-02 2.216261e-02 -9.462111e-02 2.133885e-02 3.443900e-02 -1.506044e-03 -2.613081e-02 -4.989458e-02 -2.607602e-02 -1.110165e-03 -1.231957e-02 -4.306822e-02 -5.980953e-02 -4.931029e-02 -5.015679e-02 7.319371e-02
<VARIANCE> 39
 8.830877e+00 7.497871e+00 7.149244e+00 6.954769e+00 1.069025e+01 1.354834e+01 1.551482e+01 1.829813e+01 2.107852e+01 1.501604e+01 1.462417e+01 1.123481e+01 7.109528e+00 1.326814e-01 2.179341e-01 3.124948e-01 5.102936e-01 8.225766e-01 1.093096e+00 1.204810e+00 1.243425e+00 1.202953e+00 1.253412e+00 1.183605e+00 1.045158e+00 4.637018e-02 3.214361e-02 5.144079e-02 6.323157e-02 1.115979e-01 1.554781e-01 2.433936e-01 2.505483e-01 2.547514e-01 2.724180e-01 2.638206e-01 2.367132e-01 2.073248e-01 2.330923e-02
<GCONST> 6.890133e+01
<STATE> 7
<MEAN> 39
 -1.561745e+01 6.142445e-01 8.405371e-01 2.395617e+00 3.132964e+00 2.881637e+00 4.476265e+00 4.552613e+00 4.419410e+00 3.916048e+00 4.017827e+00 2.287218e+00 4.776441e+01 -9.460849e-02 -5.300286e-01 -3.658009e-02 -2.794652e-01 -9.172873e-02 -7.831898e-01 -6.216093e-01 -3.317415e-01 -8.521502e-02 -1.453299e-01 -3.450708e-01 -2.418817e-01 1.585072e+00 6.146455e-02 -3.534911e-01 -1.417173e-01 -2.503621e-01 -2.678283e-02 -2.899719e-01 -3.721308e-01 -2.418184e-01 -5.377745e-02 -7.534929e-02 -1.148637e-01 -1.400938e-01 8.985621e-01
<VARIANCE> 39
 9.063521e+00 1.229947e+01 6.869465e+00 6.012975e+00 9.362632e+00 1.008312e+01 1.198413e+01 1.454247e+01 1.537428e+01 1.194584e+01 1.359481e+01 8.135048e+00 6.163412e+00 6.953030e-01 8.646232e-01 1.063621e+00 1.016554e+00 1.206865e+00 1.365100e+00 2.024782e+00 1.658591e+00 1.373699e+00 1.076088e+00 1.180788e+00 1.256888e+00 3.298481e+00 1.367161e-01 1.563334e-01 2.257251e-01 1.675304e-01 2.489132e-01 2.303073e-01 3.338895e-01 2.507408e-01 2.317692e-01 2.302422e-01 2.989636e-01 2.789610e-01 3.024183e-01
<GCONST> 8.574627e+01
<STATE> 8
<MEAN> 39
 -1.587681e+01 -3.050629e+00 -2.923025e-01 -6.649572e-01 2.268258e+00 -3.039683e+00 -1.222526e+00 4.486369e-01 2.089138e+00 2.177375e+00 1.610150e+00 8.983571e-02 5.997134e+01 7.437149e-02 -1.806645e+00 -1.202186e+00 -1.020943e+00 1.856536e-01 -8.549199e-01 -1.164871e+00 -9.015459e-02 -2.346825e-01 5.875435e-02 -3.527918e-01 -8.741961e-01 3.619667e+00 9.847408e-02 -5.693379e-02 -3.115983e-01 -1.422724e-01 -6.012231e-02 3.530544e-01 2.839608e-01 3.155051e-01 5.621566e-02 1.406937e-01 6.401677e-02 4.816457e-02 -6.292734e-01
<VARIANCE> 39
 2.360817e+01 1.490432e+01 1.653580e+01 1.135215e+01 2.054177e+01 1.922993e+01 3.102607e+01 1.492779e+01 1.669743e+01 2.012295e+01 1.325302e+01 1.946175e+01 3.273718e+01 1.361147e+00 1.288800e+00 2.179370e+00 1.059134e+00 2.476730e+00 2.330374e+00 2.402416e+00 2.248532e+00 1.554572e+00 2.144835e+00 1.647666e+00 2.144198e+00 2.657603e+00 1.755010e-01 2.921726e-01 2.866234e-01 2.384847e-01 4.391049e-01 3.825864e-01 4.440514e-01 3.454706e-01 3.484266e-01 4.088841e-01 2.840801e-01 4.649316e-01 8.414665e-01
<GCONST> 1.045751e+02
<STATE> 9
<MEAN> 39
 -1.317755e+01 -8.486678e+00 -3.515758e+00 -4.345434e+00 2.384290e+00 -1.473811e+00 -6.239134e-01 9.348590e-01 1.947932e+00 2.907725e+00 1.145991e+00 -4.668496e-01 6.350661e+01 3.317054e-01 -4.349424e-01 -5.403898e-01 -4.951222e-01 -4.996152e-01 -9.306653e-03 -2.146797e-01 -5.832226e-02 1.764381e-02 1.623715e-01 -4.033662e-01 1.834153e-01 -5.186611e-01 2.367386e-02 4.978518e-01 4.203126e-01 3.306160e-01 8.863020e-02 1.350240e-01 2.187620e-01 -2.723526e-04 8.584218e-02 -2.406667e-02 5.793611e-02 1.283937e-01 -8.464148e-01
<VARIANCE> 39
 4.007190e+01 1.102704e+01 2.775910e+01 1.465896e+01 2.619800e+01 2.070056e+01 4.413947e+01 2.429937e+01 2.324938e+01 1.953461e+01 1.979275e+01 2.437535e+01 2.243473e+01 4.771341e-01 1.137646e+00 1.412514e+00 1.592192e+00 1.718915e+00 1.597134e+00 2.158401e+00 2.102412e+00 2.088639e+00 2.513690e+00 1.727202e+00 2.124732e+00 1.260185e+00 1.399825e-01 2.253927e-01 3.141094e-01 2.260437e-01 4.440623e-01 3.562480e-01 4.795148e-01 4.401251e-01 3.302943e-01 3.799306e-01 3.987569e-01 5.042601e-01 4.344157e-01
<GCONST> 1.043558e+02
<STATE> 10
<MEAN> 39
 -1.498338e+01 -6.225795e+00 -4.799524e+00 -4.965804e+00 1.641916e+00 -5.668652e+00 -5.091466e+00 3.690868e+00 1.453106e+00 1.530596e+00 -4.250430e-01 -1.982117e+00 5.947025e+01 2.983891e-01 3.597946e-01 2.592058e-01 2.562460e-01 5.931857e-02 1.124109e-01 2.110545e-01 -2.313901e-03 1.821547e-01 -5.799190e-02 1.514901e-01 1.170118e-01 -9.075405e-01 -5.158296e-02 4.721431e-02 1.200385e-02 8.310023e-02 1.907661e-02 1.053015e-01 4.669770e-02 -1.800221e-02 -1.357410e-02 -1.056632e-02 1.417507e-02 5.380058e-02 1.832188e-03
<VARIANCE> 39
 7.337270e+00 1.116986e+01 8.930184e+00 1.244955e+01 1.048642e+01 1.826188e+01 2.285166e+01 1.847941e+01 2.081277e+01 2.711755e+01 1.661967e+01 1.241220e+01 1.471935e+01 3.889517e-01 6.468956e-01 6.803070e-01 8.295707e-01 9.629769e-01 1.511259e+00 1.504907e+00 1.423711e+00 1.449894e+00 1.650538e+00 1.432713e+00 1.300445e+00 6.851094e-01 6.160486e-02 9.875595e-02 1.330697e-01 1.427156e-01 2.025831e-01 2.924470e-01 3.229618e-01 2.753254e-01 2.996133e-01 3.506816e-01 2.915980e-01 2.158697e-01 5.857806e-02
<GCONST> 8.458325e+01
<STATE> 11
<MEAN> 39
 -1.300556e+01 -1.792604e+00 -5.921975e-01 1.028858e+00 3.051975e+00 2.522770e+00 3.019255e+00 2.057620e+00 4.056100e+00 3.427456e+00 2.621856e+00 2.448035e+00 5.049397e+01 -2.389648e-01 4.137989e-01 1.749098e-01 2.745390e-01 2.238967e-01 2.656334e-01 2.595612e-01 9.002617e-03 -9.889732e-02 6.657930e-02 1.659722e-01 2.857960e-02 -5.388588e-01 -3.008922e-02 -6.117913e-02 -1.696943e-02 -6.874679e-02 2.136926e-03 -9.907309e-02 -5.097683e-02 -1.261731e-03 -2.630655e-02 2.154357e-02 4.978814e-02 -3.109055e-02 1.378998e-01
<VARIANCE> 39
 1.604308e+01 3.122081e+01 1.106108e+01 1.067586e+01 1.275112e+01 2.322588e+01 1.955836e+01 3.001282e+01 2.106833e+01 1.946883e+01 1.875274e+01 1.153411e+01 1.887175e+01 4.193206e-01 6.021321e-01 6.530662e-01 9.367535e-01 9.124391e-01 1.772738e+00 1.552104e+00 1.820228e+00 1.589678e+00 1.777695e+00 1.939573e+00 1.231589e+00 5.039387e-01 8.257525e-02 9.524396e-02 9.993515e-02 1.572562e-01 1.669630e-01 2.773475e-01 2.735852e-01 3.563649e-01 3.264850e-01 3.682396e-01 3.836427e-01 2.401495e-01 5.167092e-02
<GCONST> 8.807310e+01
<TRANSP> 12
 0.000000e+00 1.000000e+00 0.000000e+00 0.000000e+00 0.000000e+00 0.000000e+00 0.000000e+00 0.000000e+00 0.000000e+00 0.000000e+00 0.000000e+00 0.000000e+00
 0.000000e+00 7.562295e-01 2.437705e-01 0.000000e+00 0.000000e+00 0.000000e+00 0.000000e+00 0.000000e+00 0.000000e+00 0.000000e+00 0.000000e+00 0.000000e+00
 0.000000e+00 0.000000e+00 8.600945e-01 1.399055e-01 0.000000e+00 0.000000e+00 0.000000e+00 0.000000e+00 0.000000e+00 0.000000e+00 0.000000e+00 0.000000e+00
 0.000000e+00 0.000000e+00 0.000000e+00 6.236988e-01 3.763012e-01 0.000000e+00 0.000000e+00 0.000000e+00 0.000000e+00 0.000000e+00 0.000000e+00 0.000000e+00
 0.000000e+00 0.000000e+00 0.000000e+00 0.000000e+00 7.041400e-01 2.958601e-01 0.000000e+00 0.000000e+00 0.000000e+00 0.000000e+00 0.000000e+00 0.000000e+00
 0.000000e+00 0.000000e+00 0.000000e+00 0.000000e+00 0.000000e+00 9.056745e-01 9.432548e-02 0.000000e+00 0.000000e+00 0.000000e+00 0.000000e+00 0.000000e+00
 0.000000e+00 0.000000e+00 0.000000e+00 0.000000e+00 0.000000e+00 0.000000e+00 7.084789e-01 2.915211e-01 0.000000e+00 0.000000e+00 0.000000e+00 0.000000e+00
 0.000000e+00 0.000000e+00 0.000000e+00 0.000000e+00 0.000000e+00 0.000000e+00 0.000000e+00 6.137629e-01 3.862371e-01 0.000000e+00 0.000000e+00 0.000000e+00
 0.000000e+00 0.000000e+00 0.000000e+00 0.000000e+00 0.000000e+00 0.000000e+00 0.000000e+00 0.000000e+00 7.169690e-01 2.830311e-01 0.000000e+00 0.000000e+00
 0.000000e+00 0.000000e+00 0.000000e+00 0.000000e+00 0.000000e+00 0.000000e+00 0.000000e+00 0.000000e+00 0.000000e+00 8.505208e-01 1.494792e-01 0.000000e+00
 0.000000e+00 0.000000e+00 0.000000e+00 0.000000e+00 0.000000e+00 0.000000e+00 0.000000e+00 0.000000e+00 0.000000e+00 0.000000e+00 8.444427e-01 1.555573e-01
 0.000000e+00 0.000000e+00 0.000000e+00 0.000000e+00 0.000000e+00 0.000000e+00 0.000000e+00 0.000000e+00 0.000000e+00 0.000000e+00 0.000000e+00 0.000000e+00
<ENDHMM>
